nep4 3 Ba Zr S 
cutoff 8 4 150 20
n_max 4 4
basis_size 12 12
l_max 4 2 0
ANN 30 0
  6.8472407e-05
  2.9392537e-05
  8.9593625e-05
  7.1131006e-05
  5.3451105e-05
  2.6236195e-05
 -6.8011388e-05
 -1.8137844e-05
  2.0004582e-05
  3.0155159e-05
 -2.7067554e-05
  2.4760402e-05
  3.1337418e-05
 -3.4863500e-05
  1.1180267e-05
 -4.0697218e-05
 -2.4086239e-05
 -2.3046554e-05
  1.2762684e-05
 -8.8245026e-05
 -3.7277894e-06
  5.2962487e-06
  6.6485745e-06
  4.6817575e-05
 -2.1451491e-05
  1.1931039e-05
 -4.4538260e-06
 -2.3633247e-05
  4.5882148e-06
  3.5633231e-05
 -9.4924777e-05
  2.4407675e-06
  9.5453652e-07
  2.0467804e-05
 -3.7205880e-06
 -2.6099674e-06
 -6.4965675e-06
  3.2065138e-05
 -8.1602475e-06
  4.0313018e-05
 -6.9954795e-06
  3.4140656e-05
  4.2979231e-05
 -2.9436302e-05
 -7.4175928e-06
 -1.0303482e-05
 -1.9419980e-05
  5.7388261e-06
  1.3673572e-05
  1.0447910e-05
 -9.8435856e-05
  1.2249765e-05
 -5.1483548e-06
  1.9209057e-05
 -6.2389474e-05
 -4.1854171e-05
  3.7641307e-06
 -1.7269509e-05
  1.2143844e-05
  2.0195095e-05
  3.2791251e-01
 -1.3069494e-01
  3.1803837e-01
  5.4776996e-02
 -2.6661167e+00
 -2.6009157e-01
  9.2246883e-05
 -2.9328397e-05
 -2.1303444e-04
 -1.5123571e-02
 -8.7453727e-06
 -2.0984140e-05
 -2.4864512e-05
  2.2222392e-05
 -1.5016789e-04
  9.2768319e-02
 -3.4208419e-06
  2.6830260e-06
 -3.5642533e-05
  3.4735813e-03
  5.5884353e-05
  1.0618617e-05
  3.6500863e-04
 -1.4085750e-04
 -1.6367356e-01
 -4.0526447e-05
  9.6576550e-06
  3.9056104e-05
 -4.6518569e-05
  5.7974976e-05
 -2.2199281e-05
 -6.9555783e-05
  4.2770862e-06
 -9.6723033e-06
  5.0395807e-05
 -4.3730952e-06
  1.5920014e-05
 -6.4643500e-05
  4.0237073e-06
  2.1817409e-06
  1.4322140e-05
 -2.8198874e-05
  7.3580784e-05
 -1.5223150e-05
  2.1549604e-05
 -6.1196497e-06
 -9.2543687e-06
 -6.0410648e-06
 -4.9450980e-05
  3.4869033e-06
 -1.1702415e-05
  3.0408144e-05
  3.7661459e-05
 -6.7029228e-05
  6.5448556e-05
 -1.5871941e-05
 -2.7780330e-05
 -1.4976513e-05
  2.7009315e-05
 -4.2631022e-05
  1.3529135e+00
 -2.0059555e+00
 -2.1381757e+00
 -8.6486888e-01
 -2.1161966e+00
  2.4987504e-01
 -1.4349463e-07
 -2.0383877e-01
  3.9787525e-01
 -5.1447672e-01
 -5.2157691e-05
 -1.9702406e-05
  4.8091671e-05
  2.9289215e-05
 -1.6815379e-01
 -1.3481314e-01
 -2.6202092e-06
  2.1503730e-04
  8.8032002e-06
 -1.2745298e-02
  4.0379973e-06
  1.4313676e-04
 -3.1924817e-05
 -5.3163285e-06
  6.3020593e-01
  2.5398404e-06
 -1.4487840e-05
 -7.6283031e-05
 -6.7341156e-05
 -1.5947236e-04
 -1.1476119e-05
  1.1570387e-06
 -1.6259017e-05
  3.7432528e-09
  1.3493155e-05
  1.6077794e-06
 -1.4380870e-06
 -5.6848727e-05
  5.2535834e-05
  6.9748185e-06
  1.2114586e-05
 -8.1837525e-06
  1.8616145e-05
 -1.3265140e-05
 -1.4787878e-05
  2.1924858e-05
  3.3197311e-06
 -5.7300978e-05
 -2.0654512e-05
  2.7995164e-05
  3.3704607e-06
  4.7702080e-05
 -4.2269719e-05
 -5.6436293e-05
  8.3592276e-06
 -2.3077841e-05
 -7.7032164e-05
  2.8717064e-05
  1.0923724e-05
 -1.4973426e-05
 -2.0318705e-06
 -2.1419706e-05
 -6.6467779e-05
 -1.2091413e-05
  2.2067879e-05
  4.8059435e-05
 -3.4361819e-05
  2.7679696e-05
  1.1937054e-05
  5.5611490e-06
  6.2882697e-05
 -2.1969907e-05
  2.6465172e-05
 -1.9870491e-05
 -4.9111004e-06
  4.6218294e-05
  3.1361679e-07
  1.4002495e-05
 -1.2915814e-05
  6.2275694e-06
  4.3650249e-05
  9.7507345e-06
  3.9660795e-06
  4.9960418e-05
  9.6309464e-07
  1.6698900e-06
  5.7200609e-06
  8.9741252e-06
  1.0984265e-05
  7.2486005e-06
  1.2445809e-06
 -8.6421960e-06
 -2.1056259e-05
  1.0169699e-05
 -1.3470009e-05
  8.7934186e-06
  4.9566141e-05
 -3.0513784e-05
  1.6949094e-05
  1.7849294e-05
 -2.3424918e-05
  1.7763130e-05
 -4.5392539e-05
  2.8752440e-05
  4.6147044e-05
  1.9800053e-05
  3.5256027e-05
  4.2110434e-05
  9.5604298e-07
  3.7800785e-06
 -2.2613554e-05
  1.5291092e-05
 -3.0159403e-05
 -4.5806821e-05
  6.0933529e-05
  1.6294372e-05
  5.8536862e-05
 -1.6589536e-07
 -1.3922133e-05
  4.3290336e-05
 -8.5008960e-06
 -2.2967035e-05
 -2.9491832e-06
 -6.7644432e-05
 -2.1438700e-05
 -4.4618851e-06
 -4.2757324e-06
  2.9828652e-05
 -2.2156304e-05
  3.2280723e-06
 -4.1678031e-06
 -1.1306951e-05
  2.0962992e-05
  1.8137269e-05
 -6.4180801e-07
  3.5047953e-05
  1.0894322e-05
 -7.8009343e-06
  2.3002114e-05
  9.6349075e-05
  2.7376987e-06
 -1.4505891e-05
 -6.9639441e-07
 -4.3918761e-05
  9.2565497e-05
 -5.0882619e-07
 -2.3719338e-05
  5.1359115e-05
  3.4964018e-05
 -2.8314241e-06
  1.3319464e-05
  1.1982109e-05
 -1.1326421e-04
  1.6540700e-05
  4.6725762e-07
 -8.8720029e-05
 -2.6099733e-05
  3.0263129e-05
 -1.7360606e-05
 -5.8692236e-05
  2.7787302e-05
 -1.5397371e-05
  1.3426272e-05
  4.3535497e-06
 -6.2114632e-05
 -2.9229008e-05
  5.6092504e-06
 -1.0180102e-05
 -1.2890555e-05
  1.0540010e-06
 -6.8838636e-07
 -1.2355720e-04
  3.5497902e-05
 -1.0110281e-04
 -1.2470646e-05
 -2.5509267e-05
  3.7271257e-05
  1.8028180e-05
 -2.9118994e-05
 -8.1858952e-06
  1.8747100e-05
 -5.2366000e-01
 -5.8356982e-02
 -4.0750438e-01
 -1.7333761e-06
  1.7098767e-01
 -7.1498830e-06
 -9.8938130e-05
  2.5412910e-06
  1.5316830e+00
  2.4231185e-05
 -1.1530523e-05
  3.1104551e-05
  1.5262776e-05
 -8.1506958e-05
 -1.6430924e-05
 -3.2392031e-06
 -1.7990877e-05
  4.5664077e-05
 -3.2511022e-02
  5.0600670e-06
  2.5437926e-06
  5.9651575e-05
  3.5729388e-06
  2.9946789e-01
  7.1533113e-06
  5.8914520e-05
 -5.6420995e-05
 -3.9281422e-05
  1.2525488e-06
  6.0117716e-01
  4.0594416e+00
 -1.6202176e+00
  3.4410601e+00
 -7.8493947e-01
 -2.0148235e-04
  1.6893697e-05
 -7.3766927e-03
 -1.5839128e-04
  5.4342031e-01
 -2.7456264e-05
  5.2992422e-05
  2.3054042e-06
  1.2210676e-05
 -2.4702026e-01
  4.1370728e-05
 -8.1853923e-06
  6.6262931e-01
 -2.1829696e-06
  1.5850451e-02
 -2.9114328e-05
 -1.7841792e-05
  1.3430029e-01
 -1.9629384e-05
 -1.2742754e-05
  2.1451136e-05
  7.2284631e-05
  2.5163323e-05
  9.3613780e-05
 -7.6047115e-02
  4.3658680e-01
 -1.1121925e+00
 -1.7883610e+00
 -7.5351697e-01
 -4.2014394e+00
  3.2256922e-01
  4.8076014e-05
 -1.2822612e-01
  6.7648989e-01
  2.0666751e-01
  1.8295006e-05
  2.2564085e-05
  4.4126247e-04
  6.0753170e-02
 -2.2852257e-01
 -7.6478973e-02
 -2.0900678e-05
  4.9405091e-04
  1.1001412e-02
 -1.6307171e-02
 -3.6799377e-06
 -4.4644098e-06
 -4.9846318e-02
  2.6318921e-05
  3.8074729e-01
  4.2815744e-05
 -4.9836097e-05
 -5.4711541e-05
  2.8128952e-05
 -1.0341795e-04
 -3.2019532e-05
  3.0394143e-05
  9.3426727e-02
  1.3915420e-04
 -1.0933084e-04
 -1.1406756e-06
 -1.9249206e-05
 -3.0407597e-05
 -1.8905925e-05
 -1.0595273e-05
  3.2583441e-05
 -7.0511240e-05
  8.5343136e-06
  1.3841797e-06
 -1.6639995e-05
  6.5800277e-06
  2.5765998e-05
  5.0076101e-06
  1.8883273e-05
  3.2024418e-05
  9.0677740e-06
 -4.7608410e-05
 -4.3286411e-05
  2.1694866e-06
 -3.6864454e-05
 -6.4831966e-06
 -4.8812959e-05
 -9.1648935e-06
  3.4932087e-05
 -7.3434958e-06
 -5.3408303e-06
 -1.1062895e-05
 -2.7427428e-05
  6.4565220e-06
 -1.4501194e-05
  3.8423619e-05
 -3.0481278e-05
 -7.5671691e-05
  4.5943088e-05
 -1.0655544e-06
 -2.1172562e-05
 -3.6803795e-06
 -1.4194250e-06
 -6.5126687e-06
  1.2915792e-05
 -1.3582839e-05
  4.2105676e-06
 -3.9974157e-06
 -1.7089029e-05
  1.8001623e-06
  5.1371258e-05
  3.8985338e-05
  1.9595549e-05
 -3.8187831e-05
 -2.7595852e-06
 -8.8565384e-06
 -2.3448407e-05
 -2.6523087e-06
 -1.2326331e-05
 -5.7125576e-06
 -2.8976196e-05
  2.3740106e-06
  2.0027419e-05
  3.1243926e-05
  8.4443218e-06
  4.9287566e-05
 -1.1465238e-05
  7.0835254e-06
  3.2473534e-05
  2.4399604e-05
 -4.6510551e-05
 -8.5118279e-07
  1.8849396e-06
  4.4455344e-05
 -7.7141121e-05
  2.2371667e-06
 -7.4022864e-06
  1.3039094e-05
  2.4705973e-06
 -1.4954985e-05
  3.3963140e-06
  1.4297588e-05
 -1.2149566e-05
 -3.6211517e-05
 -3.6847434e-06
 -6.2508811e-06
  4.0964067e-05
  4.5986555e-05
 -4.6033360e-06
 -7.2058996e-05
  3.9166954e-01
  1.6342387e-02
  2.1196353e+00
  7.6247770e-01
 -8.9977574e-01
 -3.5774675e-01
  1.1247186e-05
  3.4869084e-01
 -3.2733360e-04
  1.1337829e-01
 -2.5226132e-05
  5.3080453e-06
 -4.5570057e-05
 -1.2206529e-04
 -2.9716733e-01
  1.8157761e-01
 -1.5655765e-05
  5.3132627e-02
 -3.5997367e-05
  2.4071610e-02
 -3.9860726e-05
 -4.3171647e-05
  1.5822453e-02
 -4.7260339e-05
 -7.4749567e-02
  1.6593363e-05
 -7.8976364e-06
  1.3876123e-04
 -2.5591733e-06
 -7.9859092e-06
 -3.4581948e-02
  6.9041628e-01
  4.4449440e-01
  2.2816453e+00
 -1.1077086e+00
 -7.3440868e-01
 -2.1057465e-05
  1.4238495e-01
 -3.4158776e-04
  9.4651066e-02
 -2.7030070e-05
  3.2011629e-04
 -2.3410415e-04
 -4.5560770e-02
  5.8054909e-02
  1.8850644e-01
 -1.9893623e-05
 -5.0308272e-02
 -3.3904875e-05
 -1.7435759e-01
  7.0282891e-05
  1.7571478e-05
  1.9595139e-03
  1.3884180e-05
 -9.0443313e-01
 -1.6439730e-05
 -1.1900832e-05
  2.0390460e-05
 -8.9796486e-05
  4.1350324e-02
  2.6491264e-06
 -4.5675843e-05
 -6.0584051e-05
 -1.2175314e-05
  2.1124812e-05
  1.4384753e-05
  2.9233395e-06
  2.2168542e-05
  1.9900948e-05
  1.0832041e-05
  6.5536296e-05
  9.7031043e-06
 -4.0973260e-05
 -1.3081159e-05
 -4.4415274e-06
  1.9330221e-06
 -2.4431842e-05
 -1.1273278e-05
 -5.0871553e-05
 -3.3748067e-05
 -2.5481995e-06
  9.6643089e-06
 -2.7568507e-05
  1.3826805e-05
  4.2987263e-04
 -4.3433440e-05
  4.0844909e-05
 -8.4564228e-05
 -5.3186555e-05
 -7.0267456e-06
 -1.0174253e+00
 -1.2872387e+00
 -2.6502001e+00
 -4.3756810e-01
  2.9352349e-01
  2.2075504e-02
 -6.5648283e-06
 -1.8622768e-01
  7.5737349e-05
  5.0466266e-03
  5.4127970e-05
 -1.0631495e-05
  1.9446514e-05
 -1.9238974e-05
  3.3943626e-01
 -6.4568128e-05
 -2.8582075e-05
 -1.2349869e-01
  3.0182813e-05
  5.1292591e-05
 -8.1558072e-05
 -5.8782130e-06
 -3.3026084e-04
 -5.5290693e-05
  9.2161608e-06
  7.2876155e-06
  5.0949307e-06
  2.1934263e-06
  2.6101909e-05
  3.5065561e-05
  1.8833900e-05
 -1.3090759e-04
  2.6017207e-05
  4.3004948e-05
  8.5603034e-07
  1.8943798e-05
  2.8608620e-05
 -1.2623112e-06
 -8.2007891e-06
  1.2983463e-05
  8.7659561e-07
 -1.5764042e-05
 -1.1408656e-04
  2.4951112e-06
  8.9331907e-06
  1.1658405e-05
  9.4355064e-06
  1.1438777e-05
  1.5252043e-05
 -3.5916298e-06
 -2.3946852e-06
 -1.1966584e-05
  1.3946195e-05
 -6.3655843e-06
  5.9124483e-05
 -5.8636342e-06
  3.6208516e-05
  7.7773759e-05
 -6.6946645e-06
 -1.3604278e-05
 -3.0249199e-01
 -3.7555048e-01
 -3.4677021e-02
 -8.7475464e-02
  3.2421832e+00
  3.9238909e-01
  9.3340386e-06
 -1.1742501e-04
  4.1787472e-01
 -1.3721240e+00
  1.4628211e-05
 -1.4503853e-05
 -1.5198431e-05
 -4.4479912e-06
 -5.6054967e-05
 -3.5403964e-01
 -2.4283283e-05
 -5.8450298e-03
  3.5144411e-05
 -9.8794237e-02
 -2.5922776e-05
 -6.0339655e-05
  2.0027035e-05
  1.8639599e-05
  7.2825938e-01
  7.0971032e-06
 -1.4938209e-05
 -4.6455420e-06
 -1.6500022e-05
 -8.3642133e-02
 -1.2306989e-05
  1.4961353e-05
  3.7259593e-05
  3.0139157e-01
  4.1908638e-06
 -2.5529046e-06
  3.4433003e-06
 -1.2403984e-04
 -6.2852114e-06
 -6.5856839e-06
 -3.7190916e-06
 -7.1973700e-05
  2.7973776e-06
 -7.7296943e-07
  9.5217911e-06
  4.6843412e-05
  1.2930179e-06
 -6.3931446e-07
  2.6432866e-05
 -3.5376281e-06
 -1.1431813e-05
 -6.2303429e-06
  3.0465426e-06
  3.2240048e-05
 -2.1153361e-05
  1.2174230e-06
 -1.6236039e-05
  6.1181745e-05
 -4.5013658e-06
  2.2432368e-05
  7.3858155e-07
 -4.2500537e-06
  3.5236040e-01
  5.0003687e-03
 -1.5571035e-01
 -4.9276338e-03
 -1.1027724e-04
 -5.0958803e-05
 -2.6154241e-05
 -1.4116483e-02
  7.5629039e-05
  3.4511664e-05
 -2.0833899e-05
  7.1600516e-05
 -2.3122354e-06
  5.4916259e-06
  4.4271374e-06
 -1.4173647e-05
  1.5695246e-05
  4.1809704e-05
 -9.4159761e-05
 -3.1653148e-05
  1.4004045e-05
 -1.2085097e-05
 -5.3463871e-05
  1.6349544e-05
 -1.0607955e-06
  7.0631154e-06
 -7.0883565e-05
  9.9902272e-06
  1.7101776e-02
  9.6805459e-01
 -7.2926176e-01
  1.7754143e-01
 -2.1098563e-01
 -2.0281363e-01
  1.9010709e-05
 -4.0399969e-05
 -6.8684326e-06
  1.0070898e-01
 -1.2676335e-06
  3.7695398e-05
  6.6596731e-06
 -8.3826686e-05
  1.5444806e-05
  1.0849310e-04
 -1.2399734e-05
  1.4361803e-05
 -3.0081927e-05
 -4.2958298e-01
  3.3976310e-06
 -9.3812969e-06
  8.9415062e-06
 -1.5514976e-05
 -7.9753672e-06
  9.5076044e-05
  1.9840620e-05
  7.3359406e-05
  2.5950463e-05
 -6.4624851e-06
  3.3044953e+00
  1.3453122e+00
 -3.2931781e-05
  1.7185315e+00
 -5.5736187e-04
 -2.2186300e-01
 -1.2906285e-05
 -7.1864180e-02
 -3.2463697e-05
 -5.5436736e-01
  1.2940473e-05
 -6.1616527e-05
 -1.3739995e-05
 -3.8129165e-05
  9.2212832e-07
 -8.1777725e-06
  4.5948193e-05
  7.3554083e-06
 -1.0040935e-05
 -4.2885977e-01
 -8.1466060e-05
  2.8252478e-05
  1.6917489e-05
  4.5319266e-05
 -1.9688888e-04
 -4.5950335e-05
  4.6022866e-05
  7.4297408e-05
  3.7780115e-05
  6.5171385e-05
 -2.0404319e-05
  8.5772517e-05
  4.4488650e-05
  2.0780446e-05
  5.0696403e-06
 -7.5660748e-05
  1.1981657e-05
 -1.7655287e-06
 -2.6397876e-04
  7.0922574e-06
  1.1061393e-05
 -1.2604047e-04
 -7.9351150e-05
  3.6377096e-06
  8.4543710e-05
  9.9165745e-06
 -2.3733779e-05
 -3.7883117e-06
  1.6218396e-06
  1.8025781e-05
  6.7914552e-05
  8.7493390e-06
 -1.0169560e-05
  6.2675131e-06
 -1.1548961e-05
 -5.2211475e-05
  6.8238478e-05
  1.6544587e-05
  2.1914864e-05
  1.7589775e-05
  1.5804935e-05
  3.3331340e-05
 -2.4625313e-06
  1.0630379e-05
  5.1367100e-05
  2.7373790e-05
  2.7990529e-05
  1.0863525e-05
 -8.2722672e-06
  3.7424732e-05
 -1.9934920e-05
  7.9262943e-05
 -1.2129045e-04
 -2.1948526e-06
  1.8419936e-05
  4.5740140e-05
 -2.3997913e-05
  6.4135740e-05
  1.4143852e-06
 -6.4636879e-06
 -4.7194138e-05
  2.3069344e-05
  7.5638607e-05
 -1.6430901e-06
 -8.1381120e-07
 -5.6425079e-06
  8.5341693e-05
  1.5623233e-05
  3.5538920e-05
  1.9109517e-05
  1.4707232e-06
 -1.6960063e-05
 -1.1481889e-05
 -2.0278577e-04
  2.1906694e-06
  1.1360632e-05
 -1.0575636e-06
  1.8298027e-05
  7.6716278e-06
  4.6786510e-05
  5.3098884e-05
 -8.9667257e-05
  7.3540992e-05
  4.7437490e-05
 -9.9103509e-06
 -3.1023370e-05
  1.1986435e-05
 -1.2264392e-06
  1.1271265e-05
 -6.0520283e-06
 -2.4034494e-05
  8.6384362e-06
 -1.8510507e-05
  2.6529866e-05
  4.9684553e-05
 -9.2484850e-05
  3.3912370e-06
 -2.1253127e-05
 -1.1081204e-05
 -3.7633476e-06
 -2.8939535e-06
  4.9432660e-05
  5.3390390e-06
 -2.4566531e-05
  1.3974203e-06
  1.1959353e-06
 -1.9819332e-05
  4.7194703e-08
 -1.6874952e-05
 -1.6911117e-06
  3.6772528e-06
  2.6063726e-06
  1.6082697e-05
  1.1324669e-06
 -8.6814862e-07
 -1.5513269e-05
  1.4280473e-04
  1.3096404e-05
 -1.1998976e-05
 -2.5953703e-05
 -3.7613504e-06
 -9.9360068e-06
  1.8219785e-06
  1.5673852e-05
  2.4477936e-07
  2.5115254e-05
  2.3132103e-05
  8.4379681e-06
  1.0182606e-05
  1.8007788e-05
  1.4168073e-05
 -4.7445508e-05
 -1.0873027e-02
 -1.8864850e-05
  8.6093032e-01
 -1.7494553e-05
 -3.8596034e-05
  3.3658773e-01
 -2.2380473e-05
 -2.6024731e-05
 -9.4715357e-02
 -6.3984650e-01
  8.7776697e-01
  3.4990251e-01
 -1.4066706e-05
  3.2558695e-05
  3.7960234e-01
 -5.4140902e-01
 -6.1308068e-01
 -1.4849654e-01
  5.0281806e-06
  7.5428881e-02
  4.5822024e-02
 -1.2024003e-01
 -1.8064021e-01
  1.0338969e+00
 -5.6804043e-01
  1.2229089e-05
 -5.2778834e-01
  4.4586554e-06
 -1.3476294e-05
  2.8246892e-05
 -1.5297335e+00
 -8.8769211e-06
  2.0906222e+00
 -4.8579819e-05
 -3.4387009e-05
 -3.4820136e-01
 -4.7290760e-05
 -2.4506619e-05
  9.4655621e-01
 -1.7631401e+00
  2.8699362e+00
 -4.7370180e-01
 -7.6612880e-05
  1.4721641e-06
 -1.6298671e+00
 -1.8952069e+00
  5.2726120e-01
  1.8093551e+00
  6.2124873e-06
  1.7629752e+00
 -2.4455218e-01
 -6.6921854e-01
 -8.9501041e-01
 -1.5072379e+00
 -5.9684718e-01
  3.2401200e-05
  4.8201719e-01
  4.8412371e-06
 -7.4647403e-05
  1.2946171e-05
 -1.2302916e-01
  1.5565925e-05
 -1.1460058e-06
 -7.0998326e-06
 -1.1103375e-05
 -2.3160135e-05
  1.5790876e-05
 -8.4616595e-06
  2.0810166e-06
 -2.1916821e-05
  9.8805167e-06
  7.4177369e-06
 -9.1063639e-06
  5.5313903e-06
  1.2414828e-05
 -3.5611101e-05
 -2.1451368e-05
  1.6364471e-05
  1.6657372e-05
 -1.8549066e-05
 -6.3234889e-05
 -1.1113422e-05
 -3.6845518e-05
  3.0972042e-05
  9.2007704e-06
 -2.8384393e-05
  2.1409269e-05
 -4.9301947e-05
  6.6947257e-05
 -7.0181845e-06
 -2.5116375e-05
 -2.4809931e-06
  1.7131764e-05
  3.2472990e-06
  4.2229667e-06
 -3.8898984e-06
  4.1259573e-06
  3.5048909e-06
  3.2836683e-06
  6.4811080e-05
  4.0817736e-06
  2.7389391e-05
 -9.7351976e-06
 -3.1859014e-05
  7.2788998e-06
 -7.3841838e-06
  4.8141748e-05
  1.0342187e-04
  9.8462233e-06
  7.8542607e-06
 -7.8767727e-05
  1.6106895e-05
  2.0511294e-05
 -2.2958489e-05
 -1.7501396e-05
  1.6751478e-04
  2.8261558e-05
 -3.3666034e-05
 -4.7880472e-05
 -3.7153110e-05
 -2.6508613e-05
  2.8232848e-06
  1.1066937e-06
 -3.0979048e-05
 -1.6303246e-05
 -5.5626020e-05
  2.9353534e-05
  1.4444026e-05
  8.3016384e-05
  1.6384312e-05
  4.7268018e-06
  7.5192336e-05
 -3.3852987e-06
  4.6417284e-05
  2.7433900e-06
  4.0410421e-05
 -1.9478553e-05
 -1.8934961e-05
  8.5406109e-06
 -1.5189393e-05
  1.2750124e-05
 -1.3322934e-05
  3.8105736e-05
  3.5063299e-06
 -2.4830737e-05
 -4.7608919e-05
 -2.2756089e-05
 -7.4626141e-06
  1.5771915e-06
  4.8396923e-05
  6.7527872e-06
  5.2867863e-06
 -1.2389937e-06
 -3.7076949e-05
 -1.9087520e-05
 -3.4611225e-05
 -2.2157108e-05
 -3.0600793e-05
  5.4830934e-06
  2.6565715e-05
  1.1385729e-05
 -2.4599624e-06
 -3.8007308e-06
 -3.3057171e-05
 -1.4884658e-05
 -8.5172014e-06
  1.8883184e-05
 -1.3281469e-05
 -2.0717980e-05
 -7.8911404e-07
 -3.6240370e-05
  1.6093596e-05
  6.2534164e-05
 -1.3781997e-05
  8.0404261e-06
  2.7032476e-05
  4.1767503e-06
  8.0810540e-05
  1.5449256e-02
 -5.4682833e-01
 -1.0270179e-01
  3.2128984e-05
  3.6073342e-01
 -1.1201552e-01
  3.9667594e-01
  1.7788626e-01
  2.1011329e-01
 -1.7105857e-02
 -2.0730286e-05
  6.3480681e-01
  7.5444394e-01
 -1.5806517e-01
  2.8404010e-02
 -3.9264292e-02
  1.5269057e-01
  1.5279122e-01
  1.5764600e-01
  1.8417747e-01
  3.6799076e-01
  6.7867541e-01
 -9.0907224e-07
  2.1923012e-01
  5.2958310e-01
  4.3476819e-05
 -3.9319038e-01
 -5.9102712e-07
  4.4778349e-06
  3.5307214e-03
  6.7462723e-05
  9.4581237e-06
  3.7793201e-05
  4.8393984e-05
 -9.2406499e-06
  2.1832091e-05
 -5.8500018e-06
 -3.6264305e-07
 -1.4344701e-05
  5.3363146e-06
  2.7203590e-08
  6.3516367e-05
 -2.3360926e-05
  1.7245568e-05
  7.6083044e-05
  2.9410337e-05
  3.4351806e-06
  8.8057423e-05
  4.8039008e-05
  1.1048254e-05
 -1.3074510e-06
  1.2075569e-05
  1.9318160e-05
 -1.6987871e-05
  1.1188158e-05
 -4.6569188e-05
 -6.8486144e-05
  2.3396489e-05
 -3.9312845e-06
  1.5472679e-05
  4.4776139e+00
  1.0034691e+00
  2.6012277e-02
 -3.2043540e+00
 -3.0362117e-01
 -1.4428285e-01
 -2.6479222e-02
 -2.1309194e-01
 -1.8007778e-01
  1.3080834e-03
 -1.8752773e-05
  2.6416308e-01
  8.2219876e-02
  7.5358194e-01
  3.3785394e-01
 -1.9006197e-01
 -1.6736593e-04
  1.9779852e-01
 -2.6936786e-02
 -4.9173236e-01
  2.3516977e-05
  1.9385277e-01
  5.6796403e-06
  3.5480729e-01
  8.2362123e-02
 -1.0984643e-05
 -1.0221403e-04
 -3.9466879e-05
 -3.2832655e-01
  1.0614377e-02
  5.7603093e-06
  1.3344472e-05
 -1.5665512e-06
  3.6012389e-05
  4.3633340e-06
 -4.7573911e-05
  5.7099928e-06
  6.7092864e-05
  7.2874020e-05
 -1.8985867e-05
  2.6578598e-05
 -7.1989352e-06
 -5.3200994e-05
  1.4556558e-05
  6.4709347e-05
  7.9871779e-06
 -1.4828059e-05
  2.6278747e-07
  9.4713403e-07
 -5.2535532e-05
  1.9422725e-05
 -4.8728944e-05
 -2.5390977e-05
 -2.3119150e-05
 -2.3440948e-06
  1.6902557e-05
 -1.8302984e-05
 -1.1414712e-05
 -6.3851980e-06
  4.1685442e-05
  2.5263485e-02
  9.4578159e-01
 -1.4901809e+00
  1.0995547e+00
 -1.6070864e+00
  1.1732248e-01
 -6.5631014e-01
 -5.1661122e-01
 -1.3434710e-01
  3.0235633e-01
 -1.0447090e-05
 -3.0924129e-01
 -3.2462057e-01
 -5.0778642e-02
 -2.0328142e-01
  5.6830508e-01
 -2.5999659e-01
  5.8943601e-06
 -1.4160416e-01
 -2.6358521e-02
 -3.0687563e-05
 -7.3477632e-01
  6.4575208e-05
  7.9117721e-01
 -8.0181617e-06
  5.0841605e-05
  1.3694073e-01
  1.6629239e-05
  4.9329302e-08
 -1.3298849e-05
  3.2042666e-05
  6.5799439e-05
  5.1179759e-06
  1.8643585e-05
 -4.0148707e-06
  4.7235153e-05
  3.4134890e-05
  1.0308481e-06
  6.6743278e-06
  2.8816296e-05
  7.3813346e-05
 -6.8106856e-06
  1.7069220e-05
 -5.2606117e-07
 -2.4275807e-06
  5.1506555e-05
  1.9720457e-05
 -1.1581988e-05
  3.7393609e-01
 -7.4829375e-05
  1.2901427e-05
 -9.4021270e-05
 -3.0482115e-05
 -4.0074046e-06
 -5.2802252e-06
 -1.0208878e-06
 -3.2703688e-06
 -1.8652788e-06
 -6.8829540e-06
 -5.1716157e-05
  1.1523423e-01
 -7.0234948e-01
  1.1770155e+00
 -4.2740613e-01
  2.1300645e+00
 -1.1925354e-01
  4.7430983e-01
  1.4939351e-02
  3.0282146e-01
 -4.1319814e-01
 -1.9837546e-05
  2.9341677e-01
  3.3343947e-01
 -2.8393302e-05
 -5.3372707e-05
 -5.3210464e-05
  7.4519914e-01
 -1.2978938e-06
 -6.4982206e-01
  2.1668459e-01
 -3.0808194e-05
  8.4055461e-02
 -2.5342213e-05
  5.2123349e-05
  5.1761997e-01
 -7.1497504e-07
 -1.5003243e-02
 -9.5687110e-06
 -4.1636696e-07
  1.7953318e-04
 -1.3045404e+00
 -7.1684200e-01
 -5.7064509e-01
 -1.6794759e-03
 -1.0655892e+00
  1.6382271e-05
  3.2474800e-06
 -3.9803992e-05
  3.1381750e-01
  1.0567343e+00
  1.6994107e-05
  1.0309790e-01
  3.2552335e-04
  1.2452513e-04
  2.0439060e-05
 -4.3391038e-02
  2.7649447e-01
  4.1551670e-05
 -5.8568865e-01
 -3.1452134e-01
  2.8844322e-06
  2.7514982e-01
 -1.9555428e-05
 -4.4756478e-01
  3.0527046e-01
 -1.4047217e-05
  6.3352425e-05
 -1.0663288e-04
  4.6746968e-06
  1.1493949e-05
  1.0577698e-05
  7.8020512e-06
  1.0182346e-06
  4.4312133e-06
 -1.7168377e-05
 -2.1901138e-05
 -2.2360023e-06
  2.7094833e-05
  5.5778590e-05
 -5.0346156e-05
  4.7285401e-05
 -1.5424084e-05
 -4.1821335e-05
  4.7574707e-05
 -1.2073187e-05
  1.9962987e-05
  5.1131043e-05
  1.1421484e-05
 -2.5001138e-05
 -4.1712665e-05
  4.0796894e-07
  1.7241744e-05
 -3.0854582e-05
 -6.9206567e-06
  1.5935948e-05
 -8.2385195e-06
 -2.4728202e-05
 -4.9229726e-05
  4.3265190e-05
 -1.2913789e-05
  4.4038344e-02
 -1.6551734e-05
  2.0360054e-01
 -1.3190086e-01
 -1.9079100e+00
 -2.6858776e-05
  3.9661559e-01
 -2.6301296e-02
  8.3567160e-01
 -2.8092451e-02
 -5.0513314e-05
  7.0833820e-01
  2.6531121e-05
  2.9129583e-01
 -9.1867340e-01
  3.0832372e-05
  5.9908962e-01
 -5.9700458e-05
  1.1312923e+00
 -4.1755013e-02
 -5.2182982e-05
 -9.0620648e-03
  2.3244200e-05
 -4.3522719e-02
  1.1875758e-01
 -1.1549595e-05
 -1.0753793e-05
  5.0864437e-05
 -6.7188732e-05
 -2.0898874e-06
 -8.4707528e-01
  4.7660613e-01
  1.9064726e-04
  1.3124552e+00
 -4.7005396e-02
  1.1108124e-01
  1.6177792e-05
  3.5174459e-01
 -1.4134726e-04
 -8.6736288e-03
  1.2396175e-05
 -4.3602449e-01
 -7.5333990e-02
 -3.4683028e-01
  2.3639373e-05
  4.7644410e-01
 -4.9971834e-05
 -2.4679455e-05
  6.1961054e-03
  3.8848570e-01
  1.4099865e-07
 -3.0771506e-01
  6.0616730e-06
 -1.4197707e-01
 -2.5019181e-01
  2.1335094e-05
  7.3151736e-05
 -5.1986757e-05
 -1.8718407e-05
 -8.0062760e-05
 -2.1545824e-05
  1.5858554e-07
  2.8351211e-05
 -2.5735146e-05
  1.7504131e-05
 -2.9915613e-05
 -1.8546330e-06
  1.8627930e-05
 -1.5294647e-06
 -1.3663544e-04
 -7.0374539e-05
 -3.2605607e-05
  2.4222851e-05
 -1.4427660e-05
  3.6660149e-05
 -9.6402459e-07
  2.1132009e-05
  4.8889848e-05
 -9.0247167e-06
 -1.8667144e-05
  8.2012839e-06
 -8.1410326e-06
 -4.0236637e-06
 -3.8257717e-06
 -8.6465998e-06
  6.0901161e-06
 -2.1413785e-05
  2.8113189e-05
  6.3649782e-06
  4.9656159e-05
  5.1957604e-06
 -3.5658257e-05
 -1.3632221e-05
  5.2633272e-06
  8.2305869e-06
  4.8474503e-06
  3.9074134e-06
 -1.4244477e-05
 -3.5218942e-05
  1.1321805e-05
  5.5353235e-06
  3.3901044e-05
 -6.3322996e-06
 -1.1911942e-05
  4.6693491e-05
 -7.3668275e-07
  1.9720287e-06
  5.4865234e-07
  4.8034190e-06
 -3.4649151e-05
  1.5461052e-05
 -6.1309520e-06
  2.0513435e-05
 -1.0166062e-05
 -2.3592447e-05
  2.8736222e-05
 -1.3181304e-05
  1.8775365e-06
  9.3107928e-06
 -1.0882327e-05
 -7.0251590e-06
  3.4045756e-06
 -4.3121483e-05
  2.2917873e-05
  1.6471296e-05
  5.5422079e-06
  3.7808170e-06
  1.7630025e-06
  9.1138627e-06
  1.7174798e-05
  2.4216271e-05
  1.5936506e-05
 -4.8768793e-06
 -4.2514171e-06
 -2.6447426e-05
  2.9139896e-06
 -6.7386823e-06
 -5.3869489e-06
 -6.2268800e-06
  7.1809327e-06
  1.8408600e-05
 -4.5025472e-06
 -6.6531088e-06
 -7.0453384e-06
  5.2201307e-05
  1.8619818e-05
 -7.7280514e-05
 -8.3593986e-06
  5.0320386e-06
 -4.0719067e-05
 -2.1233923e-06
 -3.2035830e-05
 -2.8460324e-06
 -5.0326536e-05
 -1.3640863e-06
  7.7444338e-06
 -4.5864632e-05
 -8.7225244e-06
  1.0079194e-04
 -7.7544764e-06
 -5.3685294e-06
 -1.1976195e-05
  5.8846155e-05
 -1.6287213e-05
 -3.0286152e-05
  7.5945186e-06
  4.0320403e-05
 -3.1282507e-05
  6.5123440e-06
 -7.1784423e-05
  1.1022508e-05
  2.5203264e-05
  1.1931475e-05
  1.9592554e-07
 -9.7560257e-07
  8.2363753e-05
 -1.3206183e-06
 -7.6969609e-06
  6.3999705e-06
 -1.9151114e-05
 -5.1486459e-06
  4.7482117e-06
  7.9378842e-06
  2.1273256e-06
  1.4003275e-05
 -6.4388456e-05
  2.2836952e-05
 -8.8247191e-07
 -2.4226521e-05
  2.8292625e-05
  6.3465509e-06
 -1.9258667e-05
 -1.8438692e-05
  2.6537771e-05
 -5.5563519e-06
 -2.0101705e-05
  3.9620227e-06
 -9.0151858e-05
 -8.2929502e-05
  5.2500403e-05
  1.2863281e-05
 -2.4995750e-05
  3.2972443e-06
 -2.6363361e-05
  2.2701446e-05
  4.6717079e-05
  1.9232386e-05
  1.2840546e-04
 -6.8716213e-06
 -3.4450706e-05
  3.6821408e+00
 -3.8301739e-01
  9.6000135e-02
 -1.8289212e+00
 -4.2894739e-01
 -9.7017273e-02
 -1.0487319e-04
  1.1763431e-01
 -4.1527435e-01
 -3.9581601e-03
  1.0668266e-05
 -1.2808122e-01
  2.5553864e-01
 -2.8305072e-01
  1.1381798e+00
 -1.2898809e-01
  5.6402326e-01
  1.2605256e-01
  8.7854546e-01
  8.7306008e-02
 -4.9590271e-06
  1.0837324e+00
  1.0391724e-05
  3.6823865e-02
 -1.1598095e-02
 -1.7404725e-05
 -1.0400764e-04
  3.1804491e-06
 -9.0871472e-05
  9.7287295e-05
  1.9832268e+00
  1.0870894e+00
  1.9335808e+00
 -1.2050538e+00
 -2.7811604e-03
 -3.4666047e-02
 -1.4830007e-03
 -7.2208699e-05
 -1.8407260e-01
  3.8507470e-01
  2.1369360e-05
  6.8547179e-06
  3.9672348e-04
  1.6411474e-04
  8.4300175e-02
 -4.6333895e-04
 -1.1187006e-04
  2.2968759e-05
  1.0678946e-01
  5.0889271e-01
 -1.7749227e-03
 -1.5157295e-04
  5.9361582e-06
 -5.9581576e-03
 -4.7836769e-03
  1.4683053e-05
 -1.6977490e-05
 -3.6027501e-05
 -8.9969626e-06
  1.0072585e-04
  7.6824363e-05
  5.8611247e-05
 -1.3126730e-05
 -3.9364254e-06
 -3.1995241e-05
  1.3731958e-05
  2.9498337e-06
 -1.9633566e-05
 -1.1023785e-05
  2.2678192e-05
  1.3403638e-04
  1.2606994e-05
  4.0662900e-07
  3.5087654e-05
  2.7297674e-05
 -7.4223813e-06
 -1.0908986e-05
 -1.7408520e-05
 -6.8151479e-05
  4.0279559e-05
  7.4728764e-06
  9.8476403e-06
  2.8870623e-05
  1.5338992e-05
 -4.3457218e-05
 -3.1894262e-05
 -4.0620343e-05
 -2.4382600e-05
  7.4927666e-06
 -4.6162597e-05
  8.5271680e-01
  4.4608116e-02
  7.7834898e-01
  1.0408871e-05
 -8.3792603e-01
 -1.5855744e-04
  6.0717462e-06
 -1.5534230e-05
 -4.8895791e-04
 -4.6952136e-02
 -1.1561352e-05
 -5.3483058e-05
  7.7854616e-05
  1.8221812e-05
  1.4354478e-01
 -1.2699922e-04
  3.8093935e-05
  2.1924940e-05
  3.3649325e-01
  7.0743978e-01
 -2.2024382e-05
  1.1900287e-05
  1.2427861e-05
 -3.6954778e-05
 -1.2453671e-02
  2.7781498e-06
 -1.5611347e-05
 -2.4718145e-05
 -2.0931109e-05
 -2.2065360e-05
 -7.3283800e-04
  3.6766014e-01
  2.9034808e-01
  1.8967296e-05
  6.4672531e-06
  6.8358560e-05
  7.5372594e-04
 -5.0821435e-03
  5.1610965e-01
 -2.0274623e-01
 -1.1148194e-05
 -5.2919495e-07
 -6.0943293e-04
  7.6110541e-06
 -8.7269153e-05
 -3.3347821e-06
  4.8123663e-03
 -9.3805575e-04
  6.7071885e-01
 -5.2367222e-01
 -2.3904326e-05
 -4.8390380e-03
  2.3132276e-05
 -3.7112564e-01
 -8.0654630e-05
  7.6206102e-06
  2.0472144e-05
 -1.0353677e-04
 -1.3889323e-05
 -3.4845827e-05
  1.2588164e+00
 -1.0326692e-01
 -7.3258424e-01
  2.7142322e-01
 -1.2580225e-05
 -2.5126976e-05
 -1.2574808e-04
 -1.3585557e-06
 -1.9288374e-03
  6.6362756e-01
 -4.9430044e-05
  3.1208180e-04
  6.4525222e-05
  3.6531608e-05
 -4.2907582e-03
 -1.7058730e-04
 -6.5498032e-05
  3.0376782e-06
  1.3727923e-04
  2.1934058e-03
 -6.8980822e-05
  2.1328959e-04
  8.4701358e-05
  4.8545632e-01
  1.2248001e-05
  2.4327380e-06
 -2.5922006e-06
 -2.9014109e-05
 -1.1047589e-06
  2.0368025e-04
  1.8794398e-01
 -1.5411232e-01
 -7.1694536e-05
  6.6373127e-06
 -5.7442576e-06
 -3.3256281e-05
  2.2850731e-05
 -1.6367434e-02
 -7.4705140e-06
  1.9666152e-06
 -6.9924472e-06
  1.0501351e-05
 -3.9736997e-06
  4.2131869e-05
  6.9837065e-06
 -4.8481666e-06
 -1.0546304e-06
  3.7599344e-05
 -1.6986664e-02
  2.6269583e-04
  1.8468222e-06
  2.1432135e-04
 -2.3010925e-05
 -8.0779391e-06
  4.6389105e-06
  1.5000525e-05
 -8.1360573e-05
 -1.8652367e-05
  1.2192206e-05
  1.5589889e-05
  4.8168330e+00
  2.6060072e-01
  2.7659748e+00
 -6.3879865e-01
 -5.7724482e-01
  1.9367762e-05
 -5.9805412e-02
 -2.5015494e-05
 -1.7523935e-01
  7.7092808e-01
  4.0015159e-04
 -5.9714752e-01
 -7.0361607e-02
  6.2149033e-05
  6.0487818e-02
  4.2956468e-02
 -1.8267998e-02
 -1.1161575e-04
  2.0902789e-01
  3.0958144e-02
  7.1894833e-06
 -2.3670036e-05
  6.8102509e-07
 -5.9088517e-02
 -6.0167998e-01
 -2.0415312e-06
  2.9152578e-01
  1.0817234e-05
 -1.3980310e-05
 -2.7379650e-03
  3.0041624e-06
 -1.0801446e-04
 -3.3662789e-05
 -1.6714193e-05
 -1.7189303e-06
 -1.9317629e-05
 -2.0246182e-05
  1.4889329e-05
 -6.1767656e-05
  4.3403870e-06
 -2.7917162e-05
  2.0416977e-05
  6.6976777e-06
  6.5866800e-07
  1.5045471e-05
 -2.0400985e-05
 -6.1590449e-06
  3.6568359e-05
  7.0315011e-02
  8.5068971e-01
 -3.9885317e-06
  5.5843728e-05
 -1.4093464e-05
  1.6952398e-06
 -5.3265817e-06
  4.3316522e-06
  5.8747059e-06
 -3.8580671e-05
  1.8863844e-05
  9.1360353e-06
 -3.4351840e+00
  4.8524967e-01
 -3.3220401e+00
 -3.2003322e-01
 -4.6569648e+00
 -3.3576955e-05
 -4.1865847e-01
 -2.7551180e-01
  1.5196206e-01
 -3.2797033e-01
 -3.7815377e-01
  7.1270978e-01
  6.4570196e-02
  3.3209130e-01
 -6.6713893e-01
 -2.2128314e-01
 -6.2122706e-02
  1.0091802e-05
 -5.3695619e-02
 -1.0893033e-01
 -6.1452401e-01
  1.3358088e-01
 -5.8138572e-05
 -1.0132097e+00
 -3.5574201e-01
  8.9917330e-06
 -4.2827505e-01
  5.3192949e-08
  3.7093529e-01
  4.2495155e-01
  1.3707617e-05
 -1.8466859e-01
  5.4429158e-05
 -8.3999942e-07
  9.8043150e-01
 -9.2914879e-06
  1.2215854e+00
 -3.5826433e-05
  3.3950526e-01
  7.8117961e-01
  5.6529808e-01
 -1.3871905e-01
 -1.6179485e-05
 -1.6355149e+00
 -6.7638105e-01
  2.6008256e-05
  5.1662050e-06
 -2.2654005e-05
  6.3339903e-06
  1.0523620e-05
  1.7332014e+00
 -1.4970948e-01
 -1.4983617e-05
  1.8587935e-01
  1.9722469e-01
  5.0420082e-01
 -2.4658950e-05
 -1.0389210e-01
 -2.5292441e-01
 -9.1493756e-01
  1.5388879e-06
  4.3932119e-01
  5.0124476e-05
  1.3580600e-06
  1.9057014e+00
 -1.2091209e-05
  2.0118339e+00
 -2.2506567e-06
 -1.2994210e+00
 -6.5530688e-01
  1.2877918e+00
  8.2495332e-01
  1.1048607e-05
  1.3815773e+00
 -1.1250830e+00
 -2.1980252e-07
 -1.8019166e-05
  7.5578746e-06
 -1.0076131e-05
 -2.2645872e-05
  1.1149710e+00
  9.3871081e-01
  7.3370175e-05
  6.3183880e-01
 -9.6684349e-01
  8.3602500e-01
  4.5894024e-01
 -1.5916654e+00
  3.4703785e-01
  2.6460936e+00
 -6.0650520e-04
  6.5015753e-05
 -1.4951389e-05
 -6.4476818e-02
 -1.5080318e+00
  2.2521448e-05
  6.8609393e-01
  9.3347675e-01
  1.6359012e-01
  5.4334474e-01
 -2.8571693e-04
 -1.7367676e-01
  1.8958701e-01
 -7.0961207e-05
  2.1502465e-01
 -2.5363355e-05
 -7.9548240e-01
  8.7186450e-01
  4.6444147e-06
  6.9843918e-01
  4.5336874e-05
  5.4627608e-06
  1.4752964e-05
  1.5189273e-05
  3.0297262e-04
 -3.0561007e-06
 -6.3724139e-05
  3.8302520e-01
  4.2362449e-01
  6.3155510e-02
  1.8587721e-06
 -1.5076429e-05
  2.2722588e-05
 -3.3205598e-07
 -1.4543297e-05
 -7.5881515e-05
 -2.9926016e-06
  8.0074396e-06
 -3.0023161e-06
 -2.8033426e-06
 -7.2392959e-06
  1.4661398e-05
 -1.2062160e-05
 -4.1500084e-06
 -2.0520512e-05
 -4.9231699e-06
 -2.2399296e-05
  1.8932906e-05
 -9.2416840e-06
 -9.0911626e-06
  9.0885978e-06
 -1.0590482e-05
 -4.0561140e-06
 -2.3461582e-05
 -6.2773841e-05
  7.2191010e-06
 -2.2806776e-06
 -1.1750282e-06
 -5.7181470e-08
 -5.8962069e-06
  2.9233282e-05
 -9.4897532e-06
  4.4301010e-05
  9.8093169e-06
 -1.1007471e-05
  5.0794624e-05
  7.6616459e-07
  6.1530942e-01
 -2.9619314e-06
  3.9329893e-06
 -5.4409607e-05
 -5.8808261e-01
 -2.6780184e-05
 -3.5957362e-06
 -1.4879438e-04
 -5.5606220e-06
  1.1180767e-02
 -1.9704642e-06
 -1.5481317e-05
  3.0655490e-05
 -1.0147070e-04
  9.1930870e-06
 -1.4193717e-05
  5.2730833e-05
  3.3871977e-06
  5.5488949e-06
  2.8375840e-05
 -3.7171172e-05
  4.0385032e-05
  8.4965150e-06
  3.1183991e-01
 -1.4102018e+00
 -4.2350858e-01
 -9.4227260e-01
 -1.0461376e+00
 -1.0184973e-03
 -7.2878736e-01
 -2.2463784e-01
 -3.2828230e-01
  2.6891544e-01
  1.2564686e-01
  4.1050217e-01
 -4.2123180e-02
 -1.5177836e-01
  1.1772444e-02
 -9.7052502e-03
  4.8396567e-01
 -2.7751687e-05
 -5.8170334e-02
  1.0237578e-02
  2.2340673e-01
  1.6148105e-01
  1.0575954e+00
  2.6953903e-06
  1.0282316e-01
 -2.6029927e-06
 -1.8639866e-03
 -3.3685338e-02
  3.5935693e-05
 -1.2726982e-05
 -6.5600078e-05
 -9.5564965e-06
 -1.5619129e-05
  5.3599078e-06
 -1.1255903e-05
  4.1533272e-06
 -2.9615157e-05
  1.8062994e-05
  3.8521526e-07
  1.5785303e-05
 -1.4237362e-05
  8.6898226e-06
 -9.6453150e-06
 -3.6737587e-05
  6.8698146e-06
 -7.9771871e-06
  1.2797731e-05
 -1.5998181e-02
 -4.2706506e-05
 -7.5229850e-06
 -4.1232990e-05
 -8.4860330e-06
 -2.4167619e-05
  4.5616071e-05
  5.7142215e-06
 -2.6730439e-05
  7.9423694e-07
  5.3999446e-07
  3.6338697e-05
 -8.6274067e-06
  1.8512128e-05
  3.2751179e-06
  7.3005773e-05
  1.4158206e-05
 -1.4845183e-05
 -2.3412778e-05
  1.1613002e-05
 -3.8185237e-05
 -7.8651810e-06
 -1.2042430e-05
 -7.0712999e-06
 -3.9812097e-05
 -5.3065065e-05
  4.1518022e-05
  5.5521878e-06
 -4.1687355e-05
 -1.1413670e-05
  2.8675860e-05
  3.0646377e-05
 -3.6038909e-05
 -4.1029189e-06
 -3.6061181e-06
  5.4338176e-07
 -6.9348731e-05
 -2.0895779e-05
  4.3812735e-05
 -9.1310021e-06
 -5.2530272e-06
  8.0263826e-06
 -5.0859730e-06
  4.5001590e-05
 -8.5337626e-05
  1.4526485e-05
  1.0011078e-04
  2.3650227e-05
  2.1892454e-05
  8.8284914e-06
  2.2161250e-05
  2.2463477e-05
  2.7910894e-05
  6.3621555e-05
 -1.9514693e-05
 -2.3078114e-06
  3.7429650e-06
  7.0890419e-06
 -5.4954194e-07
 -3.2556368e-06
  1.1967694e-05
  1.2696099e-05
 -8.4657421e-07
 -2.7390779e-05
 -5.2682861e-07
  1.1025550e-05
 -3.1881289e-05
  1.8908961e-05
 -5.6918934e-06
  8.7527014e-06
 -1.3671402e-05
  1.4520419e-05
 -5.9850777e-08
 -6.3445579e-05
  3.3745517e-05
 -3.5753733e-06
 -1.1488016e-05
  5.8899273e-06
  1.0747753e-05
  7.4828849e-06
 -2.3759003e-05
  7.0677497e-06
  6.1732089e-07
 -3.0548243e-05
  9.9689555e-07
 -6.2950426e-06
  1.5065412e-05
 -6.0034622e-06
 -1.7725164e-05
 -4.1192674e-05
  1.1854137e-06
  3.5870635e-05
 -9.0044541e-06
 -4.1958632e-05
 -1.1261865e-05
 -7.9866089e-07
 -1.7317150e-05
 -5.7003440e-06
  1.0133471e-04
 -1.4611698e-05
  4.3832657e-05
 -5.3487138e-06
 -7.7391287e-06
  1.7225416e-07
 -1.1302984e-05
 -2.1241985e-05
 -2.7908216e-05
 -3.7081067e-05
  1.0455547e-05
 -4.6148078e-05
 -1.1720444e-05
 -6.3267216e-06
  2.7405722e-05
  1.0135533e-05
 -7.8837629e-06
  4.4215092e-05
 -9.1139254e-06
 -1.4665959e-05
 -8.0833452e-05
 -3.1405358e-05
 -1.7076533e-06
  3.2660457e-06
 -4.8317715e-06
 -1.0275608e-05
 -5.4433345e-05
  2.4633893e-05
 -4.5662538e-05
  6.7711617e-06
 -1.0151277e-05
  3.8560254e-05
  1.3460422e-05
  4.1643125e-07
  4.1961088e-05
 -2.4163526e-06
  5.1337167e-07
  4.6924324e-06
  2.2729475e-06
 -4.9467894e-06
 -1.2980389e-06
 -1.3182432e-05
 -2.0335152e-05
 -1.3633068e-05
 -3.7406026e-05
  2.5454598e-05
  1.2273883e-05
  1.3574084e-05
  2.6612788e-05
  4.2767242e-06
  6.2747313e-06
 -2.4536488e-05
 -1.4210375e-05
 -4.9929531e-06
  1.7737862e-06
  1.4401868e-05
  1.0277586e-05
 -5.5343908e-06
  1.2910421e-05
  6.3188058e-06
  4.2995605e-05
  6.5091258e-06
  1.6977447e-05
 -1.6633194e-05
  3.0810033e-06
  1.8313288e-04
 -3.4840778e-05
  2.0527252e-06
 -1.1577151e-03
  3.3743095e-02
 -1.4506140e-01
 -6.2613416e-01
  7.6627100e-01
 -5.9609604e-01
  1.1305113e-01
 -3.4479704e-05
  4.7898837e-03
  2.1896033e-01
 -1.3902587e-01
  1.0574036e-02
 -1.2293362e-04
 -2.7186462e-01
  4.5685407e-02
 -3.1555923e-05
 -1.2570671e-05
  2.1194339e-04
  1.6544749e-04
 -1.4120322e-05
  8.8862034e-06
  1.1214443e-05
  4.4417997e-05
 -3.7317461e-06
  1.6053822e-06
 -4.3055934e-05
 -3.2851838e-06
 -9.5934811e-05
  1.5004193e-03
 -7.1902708e-05
  3.1319251e-03
 -8.0384519e-03
  6.9839165e-02
  2.4641134e-02
 -1.3422505e-02
  4.1844123e-03
 -6.4393558e-02
 -1.4893344e-06
 -9.4654225e-03
 -1.4436482e-03
  1.6856425e-01
 -1.2241311e-01
  1.0737837e-02
  1.4698431e-01
 -4.6745133e-02
  1.4556079e-05
 -2.1582021e-01
 -2.2505066e-01
 -2.9491214e-02
 -1.9068834e-01
  3.7336064e-05
 -3.9219388e-01
 -2.1804776e-04
  9.1300532e-04
 -1.4959286e-04
 -3.7037898e-04
 -3.7106860e-05
  1.3846482e-05
 -1.7134013e-05
  1.7937920e-06
  5.0923909e-06
  1.7877037e-06
  1.5264729e-06
 -6.1977162e-06
  4.3388904e-05
 -5.5350793e-06
 -7.0286864e-05
 -7.0798196e-06
  1.2634439e-05
 -5.1612478e-06
  5.8827181e-06
  1.3799089e-05
  3.9239685e-06
 -9.9528661e-06
  8.2290080e-06
  1.1358784e-05
  2.5046074e-05
  1.5402216e-05
 -1.4400018e-05
  4.3842138e-05
 -2.0117757e-05
  1.4746000e-05
 -6.6563825e-06
  4.3381619e-06
 -3.3877717e-05
  5.2888328e-07
 -7.0777896e-06
 -1.5097942e+00
  1.5694301e+00
  2.7293393e-01
 -3.3461328e+00
 -1.8806762e+00
 -3.9187235e-01
  3.4394538e-01
  2.7708497e-02
 -1.8634367e-01
  2.7100399e-01
 -2.4806753e-02
  2.6750631e+00
  1.7249602e+00
  1.4422668e+00
  4.3926980e-02
 -3.1374591e-05
  6.7698061e-01
  9.2612600e-01
 -6.3703519e-01
 -1.4304870e-01
 -2.8800150e-06
 -1.2257859e-05
  9.6168614e-04
 -1.4773557e-01
 -6.1163247e-01
 -5.0938870e-05
 -5.1458593e-02
  3.6009130e-01
  1.5897779e-06
 -3.2960692e-05
  8.3117433e-05
 -4.7680173e-06
 -2.7744187e-05
 -1.3161782e-05
  2.7355188e-01
 -1.7643737e-05
  1.2940460e+00
 -2.3556121e-01
 -2.7870863e-06
  7.8238696e-01
 -4.2692522e-05
 -4.5320645e-04
 -7.0263450e-03
  3.1910506e-05
  1.2060539e-05
  3.8324365e-06
  1.0477867e-01
 -1.9486713e-01
 -4.7359496e-05
 -4.4647277e-05
  5.1978952e-07
  8.7336575e-06
  5.7305169e-06
 -2.5740030e-05
 -8.7229796e-07
 -1.3697080e-04
  1.1408092e-05
 -6.6320790e-05
 -4.2867134e-05
  4.7415138e-05
  9.2082649e-07
 -2.7153712e-05
  3.9787856e-06
 -7.8459016e-06
 -1.0660492e-05
 -3.9931579e-06
 -3.0172292e-05
  8.8313318e-06
  1.2159684e-04
 -5.2513087e-06
 -9.9613653e-06
 -6.2971103e-06
 -6.8881673e-06
 -6.0002996e-05
  2.2426580e-06
  3.2292044e-06
 -8.1276730e-06
 -1.0717637e-05
 -1.2281728e-05
 -1.4813791e-05
  4.5684334e-05
  4.7461776e-06
 -3.3152952e-05
 -3.9854083e-05
 -2.1030601e-06
 -1.8229886e-05
 -1.5160462e-05
  2.8502252e-05
 -1.6771917e-05
  3.2959651e-05
 -1.3509533e-05
  1.4952085e-05
  7.2912939e-05
 -9.5166354e-07
 -4.2039956e-05
  5.2763538e-05
 -7.2368508e-05
 -1.4708234e-05
  1.4914519e-05
  8.7014872e-05
  7.3025178e-05
 -1.5912657e-07
  7.6217480e-06
  7.3413663e-05
 -1.5473039e-05
  1.0650112e-04
  2.7182566e-06
 -4.6424542e-05
 -2.2040887e-05
 -2.9964067e-06
  2.5700590e-06
  3.5153425e-05
 -1.1896121e-05
 -6.9222035e-05
  1.8184666e-05
  4.5014931e-06
 -6.2768595e-06
  1.0878884e-05
 -4.0869556e-05
  3.5125609e-05
  1.4225900e+00
  3.6173712e-02
 -2.8149056e-01
 -9.8785676e-02
 -1.8220499e-02
 -3.7581518e-03
 -6.9837886e-01
  1.4547797e-01
 -6.7573404e-01
  4.3040806e-01
 -2.5328016e-01
  1.9210325e-01
 -4.6041679e-01
  2.0736136e-02
 -2.5587979e-01
 -8.4162843e-01
  2.1631807e-01
 -7.1408820e-01
 -1.9677982e-03
 -6.3827378e-04
 -2.9138449e-01
 -6.4892881e-02
 -5.6290039e-04
 -3.9779839e-05
 -2.9938403e-01
 -3.7479753e-05
 -1.5585715e-02
 -1.0407346e-05
 -5.0827777e-01
 -5.0975810e-05
 -2.7623988e-05
 -2.7607524e-05
  2.9234027e-06
  6.3330575e-05
 -3.1263469e-06
  7.7496443e-06
  3.8713974e-06
 -2.3921979e-05
 -3.7599375e-06
  2.6020196e-05
 -2.9642548e-05
 -6.0619677e-06
 -2.7112554e-05
 -9.4206167e-05
  2.7464637e-05
 -1.5019783e-05
 -2.7342464e-06
 -4.0554725e-05
  3.7230259e-06
  1.7228944e-05
  3.6110359e-05
  3.8988628e-06
 -1.3184793e-06
  1.3635615e-04
  3.2601929e-05
  4.9292124e-05
 -1.4687663e-05
 -1.0462635e-04
  5.1877691e-06
  1.2368560e-05
  3.3000357e-05
  1.0776684e-05
  1.9913505e-05
 -6.1561979e-05
 -9.2409637e-06
  1.2191579e-05
 -3.7709760e-05
 -3.7198559e-05
  9.2482642e-06
  8.8258757e-06
  6.8399335e-05
  1.1876044e-05
  2.5918815e-05
 -9.2334114e-05
 -1.1950088e-05
 -1.1376821e-05
  1.5116841e-05
 -7.2878088e-06
  1.0470319e-05
 -3.8731429e-05
  1.3727025e-05
 -1.1752942e-05
 -4.7259350e-06
 -3.0219644e-05
 -1.4288438e-05
 -9.8040209e-06
  2.8478602e-05
  1.0339863e-04
  3.1955038e-05
  3.7365106e-05
  1.3510460e+00
 -2.0760934e+00
 -2.4594426e+00
 -2.5934796e+00
  6.0875803e-01
 -3.4807020e-01
  6.9794142e-01
 -3.9441434e-01
 -1.3804093e-01
  2.7410293e-02
  3.8495943e-01
  1.7160594e-02
 -1.1574568e+00
 -4.0071793e-03
  1.6618710e-02
 -1.5594433e-05
 -3.7763048e-02
 -3.1721407e-01
 -6.4203739e-01
 -1.1232400e+00
  4.7303689e-01
  3.2919246e-01
  5.3463799e-01
  9.2313174e-05
  5.8178902e-01
 -1.9961924e-05
  1.8778394e-01
 -3.1232223e-01
 -6.7067747e-05
 -9.1277187e-05
  9.6246564e-01
 -8.4192032e-01
 -1.0790741e+00
  1.5206954e+00
  2.3722281e-01
 -1.2965133e+00
  5.6855148e-01
 -7.9415448e-02
  1.0948236e+00
 -6.7606874e-02
 -1.1790859e+00
 -1.8123304e+00
 -1.0979637e+00
  3.0586103e-01
 -9.6739662e-01
 -1.9378386e+00
 -2.7387118e-01
  2.8065217e-01
 -5.9715223e-01
  4.9015668e-01
 -9.0208337e-02
  1.7925184e-02
 -5.0898111e-01
 -1.8808105e-06
  1.5691299e-05
 -1.4841164e-05
  3.7278955e-05
  2.2941191e-01
 -6.2568329e-06
 -5.2960366e-01
  1.0016618e+00
 -1.7109182e+00
 -5.1659536e-01
 -2.4777300e+00
  1.8169607e-01
 -1.4934778e-01
  2.7889550e-01
  5.4092914e-01
 -2.2343443e-01
 -5.6011885e-01
  4.6762973e-02
 -2.8898054e-01
  1.4189409e+00
 -1.9939221e+00
  3.5184956e-01
  1.8296540e-01
  4.0008262e-01
  8.7307394e-01
  2.0543335e-03
  8.8500392e-01
  4.7556740e-01
  3.8742539e-01
  1.4351423e+00
  5.4408126e-02
  1.3310659e+00
  1.5021815e-06
 -1.1407094e-01
  4.7226939e-02
  5.2870968e-03
 -6.1290570e-02
  5.1099741e-01
  4.4090175e-03
 -2.2069378e+00
 -6.3942440e-02
  6.8748152e-01
 -9.5162505e-01
 -9.6975654e-01
  1.8236762e-02
 -4.0435761e-01
  5.7292342e-02
 -3.6891084e-05
  4.0386850e-01
  3.6156002e-01
 -3.2699142e-02
  1.5705585e+00
  1.6331062e-01
  1.0914693e+00
  9.1273166e-02
  2.0691743e-02
  1.4207556e-02
  1.4848432e-01
  4.1276112e-02
 -1.4457095e-01
 -7.0698952e-06
  1.0517718e+00
 -5.2075993e-06
 -5.4462967e-03
  1.0109289e+00
  7.1106574e-06
 -2.7271213e-03
  7.0011432e-05
 -6.1625546e-01
 -6.4738824e-06
 -3.1270686e-01
 -1.4148706e+00
 -4.5772085e-05
 -8.3766589e-03
  1.0121210e-02
 -2.6377311e-01
  1.4358187e+00
 -8.3691310e-05
  1.3571374e+00
  1.8408896e-01
 -5.1862925e-01
  2.9190096e-01
 -6.8793643e-06
  5.5389584e-04
  2.9331765e-01
  6.9668042e-03
  7.8395069e-01
  1.0108605e-05
  8.4963232e-02
  3.8894445e-02
  1.0059082e-05
  2.7892401e-04
 -4.8128292e-08
 -7.1503944e-04
 -2.4333578e-02
  2.0092718e-02
  3.9820015e-06
 -2.5338009e-05
  5.3823562e-03
 -2.6859373e-03
  4.7518414e-01
 -5.2113706e-01
  1.5589720e-01
  1.1769055e-01
  8.6337566e-01
  1.2455047e-02
 -2.5091816e-02
  1.4798442e-01
  1.3532513e-02
 -1.5687150e-01
  2.4777254e-02
 -2.5186804e-01
 -5.6293960e-05
  4.5050946e-01
  1.3708824e-01
 -9.5519485e-05
 -1.1449384e-01
  1.2541310e-05
 -8.4547282e-06
  5.9512599e-06
 -1.4285425e-04
 -5.2528936e-02
  2.0694908e-06
  1.4149555e-04
  1.4477330e-02
 -3.5539594e-01
  1.6634081e-05
  1.4682104e-05
 -4.7167981e-01
  1.1378127e-05
 -5.0940930e-06
  8.4892235e-05
 -1.4007639e-05
  4.9717793e-01
 -2.3503590e-02
  7.7467591e-02
  4.0201613e-01
  5.4722250e-06
  1.2667530e+00
  2.6669922e-01
 -1.0611500e-04
  2.7419877e-01
 -5.9642357e-06
  5.6574130e-01
  2.1557215e-01
 -1.1257876e-04
  7.0871502e-06
  1.0266101e-05
 -7.6971637e-06
  2.7036122e-05
  1.1629189e-05
  5.1734733e-06
 -6.1916139e-06
 -5.5177166e-05
  9.2850355e-03
  2.9913840e-06
 -6.8601203e-06
 -2.6614361e+00
  2.0579664e-02
  9.3364477e-02
 -3.0227790e+00
 -3.4776726e+00
 -2.9774716e-01
  1.5171646e+00
  5.5668336e-01
 -2.1987146e-02
 -1.1957762e-01
  9.0052359e-02
  2.2314239e+00
  2.3660441e-03
 -4.3122464e-01
 -1.1195195e+00
 -9.6621938e-05
 -2.0802523e-01
  3.7741593e-01
  4.6630561e-02
 -1.8534362e-01
 -1.6797347e-01
 -2.8212545e-03
 -1.6052604e+00
 -2.8129271e-01
 -2.4138112e+00
 -7.7055007e-02
 -7.3884463e-01
  5.1861900e-01
 -1.4034022e-02
 -2.0519094e-01
 -8.5095935e-02
  4.5698842e-05
  1.3151491e+00
 -2.4878004e+00
 -1.1516784e-01
  1.1012158e-05
 -4.8398882e-01
  1.0283582e+00
  3.7595612e-04
 -1.5151094e-03
 -1.8400408e-02
 -9.1574329e-01
 -1.7176217e+00
  1.3176525e-04
  6.6779535e-06
 -2.3334960e-03
 -4.4584379e-02
  1.0928428e+00
  3.2207515e-02
  1.1597452e-01
  1.0080654e-04
 -3.1038608e-02
  4.6655746e-06
  1.0982172e-05
  1.5800464e-05
  6.0710547e-05
  1.6572185e-01
 -2.8281066e-01
 -3.2293407e-05
  7.7182849e-06
 -1.1581554e+00
  3.9625973e-02
 -1.2304982e-02
 -5.8341974e-01
 -2.3988554e-07
 -4.1340430e-05
  1.2919143e-01
 -1.0495452e+00
 -6.3430861e-02
 -6.4833307e-01
  1.1275830e-05
 -8.4531003e-01
 -1.8286662e-01
  6.1819006e-02
 -4.6896413e-01
  2.2381319e-06
  9.3094939e-01
  1.3315275e-05
  2.6828504e-01
  2.7256083e-01
 -2.0935279e-03
 -5.1214118e-02
 -9.1312423e-02
  4.7931859e-05
 -3.3586398e-03
 -1.2712111e-05
  5.2947467e-03
 -2.2875279e-01
 -3.3027366e-06
  3.8339522e-06
  2.0050182e+00
 -1.0779296e-05
 -4.9382618e-01
  8.2941592e-01
  8.5628462e-06
 -1.2518512e-05
  1.2705627e-05
 -3.2713251e-05
  2.1403221e-05
  4.7945389e-07
  2.2700369e-01
  4.8494421e-06
  1.2845883e-05
 -4.5086631e-01
  9.5833585e-02
  1.2832497e-05
 -5.7034290e-06
 -1.3828876e+00
  7.0529204e-06
 -1.1429032e-05
 -4.4973087e-01
 -2.1494303e+00
  2.2581460e-01
 -1.2717211e+00
  1.1253629e+00
  1.0756117e+00
  2.3330931e-01
  7.8494918e-01
 -1.2407650e+00
  2.6460004e-01
  6.3142771e-01
 -2.2447844e-06
 -2.0478575e-01
  7.4686682e-01
  1.4646949e-05
 -6.1240803e-02
  1.5507601e-05
  9.0777539e-06
  5.2635721e-07
  5.5611528e-02
  3.6694607e-01
 -7.0061862e-01
 -4.3967593e-05
 -2.3273678e+00
 -2.3170716e-01
  3.8486502e-05
  8.7507424e-06
 -1.4920932e+00
  1.7989216e-02
  3.5347832e-06
  9.3605018e-01
 -1.6190627e+00
  8.2252300e-01
  1.9786851e+00
  4.6179444e-01
 -5.5399930e-01
  2.3658553e-01
 -1.3144165e+00
  3.7649354e-01
 -4.9614924e-01
 -2.6590858e+00
  5.8410490e-01
  7.1085276e-05
  5.3143913e-01
 -1.3350490e+00
 -3.5390320e+00
  3.3456237e+00
 -5.1533669e-01
 -4.5842446e-02
 -4.3808249e-01
  3.5095391e-06
 -1.5655851e-05
  3.4941919e-04
 -3.9938073e-05
 -2.5738591e-01
  8.2379735e-01
 -2.8854901e-01
 -4.5307821e-01
  7.9125834e-01
  4.2121750e-01
  2.6198413e-02
 -1.1104384e-02
 -3.0433020e-01
  4.3696517e-05
  3.8956577e-01
  7.2072172e-01
  9.2474896e-01
 -1.8897350e+00
  2.9395346e-06
 -1.4714439e-05
  2.3182182e-01
 -3.3971291e+00
 -3.0953076e+00
  1.0479217e+00
 -9.3153310e-01
 -4.4534519e-01
  1.4995828e+00
  1.6967498e-04
 -2.1653583e-05
  2.7031416e-01
 -5.8362323e-01
 -2.6741578e-05
  2.8880079e+00
 -1.0376970e+00
 -1.3105227e+00
  6.7514902e-01
  3.3866102e-01
  3.5651690e-01
 -1.1478719e+00
  3.2602067e-05
 -1.0494148e-01
  1.9823244e+00
  1.9846800e-01
 -6.2471128e-01
  2.4998432e-01
  1.2910829e-05
 -5.0080898e-06
  9.1705519e-01
 -1.8685738e+00
 -3.7242482e+00
 -1.2560643e+00
  3.4660774e-05
  8.1836551e-02
 -7.4866515e-01
  3.4241363e-01
 -1.1856156e-06
  3.2062653e-01
 -3.4536210e-01
  2.6228639e-01
 -1.2100546e+00
 -2.7371469e+00
 -2.9437885e+00
  2.2651870e+00
 -1.3515337e-01
  2.9308194e-01
 -2.7247262e-01
 -1.8696544e-01
 -3.7020844e-01
  2.9364638e+00
 -7.5756118e-02
 -2.0964153e-01
  1.2774422e+00
  7.8719056e-01
 -4.5749662e-06
  2.0825539e+00
  1.1170671e+00
 -1.5522413e+00
  1.7838019e+00
  1.7303141e-02
 -4.1546240e-01
 -4.5649204e-01
  4.0546879e-06
 -5.0499921e-06
  5.8465666e-01
 -1.8660512e+00
  1.6582648e-05
  7.0491910e-01
 -1.1474081e+00
 -2.1218559e-04
 -1.0851624e+00
  2.3507491e-01
  2.5850723e-05
  3.1685415e-01
 -4.7449616e-01
 -3.0013554e+00
 -8.3870155e-01
 -5.3602511e-01
 -6.1504549e-01
 -3.9302692e-01
 -2.4306761e-01
  2.1203357e-04
 -1.2215611e+00
 -6.0531098e-01
 -3.7370256e-01
  2.3598474e-01
 -3.2405272e-02
 -1.1179477e+00
  3.8138705e-01
 -4.5126146e-01
 -1.3337073e+00
 -9.0096450e-01
  2.8925358e-05
  5.2517885e-06
 -3.1149135e+00
 -2.6004128e+00
 -3.1783018e-01
  1.3418521e+00
 -3.6874739e-03
 -6.1824864e-01
 -6.9229108e-01
 -7.1899417e-06
  5.5832629e-06
  1.1782049e-05
  2.8411308e-05
  4.6834867e-02
 -5.6867647e-01
  2.2334914e+00
  6.4669061e-01
  7.9420048e-01
  4.7728226e-06
  6.2150880e-06
 -8.3850107e-05
 -3.8164803e-01
 -3.1264502e-01
  4.0918052e-01
 -1.7565982e+00
 -4.0352139e+00
  1.0972674e+00
 -9.1179907e-05
  2.9379937e-05
 -4.3378052e-01
 -2.6581836e-01
 -7.6598114e-01
  6.5535581e-01
  1.6356582e-05
 -1.5022844e+00
  5.2733642e-01
 -8.0118043e-05
  2.8495158e-05
  1.4471293e-04
  3.0628880e-02
  9.2761636e-01
 -1.9732949e+00
  4.4611070e-01
  2.8855019e+00
 -1.9869715e+00
  6.1959058e-06
  1.1516349e-01
 -1.1064094e+00
 -7.1968919e-01
 -1.0161254e+00
 -4.8723698e-05
 -1.4495195e+00
 -1.1687315e+00
  6.8628346e-03
 -6.3345919e-06
 -1.4272368e-03
 -9.5001698e-02
 -3.9150998e-01
 -6.4631325e-01
 -2.0882684e-01
 -3.3865193e-01
 -1.3385881e+00
 -9.9890471e-02
 -2.4365134e-05
  7.9798348e-02
  2.3148986e-02
  7.4940974e-01
  6.2853867e-01
 -1.8377377e+00
 -7.4862546e-01
  2.3279309e+00
  8.3239859e-01
  2.5825142e-05
 -1.3977075e-05
 -3.5790168e-02
 -5.3219450e-01
  6.6187596e-01
 -1.8764261e-02
 -9.7722042e-01
  1.5473592e-05
 -2.1553852e-01
  1.6877902e-01
 -1.7800154e-04
  2.3519683e-01
 -1.4984689e+00
  1.1179227e+00
 -5.7674634e-01
 -4.7290704e-01
 -1.1782832e-01
  8.9467025e-01
 -3.0790186e-01
  6.4095956e-01
 -8.7342560e-01
 -3.6522821e-02
 -1.2709935e+00
  3.9644518e-01
 -5.4589641e-01
 -1.8587682e+00
  1.8004448e+00
  2.8723518e-05
 -3.0318317e-01
  5.7521492e-01
  2.0638504e+00
  3.4334189e-01
  3.6678010e-01
  7.5067097e-01
 -1.6083440e-01
  3.7465984e-01
 -8.9466121e-06
 -3.0221256e-05
  2.1321835e-01
 -4.1945824e-01
 -6.0687806e-02
 -3.0673170e-01
  2.5643259e-01
  5.2947890e-02
  5.0643057e-01
 -6.8215507e-01
 -1.2965090e+00
 -2.2202280e+00
 -1.1098956e-01
 -2.0416898e-01
  4.4549382e-01
 -1.1468332e-05
 -1.0992056e-04
 -2.5038940e-05
 -1.1034999e-05
 -1.5193672e-05
  1.6518736e-01
  3.7312938e-04
  3.3456631e-04
 -3.2710999e-01
 -4.7340024e-01
  6.5491700e-01
  4.3169305e-01
  2.4713967e-03
 -2.8358513e-01
 -1.1289279e+00
 -4.9810904e-01
 -5.0204611e-01
  1.6258012e+00
 -1.1248230e+00
 -5.5264296e-05
  2.2375329e+00
 -7.9868644e-01
 -8.5567653e-01
 -9.8269230e-01
 -6.8142444e-02
  2.8183793e-05
  1.7129473e-01
 -5.1302761e-01
 -2.1163121e-05
 -6.0876343e-02
 -3.4493741e-02
 -3.6306826e-03
  1.6083537e+00
  2.7041015e-01
  5.0716540e-03
 -1.3572556e+00
 -9.9606447e-02
  3.6282491e-02
  9.5852202e-01
  1.5040535e-01
 -2.1505111e-01
 -3.9212961e-02
 -1.8483533e+00
 -5.5591631e-01
 -4.9953340e-03
  2.1478937e-03
  2.5038484e-01
 -7.0872194e-01
 -4.5391763e-04
 -9.6460122e-01
 -8.8869137e-01
  4.7741908e-01
  6.0560331e-05
  1.0714421e-01
 -9.9977100e-01
  5.5098706e-01
  2.7694912e+00
 -4.8930342e-03
  1.1468355e-05
 -1.0599842e+00
 -1.4570048e-06
  1.2214800e-01
 -1.4029818e+00
 -8.8712387e-02
 -7.4593741e-01
  1.0262514e+00
  3.5384929e-01
 -1.0943806e+00
  8.1703889e-01
 -4.5180964e-01
 -2.1141279e-02
 -5.4057282e-01
  6.3210005e-01
  2.3006248e+00
 -1.0461692e-01
  2.3925031e-02
 -2.2227575e-01
 -7.6256257e-01
  1.3301564e+00
  2.6418009e-01
  1.6088808e+00
 -6.2061161e-01
 -4.2568487e-01
 -5.5575120e-01
 -2.6022262e-04
 -8.3981962e-05
 -5.8292574e-01
 -2.0956414e-02
 -1.2264826e-01
  6.9184417e-01
 -7.1681008e-02
 -7.8643018e-01
 -5.0005466e-01
  4.9764459e-04
 -6.1408484e-01
 -2.6033485e-01
 -3.5164127e-01
  1.3666989e-03
  7.2577506e-01
  3.0953825e-01
  6.3215971e-01
 -1.6442163e-01
 -4.5673594e-01
 -2.9804349e-01
 -4.3285649e-02
 -7.3157233e-01
 -2.1725588e+00
  9.3927449e-01
 -1.4706141e+00
 -4.3721023e-01
 -3.6553397e+00
  9.1084313e-01
  1.5455492e+00
 -1.0032748e+00
 -6.5942639e-01
 -2.6008539e+00
  1.8217635e-01
 -9.0463182e-05
 -5.3176671e-01
 -7.7065917e-05
 -2.6464331e-05
  8.3647981e-02
  4.3822092e-01
 -1.2905067e-01
 -7.0221287e-01
  1.1158736e+00
  3.0367932e-01
  1.5828924e+00
  2.0052844e-01
  1.1922150e+00
 -3.3700958e-01
 -5.0258297e-01
  1.2203264e+00
 -8.6353648e-05
  8.8641280e-01
  1.1210396e+00
 -9.5289683e-01
  3.1436260e+00
  2.8413966e-01
  2.6615410e+00
  9.0362900e-01
 -1.2026933e+00
 -1.4720906e+00
  1.8796328e+00
  4.3131367e-04
 -4.5143804e-01
 -6.7223430e-02
 -8.5402877e-05
 -4.7126231e-01
  9.2066163e-01
 -1.3357089e+00
 -2.8798494e-01
  2.7974262e+00
  1.4019026e+00
  3.5016358e+00
 -1.3787113e+00
  4.3569833e-01
  6.0671335e-01
  9.6441567e-01
  2.3747249e+00
 -8.5931402e-01
  2.2754668e-01
  9.8146945e-01
 -3.8551798e-01
  1.4335160e+00
  1.1282721e+00
  2.5991395e-01
 -8.6361533e-01
  1.0827956e-01
 -2.0173340e+00
  2.2409348e+00
  2.0870455e-01
 -2.9778128e+00
  8.6544180e-01
 -3.7884514e-03
  2.2495928e-05
 -9.4750834e-01
 -2.8916063e+00
 -1.1315938e+00
  1.4141920e+00
  1.5213927e+00
 -1.9703928e+00
 -1.7375327e+00
  1.9064023e-01
  1.1018329e+00
  4.5666957e-01
 -9.1199005e-01
 -3.6663437e+00
  7.0730048e-01
 -4.9797979e-01
 -3.5450045e-02
 -2.6196268e+00
  5.3908569e-01
 -4.6517263e-07
 -2.5543609e+00
  1.2087926e+00
 -1.0847168e-01
  1.4812260e+00
 -9.8088413e-01
 -4.2280677e-01
 -2.8065419e-01
 -1.4823793e+00
  2.7577996e-01
 -6.2794298e-01
  3.3242258e-01
 -1.2012210e+00
  1.1297208e+00
 -6.8816441e-01
  3.2705975e-01
 -7.1517402e-01
 -1.2942787e+00
  1.4260417e+00
 -1.8754067e-02
  1.8211840e+00
 -2.3289087e+00
 -3.6864334e-01
 -9.9136215e-01
 -7.5768024e-01
  1.5722059e+00
 -1.0079502e+00
  9.1049147e-01
  1.4740379e+00
 -1.1294360e-01
 -1.9901950e+00
 -6.7820527e-02
 -9.1903585e-01
 -1.7369947e+00
 -1.1565243e-01
  7.9125565e-01
 -1.1296691e+00
  1.4078484e+00
 -1.8703173e+00
 -5.9387815e-01
  6.1287373e-01
  2.7141330e-05
 -3.0266958e-05
 -4.3110074e-05
 -1.0383932e-05
 -2.8441953e-05
  2.3872708e-01
 -1.1412313e+00
 -4.5620599e-01
  5.0720590e-01
 -1.1697447e+00
 -5.3071570e-01
  1.4922426e+00
  2.3935572e-05
 -8.6063117e-02
 -6.1431289e-01
  5.7604903e-01
  1.2127163e-01
 -6.3641369e-02
 -7.4830949e-01
 -1.0747429e+00
  9.5673275e-01
  1.8203431e-01
 -7.1603633e-02
 -1.8746056e-01
 -6.4706314e-01
 -3.0403808e-01
  2.0742176e-01
 -1.1648438e-02
 -8.9372414e-05
 -1.9902715e-01
  2.4216537e-05
 -8.9865789e-06
  5.9635699e-01
 -2.1942697e-01
 -2.4419401e+00
  1.3488425e+00
 -1.0812507e+00
 -6.8984860e-01
  3.6884015e+00
  6.5951365e-01
 -3.5603687e-02
 -1.1613002e+00
  1.7449960e-05
  7.3054564e-01
 -3.2062307e-02
 -3.7529536e-03
 -1.3601972e+00
 -1.3444477e+00
  4.3469340e-02
  2.5796819e-06
 -3.8239837e-01
 -2.2476182e+00
 -7.8941310e-05
  1.7879263e+00
 -1.1556102e+00
 -2.1775768e-06
 -1.1765239e+00
  2.3101798e-05
 -3.5847828e-02
  1.5223376e-01
 -2.6894802e-01
 -5.4992193e-01
 -1.4161903e-01
 -1.5509700e-05
 -7.5997305e-01
  1.6206880e+00
  2.6650294e-05
  6.2458996e-05
  1.0328012e+00
 -2.3172045e+00
 -1.5842977e+00
  3.5916966e-01
 -1.8672518e+00
 -8.8832611e-01
  7.0101285e-01
  1.8691418e-01
  2.9885057e-05
 -5.5822569e-05
 -1.3410746e+00
 -1.3992250e-01
 -1.8901545e+00
 -2.6802336e-06
 -1.7332307e+00
  1.2745816e+00
  3.2818502e-01
 -8.1978685e-01
  2.4551546e-02
 -1.5579070e-01
 -6.4895190e-02
 -1.5430533e+00
 -1.6994933e+00
  1.5390013e-01
 -1.1209368e+00
 -7.2411567e-01
  7.8206843e-01
  2.1548483e+00
 -2.1107149e+00
  1.5200867e-04
  8.3715037e-02
 -4.1174218e-01
 -7.1180934e-01
  1.1303525e-01
  5.4198450e-01
 -1.1967412e+00
  1.2364554e+00
 -9.4645816e-01
  5.4152530e-01
 -1.3777933e-01
  8.2090101e-04
  5.0802678e-01
  3.8375852e-01
 -1.7623580e-04
  2.4820845e-05
  8.0702782e-01
 -1.4663850e-01
  2.2163389e+00
  3.0123947e-05
 -2.9038125e-05
 -2.5427313e-05
 -7.6593997e-06
  3.0289859e-05
  1.4455318e-05
  1.4500982e-04
  4.0583634e-03
 -2.9524135e-05
 -7.8605353e-06
  1.4178680e-04
  3.2967800e-01
  4.3687096e-01
 -2.7438279e-04
 -5.0517788e-06
  1.1135239e-05
 -3.5081247e-03
  4.9330226e-01
  1.1348023e-01
 -1.2840672e-05
  1.6387058e-06
  2.0559008e-04
 -3.0802075e-05
  2.7089685e-05
  1.1043393e-01
  1.2077928e+00
 -5.7074193e-02
 -3.4816626e-01
  9.0642898e-05
  8.0315394e-06
  4.1714329e-01
 -2.7334034e-05
  2.7071004e-05
  2.3924886e-05
  1.5700343e-01
  4.5985451e-01
  6.3510746e-01
  3.0496600e-05
  2.9591739e-01
  9.8049149e-02
  1.6766415e-05
 -1.6235374e-05
  2.8820852e-02
 -6.6311300e-01
  4.2409384e-01
 -7.7984959e-01
  3.0245903e-05
 -3.0078767e-05
  2.5799990e-01
 -4.2058517e-05
 -2.0698972e-05
  1.6124309e+00
  2.7486787e+00
  1.9706643e+00
  6.6359740e-01
 -1.0878897e-05
  6.5084505e-01
  8.5297835e-01
  1.4384582e-05
  2.6306310e-05
 -2.9738560e-05
 -4.7425437e-04
  6.6735524e-01
 -2.5171746e-02
  8.6761036e-05
 -3.0485093e-05
  5.6124705e-01
 -2.2535971e-05
 -2.8837552e-05
  1.0630385e+00
 -2.8150298e-02
  7.9680407e-01
  2.8743950e-01
  3.1960750e-05
  6.2592620e-01
 -1.7846337e-02
 -2.2046223e-05
  2.7980346e-05
  1.3942689e-02
  1.1175076e+00
 -4.0483180e-01
 -6.8449900e-02
  2.9957140e-05
 -3.0148303e-05
  2.1804440e-01
  2.9812298e-05
  2.0657770e-05
  1.3094263e-01
 -7.6925613e-02
 -1.3556143e+00
  1.2837811e-01
  2.3377568e-05
  4.3105358e-01
  6.4790964e-01
 -2.7883394e-05
  2.5578445e-05
 -6.8776637e-01
  4.9634370e-01
 -2.2874351e+00
 -2.3212083e-02
  5.2606374e-05
  2.5704755e-06
  1.9998962e-01
  1.8852432e-05
  1.3421911e-05
  6.0772002e-01
  1.4693614e+00
  9.5783705e-01
  7.1408293e-05
 -7.0579285e-05
 -2.5680103e-05
  1.1657949e-05
  1.1341585e+00
 -6.2496974e-06
  1.1660995e+00
  7.3574495e-01
  6.0671437e-01
 -5.5544412e-01
  1.4511189e-05
  4.5278512e-06
 -2.6939360e-05
 -2.6075475e-05
  3.0380001e-05
 -2.2065418e-05
 -1.2126267e-06
  9.9512357e-01
 -1.1030998e-05
  2.6555956e-05
  2.4704784e-06
 -2.9820998e-05
  7.6685953e-01
 -1.5390504e-05
 -2.9891658e+00
  2.0093014e+00
  5.3737885e-01
 -1.3989441e+00
 -7.4807431e-06
 -9.9034682e-05
  2.0892565e-05
  1.8990251e-01
  2.3321496e-05
 -1.6444908e+00
  1.4022174e-01
  1.2164131e+00
  5.1479828e-01
  1.0095121e-05
 -2.5640024e-05
  2.3719642e-05
 -5.3911863e-06
 -6.6713642e-06
 -1.3656185e+00
  1.5758220e+00
  1.4377129e+00
  4.6695765e-02
 -2.7976565e-05
 -1.3519990e-05
  9.9131785e-06
  9.2494851e-01
  2.5561158e-05
 -4.5961145e-01
 -2.5393048e-01
  4.1017547e-01
  1.0131501e-01
 -2.9856681e-05
  8.4840303e-06
 -2.7466198e-05
 -5.5038304e-06
 -5.1622425e-07
  7.8269079e-02
  6.4747256e-01
  7.5579441e-01
 -2.7184747e-04
  1.1325435e-05
 -2.2675138e-05
 -2.2368162e-05
  1.0598338e+00
 -2.7065646e-05
 -2.6954029e+00
  3.6996248e-01
  6.3784200e-01
 -7.9693064e-06
 -2.9428911e-05
  6.8216132e-06
  2.2946168e-05
  7.4818236e-05
 -3.5566991e-05
 -9.3328470e-01
 -2.3627903e-01
  9.6423346e-01
 -6.0455513e-01
  2.6021356e-05
 -1.4711643e-05
  1.2540343e-05
  4.7700012e-01
 -5.1929569e-06
 -2.4908674e+00
 -1.2019601e+00
  3.0917513e-01
 -2.3756914e-01
 -2.4746862e-05
 -8.6157997e-06
 -1.7516251e-05
  2.9110172e-01
 -6.1840815e-06
 -1.2572767e-01
 -3.9386922e-01
  4.3021941e-01
 -4.3713960e-01
  2.2840733e-05
  1.9862675e-05
  2.9476019e-05
  1.1816473e-04
  2.9904373e-05
  2.8281513e-01
 -2.5059813e-01
  9.4021428e-01
 -5.2411002e-01
  2.7215900e-05
  4.3954493e-05
 -2.8673821e-05
  7.4538779e-01
  1.3506336e-05
  3.8723752e-01
 -2.8891278e-02
  4.4826546e-01
 -3.7679654e-01
  2.2885160e-05
 -7.9484715e-05
  8.0178827e-01
 -2.9965102e-05
 -2.2242295e-05
  1.3885082e-02
  9.8601602e-02
 -7.1171910e-01
  1.2820642e+00
  1.8994931e-05
 -8.4698322e-06
  1.3090948e-05
  2.9302842e-05
 -1.0703327e-05
 -6.8819986e-06
  1.4230101e-05
 -9.9531668e-01
 -2.3677256e-05
 -6.5997454e-05
 -9.3171229e-06
  4.0670630e-02
  2.5540856e-05
 -1.0286669e-05
  4.3483570e-01
  5.2000940e-01
 -1.5243580e+00
 -2.9125118e-01
 -7.5598296e-06
  5.8246991e-05
  2.5369260e-01
  3.6618367e-06
 -6.0953703e-06
 -1.3742463e-04
  5.4269075e-01
 -8.5315205e-02
  4.9489257e-01
 -1.8239658e-07
  2.8411927e-05
  1.4101864e-04
 -3.0091387e-05
  8.1401813e-06
  2.9355970e-05
 -2.9458592e-05
 -3.2858273e-01
  4.2339720e-06
 -7.0993818e-05
 -8.1122977e-05
  3.3169466e-01
  1.5625270e-05
 -1.6152168e-05
  6.9222951e-01
  3.1890865e-02
 -2.6426932e-01
  1.5127023e-01
 -1.6312999e-05
  2.4520614e-05
  2.9563087e-05
  3.0063462e-05
 -2.9278768e-05
 -1.2010117e+00
  1.0267544e+00
 -1.4899102e-01
  1.9117762e-04
  1.0730464e-05
 -2.7626593e-05
  4.8189911e-01
  2.1517088e-05
 -1.4335273e-05
  1.3296169e+00
 -7.1482055e-02
 -6.5377444e-01
 -2.9623351e-01
  3.0465470e-05
  2.5623198e-05
  2.7734982e-02
 -7.0227892e-05
  2.7567621e-05
  1.9121057e-05
  1.5086780e+00
 -6.9408154e-01
  7.1495742e-01
 -2.9642015e-05
 -2.8574626e-05
  8.4921747e-02
 -4.2737115e-06
 -9.0667738e-05
 -1.2598967e-04
  1.1750129e+00
 -1.1814824e+00
  4.8169309e-01
 -1.5079992e-05
  3.0291823e-05
  1.0088350e+00
 -3.0884632e-05
 -2.8992763e-05
  3.2106704e-01
  1.8665979e+00
 -1.6089005e+00
  2.7017277e-01
 -6.5765666e-06
  1.4039683e-05
  2.7006248e-04
  2.7889162e-05
  1.0061389e-05
 -4.9105934e-03
  1.5097808e+00
 -1.1884847e+00
  4.3751758e-01
 -1.2470432e-05
 -5.4673633e-06
  2.5423157e-01
 -2.8702121e-05
  1.4627096e-04
  1.3508429e-01
  7.5339991e-01
 -8.2811069e-01
  9.9573471e-02
  5.7018056e-05
 -2.7753740e-05
 -1.7982904e-05
  2.4586219e-05
  2.9667201e-05
  1.2046688e+00
 -2.8581386e-02
 -1.3664584e+00
  4.5748168e-01
  9.6933172e-06
 -4.9206346e-06
  2.2864595e-05
 -6.2927497e-06
 -5.0958197e-06
  6.3813804e-04
  2.8904011e-05
  1.4490166e-05
  3.0195615e-05
  1.4181883e-06
 -1.6116361e-05
  3.1643893e-05
  2.7021009e-04
  1.0052100e-05
  1.8936366e+00
 -5.9542882e-01
  1.0691108e+00
  3.2669981e+00
  7.1654458e-06
 -2.9076202e-05
  2.1498046e-05
  8.7971581e-05
 -8.5509546e-06
  1.1604028e+00
  4.6358179e-02
 -9.4962549e-01
 -3.3266467e-04
  1.5876658e-05
 -9.1074493e-05
  1.3443740e-05
 -2.2028404e-05
 -2.0407802e-05
  1.4709610e-01
 -7.5165308e-01
 -9.8793444e-06
  1.8867952e+00
 -4.3545133e-05
 -9.2152177e-06
  5.5813311e-05
  2.6132406e-05
 -3.0250956e-05
  1.1155472e+00
  5.7534313e-01
  2.4061823e+00
 -4.3621135e-01
  4.4128315e-06
  2.0853903e-04
  9.2688115e-06
 -8.2213710e-06
  9.4255129e-06
  2.6273701e-01
 -2.0966744e-04
 -7.4069172e-01
  1.0057855e+00
 -3.2289032e-07
 -1.1061419e-05
  1.8916462e-05
  2.7077140e-05
  3.1815296e-05
  3.6364985e-01
  2.5738691e-05
  8.7404501e-01
  5.3542621e-02
 -2.8784410e-05
 -1.3271250e-06
 -2.7379754e-04
  1.2680587e-05
  2.5396786e-05
  4.5382521e-01
 -1.0339756e-02
  1.6994990e+00
  4.5126337e-01
 -2.5579453e-05
  1.1368263e-05
  2.9983884e-01
  7.8212041e-05
  8.8031200e-05
  5.8421586e-02
  5.0604355e-04
  3.8393763e-01
  1.4307543e+00
 -1.6086378e-05
 -2.5902746e-05
 -5.9993684e-01
 -2.2549482e-05
 -2.5351663e-05
  4.7730837e-02
 -3.5613708e-02
  3.9935727e-03
  1.0737700e+00
  2.2758506e-05
 -2.1951908e-05
  2.6802993e-01
 -5.3332492e-06
 -2.6820719e-05
  2.8860015e-01
 -5.8869201e-01
  7.4948655e-03
  9.2299566e-02
 -4.2062453e-05
  1.7165477e-05
 -3.7047168e-05
 -1.2996426e-04
 -5.7617544e-06
  3.0328199e-01
 -3.3145443e-01
  5.3325498e-01
  3.6916393e-01
  1.5690125e-04
  2.0795910e-02
 -1.2793553e+00
  2.4059056e-01
  4.0442017e-05
 -8.8285679e-01
  9.5256501e-01
 -1.0825441e+00
 -2.0853813e+00
 -2.1241236e-05
  3.8914157e-05
 -1.7102394e-04
  5.8861820e-05
  1.6444848e-05
 -2.4029291e-01
  1.8021547e-04
 -9.5415075e-04
 -1.7311225e-04
  9.0929505e-04
  4.2720410e-04
 -4.8077035e-01
  1.1956786e-01
 -4.6864534e-05
  1.4631916e+00
 -1.0451951e+00
  4.3547037e-01
 -2.6164156e-01
  5.7151366e-05
  5.7983110e-05
 -8.3781844e-01
  5.9791379e-05
  1.8976833e-05
 -1.1620682e+00
  2.0788443e+00
 -6.4138897e-02
 -3.3865768e-02
  5.0195322e-05
  5.8670041e-05
 -5.8273704e-06
  6.0787144e-05
 -5.8929701e-05
  6.0347225e-05
  1.8889600e+00
 -3.3407232e-05
 -9.8796684e-01
  5.9318536e-05
  1.2809827e-03
 -1.1912204e+00
  4.6060082e-05
 -2.3881410e-05
 -2.0140351e-01
 -1.5647833e-01
  1.3044916e+00
 -5.0091058e-01
 -4.2473112e-05
 -2.1356947e-05
 -2.8102667e-04
  7.8122551e-04
 -5.7681787e-05
 -9.6258539e-01
  2.0013571e+00
  9.4417147e-02
 -1.0540160e+00
  5.8412621e-05
  1.6326569e-01
 -3.3924326e-01
  1.4856251e-04
 -5.9460304e-05
  6.1784077e-01
  5.8837461e-01
  1.5137328e+00
 -9.7623742e-01
  5.8862803e-05
 -5.3214986e-05
 -6.8840188e-01
  1.8310132e-04
 -6.0716458e-05
 -1.3920811e+00
  1.5963976e+00
  2.9065147e-01
 -8.3343500e-01
 -5.7036625e-05
  1.9841404e-01
 -5.6809533e-01
  3.0457965e-04
  5.6183344e-05
 -1.6337466e+00
  8.5296625e-01
 -7.3336935e-01
 -1.0199584e+00
  1.3657429e-04
 -4.7432401e-05
 -3.1854245e-01
  4.7797577e-05
  2.2218085e-06
 -3.2069218e-01
 -6.5667373e-01
 -4.6550789e-01
 -1.4537420e+00
  5.4878979e-05
  3.1180698e-02
 -1.1946393e+00
  1.2998949e-02
  3.6280104e-05
  4.7842336e-01
 -3.1899136e-01
 -3.7998134e-01
 -6.9671547e-01
  1.9204954e-05
  5.8953548e-05
 -7.6447710e-02
 -3.6914986e-05
 -5.9321032e-05
  2.1809044e-01
  1.4825438e-01
 -1.1915328e-01
 -2.0024714e-01
  8.7784547e-03
  8.7784547e-03
  8.7784547e-03
  8.7784547e-03
  8.7784547e-03
  3.5116920e-01
  3.5116920e-01
  3.5116920e-01
  3.5116920e-01
  3.5116920e-01
  6.5169759e-02
  6.5169759e-02
  6.5169759e-02
  6.5169759e-02
  6.5169759e-02
  5.7214946e-02
  5.7214946e-02
  5.7214946e-02
  5.7214946e-02
  5.7214946e-02
  7.2436207e-03
  7.2436207e-03
  7.2436207e-03
  7.2436207e-03
  7.2436207e-03
  5.8097579e-02
  5.8097579e-02
  5.8097579e-02
  5.8097579e-02
  5.8097579e-02
