nep4 3 Ba Zr S 
cutoff 8 4 150 20
n_max 4 4
basis_size 12 12
l_max 4 2 0
ANN 30 0
  1.6869107e+00
  1.7281974e-03
 -2.0443020e-02
  9.2065680e-01
 -1.2986271e+00
 -3.4291490e-03
 -1.7644617e-01
  2.2193201e-01
  2.8560339e-03
 -2.9484608e-04
  9.0460684e-03
  1.1603255e-02
  1.5962161e-02
 -3.5913126e-04
 -1.7040875e-03
 -2.1936335e-02
 -2.0914365e-01
  2.0009525e-02
 -4.7227805e-03
  4.2621121e-03
  2.2073302e-03
  4.7939133e-02
  3.5927929e-03
 -1.8884153e-03
 -2.3594876e-03
 -1.5421489e-03
  7.2546210e-04
 -6.8071159e-04
  6.1385770e-04
 -1.8530979e-03
 -9.0016520e-01
  4.4239882e-02
  1.2428185e+00
  8.1240457e-01
 -1.6919710e-04
  2.6688180e-03
 -7.4060768e-01
  2.2364104e-01
  1.4760626e-02
 -5.8842014e-04
  3.5190990e-03
  1.0383011e-01
  1.3368270e-01
 -1.4668514e-03
 -3.1595337e-03
 -5.6573260e-03
  2.1019584e-01
 -4.4746059e-03
 -3.1442721e-03
 -3.4415121e-03
 -1.1596633e-03
  2.2067045e-01
 -7.5546495e-04
 -8.0513960e-01
 -4.0610023e-03
 -1.3905981e-02
  1.2343809e-03
  1.3881456e-02
 -9.2692790e-04
  5.0570222e-04
 -1.3691189e-02
  1.4960468e-04
  2.1825747e-03
 -1.9350056e-01
  1.0224728e-02
 -1.4555344e-02
  1.5377098e-01
  1.5846390e-03
  1.6330534e-03
 -5.0074952e-03
 -4.3258811e-03
 -3.2328810e-03
 -8.6116474e-03
 -2.2045937e-03
 -2.2990990e-03
  6.9412198e-03
 -3.5926832e-03
  1.2254070e-03
  2.2796036e-03
  4.0633329e-03
 -1.0052734e-03
  1.1123403e-04
 -2.7643070e-03
 -5.1017576e-03
 -6.1604204e-03
  2.8306404e-03
  8.4567699e-04
 -5.4067541e-03
  3.6284910e-04
 -8.7752211e-04
 -6.8882075e-03
  9.3019316e-03
  9.3536153e-03
 -7.0553937e-04
  2.3831700e-03
 -9.5467351e-04
  3.3318866e-03
  6.7803817e-04
 -2.2561571e-03
  4.0737018e-03
  1.6636609e-03
 -4.0152879e-03
 -1.6836392e-02
 -3.4293730e-04
  2.1293692e-03
  6.1941440e-03
 -6.4575503e-04
 -1.6866853e-03
  1.7715873e-03
  6.3465871e-03
  3.9992472e-03
 -1.8056870e-02
  2.0211535e-03
  1.2768224e-02
 -1.1845744e-03
  3.4121946e-03
  5.5671908e-04
 -3.0399454e-03
  2.5536071e-03
 -2.0622481e-03
 -2.2255676e-02
  8.8721514e-02
  1.0686158e+00
 -4.0718326e-01
 -5.1133108e-01
 -4.9745258e-02
  2.2623450e-01
 -2.3135019e-03
 -2.1398551e-04
 -2.9474734e-03
  1.4617857e-02
  1.0487663e-02
 -4.5449293e-01
  2.4496326e-03
 -5.8883252e-03
  8.0330837e-01
 -1.1544403e-01
 -3.4335433e-03
  1.6357977e-04
 -6.3291923e-03
 -7.2185136e-03
 -1.4747326e-01
 -2.1878118e-03
 -1.0836661e-02
 -2.3396695e-03
  2.3399531e-03
  1.0169210e-02
 -4.6371967e-02
 -1.5496322e-03
  6.8674027e-04
  1.0417042e+00
  2.4852699e-01
 -7.8950703e-01
  2.3450260e-04
 -1.1438088e-02
 -7.6079869e-04
 -3.2147611e-04
  1.4807595e-03
 -9.3340361e-04
 -3.8336241e-03
  2.2943476e-03
 -5.8034477e-03
  5.4927221e-03
  2.3231499e-03
 -4.2524245e-03
 -1.5432294e-03
  1.8091480e-01
  6.8511330e-03
  2.7081750e-03
 -3.9495840e-03
  5.2881893e-03
 -1.1803048e-03
  3.5995168e-03
  8.6911116e-04
 -3.0434092e-03
  3.9255954e-03
 -5.9562465e-03
  2.6668420e-03
  2.5116794e-03
  5.1729457e-04
  4.6660742e-03
  1.6355894e-03
 -6.8607484e-03
 -9.8572336e-03
  8.7929197e-04
  4.4226712e-03
 -5.5482727e-03
  9.1590581e-04
  4.1092676e-03
 -5.1866416e-03
 -5.7289833e-03
  7.7145733e-03
  6.4771343e-04
 -1.0032661e-02
  2.6731505e-03
  5.3456175e-04
 -1.6136758e-03
  4.8762769e-05
  7.1906867e-03
 -4.7480557e-03
  7.4304477e-04
  5.7857158e-03
  1.5529853e-03
  4.3080212e-03
 -4.4272165e-03
 -5.5421079e-03
  2.3491706e-03
 -3.8824636e-03
 -1.6628187e-03
  1.8514772e-03
 -2.2124090e+00
 -1.8194434e-01
 -3.1836203e-03
 -6.2812448e-01
  2.1244421e+00
 -9.7902259e-04
  9.4982994e-01
 -3.3442712e-01
  1.7416335e-03
  2.3082166e-03
  7.9949778e-03
 -2.0580017e-03
 -1.5540599e-03
 -1.3009275e-03
  8.1598125e-03
  1.0441438e-02
  4.5404613e-02
 -2.0545486e-02
  1.2364582e-03
 -1.9827753e-03
 -1.6952516e-05
 -5.6803133e-03
 -5.9792381e-03
  2.1529733e-03
  5.1385923e-03
  3.4437927e-03
 -1.1526325e-03
  4.6120519e-03
  2.2290470e-03
  4.2374106e-03
  1.1026527e+00
  1.3097767e+00
 -5.5498356e-01
  1.4423459e+00
 -6.9226885e-01
 -2.0714412e-03
 -3.6443633e-01
  6.8019915e-01
  2.2925825e-03
 -1.4347354e-03
  1.0407796e-02
  1.8098371e-01
  1.7368788e-01
 -1.5489310e-05
 -9.1671699e-04
 -5.6780428e-02
 -1.7427807e-01
  4.1078790e-03
 -3.5178536e-03
 -2.3151452e-03
  1.4821647e-02
  2.2566785e-01
  3.5924530e-03
  7.0104434e-04
  5.8383250e-04
 -4.8200018e-03
 -3.6806655e-03
 -2.4860748e-03
  3.0326420e-03
  8.6688809e-04
 -4.5060617e-01
 -5.1528029e-02
  1.1697093e-03
 -5.0492495e-02
  2.7140586e-03
 -2.5887860e-03
 -5.1278818e-02
  8.4863859e-04
 -1.1025753e-04
 -2.2229040e-05
 -2.0450996e-03
  1.4605722e-03
  1.5613036e-03
  2.9939255e-03
  8.3085066e-03
  1.2129833e-03
  4.7843563e-03
  1.4673020e-03
  1.2263695e-03
  1.8892058e-03
 -2.1703439e-03
  1.2138119e-04
 -5.9062089e-03
 -4.0797433e-03
  2.1598255e-03
 -2.9431719e-03
 -1.1716666e-02
  4.2246431e-03
 -7.6898634e-03
 -3.4692818e-03
 -1.7097188e+00
 -1.0420619e+00
  3.5871999e+00
 -9.1931099e-01
 -1.4327887e-01
 -4.0090233e-03
 -4.4194028e-01
 -5.1603112e-03
 -1.6110216e-01
 -8.9441026e-03
  6.7318310e-03
 -7.5433624e-04
 -2.5213590e-01
 -1.3521945e-03
 -1.4685591e-03
  2.1071312e-01
  2.5941718e-01
  3.6912574e-04
 -2.7283230e-03
  1.0516403e-03
  2.4683340e-03
 -2.6721182e-01
 -7.5704098e-04
  6.3341158e-03
 -6.0541136e-04
 -4.5491355e-03
  7.2762766e-04
 -5.8994126e-03
 -5.6331917e-03
  1.4514488e-03
 -6.7502889e-04
  7.8221317e-03
 -6.4451369e-03
  4.7887890e-03
 -1.2243361e-03
 -1.4458231e-03
 -1.8434811e-03
 -1.7584361e-03
 -2.2501503e-03
  2.4997192e-03
 -8.9154229e-05
  1.7073797e-03
  1.2767893e-03
 -1.8098451e-03
  3.4116462e-03
 -2.8860061e-03
 -8.7022549e-04
 -3.0216028e-03
  4.0724725e-03
  1.5382303e-04
  1.2366938e-03
 -4.6808479e-04
 -2.3140106e-04
 -1.3616048e-03
  3.1000406e-03
 -5.8307536e-03
 -2.9962636e-03
  8.9472521e-04
 -1.0711043e-03
 -8.8837808e-03
 -2.1706784e-01
 -8.2352394e-03
  1.6479475e-02
  3.2151560e-03
  1.4712878e-01
  3.7992641e-04
  1.2858740e+00
 -3.0649088e-03
 -1.1485367e-03
  1.3887055e-02
 -1.1670110e-03
  6.7858881e-04
 -4.1461224e-03
 -2.7102456e-04
  2.6943095e-04
  5.8454156e-01
  1.0383303e-02
 -2.2347309e-03
  6.4966232e-03
 -8.1500184e-04
 -7.2343345e-04
  8.6649862e-04
  3.4606941e-03
  1.3046685e-03
 -2.5452459e-03
  3.4286152e-04
 -3.8207173e-03
  1.6618799e-03
  1.4200951e-03
 -2.8906926e-03
 -4.4656186e-03
 -2.2347404e-03
  5.4271659e-04
 -7.1074967e-03
 -1.2573355e-03
  2.1293963e-04
  5.5058260e-04
  2.8221947e-03
 -1.6540806e-03
 -1.3250174e-02
  3.3966554e-03
 -1.8347099e-02
  6.8360120e-03
 -5.3571854e-03
  3.6437390e-04
 -3.3392315e-04
 -7.6629273e-03
  1.0445922e-03
 -4.7899215e-03
 -2.5230087e-03
  5.2116946e-03
  1.7298399e-03
  5.6336564e-04
  1.0297323e-02
 -3.6353245e-05
 -2.5454839e-03
 -5.1863713e-04
 -4.7247862e-03
 -7.2479052e-03
 -7.9724024e-04
 -2.9313215e-03
  4.0141502e-03
 -8.0686819e-04
  5.0226937e-04
 -9.2019100e-04
  4.4762348e-03
 -1.7707283e-03
  2.9546223e-03
 -1.7871174e-03
  7.2194159e-04
 -1.8488615e-03
 -6.4442470e-03
 -3.0118912e-03
 -1.9104809e-03
  1.0714604e-03
  6.4369629e-04
 -1.1112328e-03
 -7.4732648e-03
  1.2606663e-03
 -2.6599474e-03
 -1.2856283e-03
  3.7058850e-04
  2.7379123e-03
  3.5822548e-03
 -7.3145367e-03
  1.3618409e-03
  1.7893035e-03
  1.8066235e-03
 -7.4850707e-03
 -2.2624382e-03
 -4.3574814e-03
  3.3674910e-04
  9.4528834e-04
  4.3487856e-01
  4.3981624e-01
 -1.4536337e-02
  2.6862947e-03
 -1.0752471e-03
 -1.9941840e-03
  2.2124506e-03
 -3.9968640e-03
 -1.8685677e-03
 -1.9690348e-03
 -5.5245226e-03
 -2.7865083e-03
  6.2834844e-03
 -1.3104454e-03
  2.3376720e-03
  2.2269466e-03
  8.6542079e-04
 -2.2658794e-03
 -7.1178772e-04
 -3.1778885e-03
  5.2715600e-03
  5.2513401e-03
 -1.2841973e-03
 -1.1513999e-05
  1.1438325e-03
 -1.8130691e-04
 -1.1645225e-03
  1.2125674e-01
  1.5650367e-02
 -6.7540294e-01
  3.6597434e-01
 -1.1877906e-02
 -7.8830740e-04
 -9.4199248e-02
  1.9063272e-02
  4.2777658e-03
  4.0336468e-04
  2.2455859e-03
 -4.9556862e-03
  5.8332453e-03
 -9.9184271e-04
 -4.5849793e-03
 -4.6110647e-03
  3.5199739e-02
  3.4538438e-04
 -8.9306274e-04
  6.2484236e-04
  1.4714006e-03
  8.5301595e-03
  2.2011311e-03
 -2.6602442e-03
 -6.7008322e-04
  1.8704056e-03
  1.6705047e-03
 -1.8578881e-03
  1.1928631e-03
 -5.8530713e-04
 -2.7223026e-02
 -1.1103825e-01
  2.1215759e-01
 -1.6797731e-02
 -7.4249838e-04
  9.5514313e-04
 -8.7953824e-01
 -9.0794638e-06
  1.7499758e-03
  3.9281473e-03
 -4.3222373e-03
  2.7112069e-03
  2.7777872e-03
  2.2659167e-03
 -8.0431914e-03
  3.8802404e-02
 -2.9057715e-02
 -1.4252852e-03
  7.5391354e-04
  6.3677696e-03
 -2.8939731e-03
 -2.0367850e-05
 -1.8655004e-03
 -2.7407932e-03
  2.3163002e-04
 -3.6455139e-03
  4.2081238e-03
 -1.4572090e-03
  1.5425440e-02
  1.5916611e-03
 -2.3162298e-01
 -4.4831517e-03
  3.0368453e-01
 -5.1098150e-01
 -7.9303468e-04
 -1.2552552e-02
 -6.3249487e-01
 -2.2152700e-03
 -2.3600770e-02
 -4.6533486e-03
  3.6148094e-03
 -4.7567338e-03
 -2.0538328e-02
  8.3689177e-03
 -3.7117715e-03
  1.1315819e-01
  3.9643113e-04
 -2.3067794e-03
  8.4451283e-05
 -7.5865095e-04
 -5.0713266e-03
 -1.0705842e-02
  1.1799042e-03
  1.7627318e-03
 -6.0616917e-04
 -1.0817384e-03
 -1.3840137e-03
 -2.2721903e-03
 -5.0236564e-04
  3.4415559e-03
 -6.5670930e-02
 -4.9096358e-04
  1.2074575e-02
 -1.2857184e-02
 -5.9756305e-04
 -1.2843900e-02
  1.1067801e-02
 -2.3446027e-03
 -2.8751993e-03
 -3.6561950e-03
  6.2042484e-03
  7.7048643e-04
 -1.0039987e-03
 -7.6043187e-05
 -6.4103603e-03
  3.9646970e-03
  1.1578981e-03
  4.7521405e-03
  7.8637077e-04
 -3.1095149e-03
 -1.5647114e-03
 -1.8827058e-02
  3.4270660e-04
  1.6773142e-03
 -2.6409235e-04
 -3.3084992e-03
 -5.8998419e-03
  3.0294626e-03
 -1.3530005e-03
 -2.6278882e-03
 -2.1088381e+00
 -3.5870697e-03
  6.5412454e-02
  1.0761058e-01
 -4.7141849e-03
 -6.7006022e-04
  3.0641882e-03
  5.8048137e-04
 -4.7491021e-03
  4.6263319e-03
 -7.0934952e-04
  1.2276868e-02
 -2.6246221e-03
 -6.2691597e-03
 -2.4391362e-03
  5.3091892e-03
 -1.9592799e-02
 -1.1955329e-03
  3.1805739e-03
  3.5366595e-03
  4.0971916e-03
  1.9157337e-03
  8.9820637e-04
  6.9091036e-03
 -3.7915576e-01
  6.7675882e-03
 -1.7336843e-03
 -6.4804582e-03
 -2.8036379e-03
  1.6755215e-04
 -6.4516842e-04
  1.6657892e-04
  7.4969609e-03
  8.1839430e-04
 -1.2583670e-04
  5.0488119e-03
  1.7727588e-03
 -4.7932132e-03
  3.6107528e-03
  8.7184133e-05
  7.1207783e-03
  7.6911715e-03
 -3.9914800e-03
  2.3072865e-03
  6.7020906e-04
  2.0939084e-03
 -3.8819832e-03
  1.7202215e-03
  5.5254926e-04
 -4.4129914e-04
  3.4723098e-03
 -4.7055539e-04
  1.0339305e-03
  7.1428734e-04
  3.5635007e-03
 -5.7516212e-05
  1.4384981e-04
 -4.0680962e-03
 -1.7086169e-03
  1.9559171e-04
  4.0643117e-03
 -4.4148127e-03
  2.4327419e-03
  4.0767039e-04
 -1.9155326e-03
  1.2727923e-02
 -1.7552794e-03
  4.0373125e-05
  3.5106626e-03
  9.2016710e-03
  8.6371612e-04
 -4.2828908e-03
  4.8346384e-03
 -2.7809271e-03
  3.2061765e-03
 -1.8877979e-02
 -4.9094786e-03
  1.4316463e-03
  5.4101422e-03
 -3.8771203e-03
  1.8390701e-03
  9.4717543e-04
 -2.6016661e-03
 -5.0377136e-04
  2.5329529e-03
 -1.0776781e-03
  7.0678517e-03
 -3.1471613e-03
 -1.0598694e-03
 -2.6322543e-03
 -1.2330530e+00
 -3.1270974e-03
  1.3987639e-02
 -1.0052911e-01
 -1.0902798e-04
  2.3032252e-03
 -5.7384435e-02
 -3.1442849e-03
  2.8742475e-03
 -2.1260097e-03
 -3.2756925e-03
  2.0159199e-03
 -5.1230658e-03
  1.5904268e-03
 -3.3531790e-03
  3.2895852e-03
  3.7726965e-03
 -2.3971940e-04
 -7.7721691e-03
  4.8578549e-03
 -3.1251467e-03
 -7.8598233e-03
 -2.7746852e-03
  6.0118791e-03
 -2.3939353e-03
 -2.0803388e-03
 -3.0374839e-03
 -1.4575169e-04
 -3.4297213e-03
  5.7009654e-03
  2.3934008e-01
 -1.2825283e-05
  1.4006522e-01
 -2.6617110e-01
  2.6433778e-01
 -2.7468684e-03
 -1.0770234e-01
 -2.0860352e-02
 -1.2312345e-02
 -4.7296099e-04
 -2.7895942e-03
 -2.2831638e-03
 -2.5882676e-02
 -6.4407790e-04
 -6.3832593e-03
  1.6065560e-01
 -9.3259756e-04
  1.2696460e-03
 -9.9677499e-04
  2.9186043e-03
 -1.2287072e-02
 -6.1285160e-03
 -5.0481837e-03
 -1.0681937e-03
  2.1318062e-03
 -2.7961638e-03
  3.8960376e-03
 -8.4717514e-04
  1.3560244e-02
  5.7553739e-04
 -1.9462921e-03
 -3.2572348e-03
  1.7100543e-01
 -2.8857528e-03
  6.8638557e-01
 -3.0314047e-03
  9.3037057e-01
  4.5839581e-05
  2.5913262e-04
  7.4388925e-04
 -2.4428708e-05
 -3.2199239e-03
  6.7100197e-04
 -1.1855461e-02
  6.1861461e-04
 -7.6002820e-04
 -1.2426060e-02
 -6.1009242e-04
  4.9250438e-03
 -2.6802979e-03
  3.7189187e-03
 -9.1656734e-04
 -8.7445043e-03
  1.6630746e-03
 -1.1945270e-03
 -1.8181000e-03
  3.4104141e-03
  1.1145644e-03
 -5.5463207e-03
  6.9418136e-04
  7.4333767e-03
  1.0598154e-02
  2.1972000e-03
  1.3717104e-04
  1.2830796e-03
 -6.9973918e-05
  3.0758970e-03
  2.4777295e-03
  1.5910728e-03
  2.6543504e-03
 -2.8556245e-03
 -3.9148499e-04
  5.2520429e-04
 -4.5755208e-03
  4.9214750e-03
  9.4989326e-04
 -1.1311341e-03
 -1.0549265e-04
  5.7359850e-03
  4.4629206e-03
  6.8529882e-03
  6.7278710e-03
  6.9486315e-04
 -2.3896582e-03
 -2.9177158e-03
  2.0901032e-04
  5.6227371e-03
 -8.2721014e-04
 -5.3890385e-03
  5.8547623e-04
 -1.2440091e+00
 -5.8890898e-03
  4.3618998e-01
 -1.0211463e-02
  5.0365609e-01
 -3.4462675e-01
 -1.5141642e-02
 -4.1844491e-03
 -3.0241716e-03
 -1.1685658e-02
  4.8564019e-04
  1.5677205e-01
 -3.6533821e-01
  7.7185093e-04
  2.0961345e-03
  7.9675550e-03
 -1.9915590e-01
 -7.8489054e-03
 -8.8840155e-03
  1.1120203e-03
 -1.3586812e-03
 -2.1691339e-03
 -1.5152331e-02
 -4.7803745e-03
 -2.3278676e-04
 -2.4801830e-03
  1.0264668e-03
 -4.2222016e-03
 -2.0124791e-03
  7.9579628e-04
  2.3446110e-01
  4.3599162e-01
  1.4270179e-01
 -2.9937665e+00
 -2.9825100e-01
 -4.5429692e-01
  2.0721604e-01
  2.1010647e-03
 -1.2803347e-02
  9.6603879e-04
  3.8111140e-03
  8.9538759e-01
 -1.0754658e+00
  3.4601702e-03
 -6.8023419e-03
  3.1607765e-01
 -4.6392672e-02
  1.8780591e-04
 -6.4142756e-03
 -2.2248568e-03
 -1.2824303e-02
 -1.0637754e+00
 -1.3448371e-02
  1.1508347e-02
  2.1532113e-03
  2.4610895e-03
  1.9401306e-01
 -4.4215795e-01
  2.9073274e-03
 -1.4030375e-06
 -5.9142661e-01
 -1.3306087e+00
  6.1453277e-01
 -1.0861473e+00
 -1.3419645e+00
 -3.8060097e-03
 -3.4480188e-02
 -5.8065635e-01
 -4.9325321e-03
 -1.0636281e-03
  8.3058439e-03
 -8.4165889e-01
 -4.2494565e-01
  3.9748414e-03
  1.0985888e-03
  2.6523542e-01
 -8.3600171e-02
 -2.0832579e-01
  2.3454437e-03
 -1.4943241e-03
 -2.2045858e-03
 -1.6529334e-01
  2.4274038e-04
  2.1266749e-03
 -6.4776037e-03
  3.2371329e-03
  1.9959961e-03
 -2.0529717e-02
 -3.6406340e-03
  5.0719385e-03
 -2.1140793e-01
 -7.4119025e-01
 -4.3672079e-01
 -2.6102734e-01
 -1.2300373e+00
 -8.9923924e-01
 -8.7788096e-04
  1.4910076e+00
  1.6364264e-01
 -1.4476277e+00
  6.0706496e-01
 -1.2414914e-04
 -1.2286862e-01
 -3.6640581e-02
 -9.9031599e-03
 -1.2153947e+00
  2.6106963e-01
 -3.7602174e-01
  6.1131519e-05
  3.3903199e-01
  2.3886035e-01
  1.5418928e-03
  3.7740016e-01
 -4.4035474e-03
  7.6177108e-01
  8.2784700e-01
  1.5814381e-05
  1.4405138e+00
 -1.1927907e+00
 -4.9881271e-01
  1.6397264e+00
  2.3702500e+00
 -5.1550734e-01
 -3.3418640e-01
 -2.1103580e+00
  5.3736252e-01
 -9.9549629e-04
 -5.5586791e-01
  2.3225975e+00
 -3.3271646e+00
 -1.0526520e+00
 -5.8816921e-02
 -3.4511432e-01
 -6.2775682e-03
  4.2675487e-03
 -1.1267151e+00
  7.6550537e-01
 -6.0564762e-01
 -6.7836416e-01
 -4.5814049e-01
  5.4008818e-01
  5.7160901e-03
  3.9226466e-01
 -4.3249872e-01
 -1.3754252e+00
 -3.9660776e-01
 -1.2466004e-03
 -1.1465250e+00
 -3.1922183e+00
 -1.3269696e+00
  1.2392145e+00
 -2.9452252e-01
  3.3155384e-03
  1.1986899e-02
 -5.4432161e-04
  7.6226250e-05
  1.8908614e-03
 -2.4872264e-03
  1.7174801e-03
  5.6841105e-01
  7.4008555e-04
  6.4752116e-03
 -3.6930725e-02
 -1.0642802e-02
 -8.2623102e-03
  6.9831000e-03
 -4.1710900e-04
 -3.9589126e-05
 -4.6234867e-03
 -9.4395678e-04
  1.2861628e-02
 -1.0154502e-03
  5.2590538e-03
 -3.2713264e-03
  1.3166662e-01
 -1.5582762e-03
 -3.9816950e-06
  1.7541173e-03
  3.0876694e-03
  1.4561556e-02
  1.5435728e-02
 -3.1953061e-04
 -2.9352121e-04
  1.0055184e-03
  1.5146891e-03
  7.4901809e-03
 -2.7154703e-03
 -2.0796314e-04
 -3.0996518e-03
  4.1525727e-03
  3.6260060e-03
  3.1787055e-03
 -5.3710295e-03
 -1.9949395e-03
 -4.3424778e-05
 -2.9859801e-03
  2.3843017e-03
  3.6506625e-03
 -1.4582940e-02
  1.5803621e-03
 -1.6471757e-02
 -7.2923850e-04
  3.0426604e-03
 -2.7286811e-03
 -5.3475597e-03
  6.2582898e-04
 -5.4157590e-03
  5.3937044e-03
  7.2196019e-03
  3.6456031e-03
  2.0675347e-03
 -3.2221540e-03
 -8.6289801e-02
 -2.7657282e-03
  2.1990826e-03
 -3.6508435e-01
 -4.7136348e-04
  8.2189618e-03
  4.9356424e-04
 -6.2869173e-03
 -9.2503270e-03
 -2.2723377e-03
  1.7473675e-02
  3.4949812e-04
 -1.7287268e-03
  6.9536193e-04
 -1.0302950e-02
 -2.7966324e-02
 -2.3662185e-03
 -5.1758595e-02
  7.3846933e-03
  4.7798877e-04
  2.2911213e-03
  7.6824906e-03
  1.6230785e-03
 -3.4988257e-03
  7.2895885e-03
 -4.8499233e-03
  1.0590624e-03
  1.6756476e-03
 -1.1122067e+00
  1.5755838e+00
 -9.6300179e-01
  4.5032172e+00
 -8.1067395e-01
  2.3430523e-01
  1.8938737e-02
  1.7929943e-01
  6.4959653e-02
 -8.9053500e-01
  1.1057455e-02
 -6.6616595e-02
 -7.1162223e-03
 -2.7367249e-03
 -7.1161932e-01
 -8.6256906e-02
  6.5694489e-03
 -6.7223027e-02
  3.6585510e-01
  7.3229954e-02
  2.3717957e-03
 -6.4013782e-03
 -7.4970096e-01
  1.3699734e-03
 -2.9747966e-01
 -3.6000233e-02
 -4.1489024e-03
 -7.6316245e-02
 -5.5291096e-04
 -7.9768263e-03
 -1.6651317e+00
  1.7285535e+00
 -9.5446014e-01
  2.4371519e+00
  5.8289933e-01
 -1.4261512e+00
 -1.2373957e-03
 -7.0545651e-02
 -4.6973482e-02
  7.9823321e-01
 -1.4307371e-01
 -1.4018279e-01
  1.0107162e+00
  1.0287538e+00
 -7.1467608e-01
 -1.8887039e-01
  3.3564470e-03
 -8.5689813e-01
  2.8506303e-01
 -4.3194321e-01
  1.1202292e-01
  1.5441230e-03
 -1.4570134e+00
  1.1985009e+00
 -3.3594985e-02
 -3.9474294e-02
  8.6944820e-03
 -2.7127472e-01
 -1.1583079e-02
 -3.4270993e-01
  2.9004622e-02
  7.5815542e-04
  6.2462287e-03
 -5.9688062e-04
 -6.4524170e-03
 -3.9657330e-04
  4.7066286e-03
 -3.5028502e-03
 -6.2151416e-04
 -1.3820522e-02
 -1.7429003e-04
 -2.8012379e-04
 -4.2256145e-03
 -4.2580720e-03
  3.6603452e-03
 -5.7220715e-04
  4.8202975e-03
 -2.1984589e-03
  3.2690750e-03
  9.9187717e-02
 -7.7007740e-04
 -1.1469031e-04
  5.8005927e-03
 -4.3999138e-03
  2.7571106e-04
  9.0408335e-03
  2.1416075e-03
 -3.3168416e-03
  3.3350165e-03
  2.3232317e-03
  3.3645229e-03
 -4.8986555e-04
 -4.4352426e-03
 -1.0428823e-03
  2.2809638e-04
  4.1077333e-03
 -3.3929525e-04
  1.0834801e-03
 -4.7853841e-03
 -4.0266372e-04
  1.6214103e-03
  3.6910141e-03
 -2.6929815e-04
 -4.1611479e-03
 -3.6504271e-03
  4.8508616e-03
  2.3151271e-03
 -7.0226181e-04
 -2.5605250e-03
  1.7422601e-04
 -3.3304624e-03
 -1.7897659e-03
  3.6241217e-03
 -1.9019401e-03
 -1.2220067e-03
  1.3207271e-03
 -2.9724939e-03
 -2.5978289e-04
  4.7989246e-03
 -1.6196481e-03
 -4.6646562e-03
 -3.9535346e+00
  1.3558637e-02
 -5.1889267e+00
 -8.0622651e-02
 -5.9464073e-01
 -2.6428223e-02
 -6.9508828e-02
  4.7347415e-04
 -1.3575052e-01
  1.2557419e-01
  1.3538625e-03
  4.6240133e-03
  1.4277582e-01
  7.9483414e-01
  6.5008444e-01
 -1.6563212e-02
  7.5768270e-03
 -8.7744873e-03
  2.1837886e-01
  1.7600330e-03
  5.8518988e-03
  8.4805548e-01
  5.8764839e-03
  1.0682777e-01
  3.1880022e-03
 -2.9329860e-03
 -3.2061964e-04
 -2.0224999e-03
 -2.5062095e-03
 -8.9142687e-04
  1.7367730e-01
  4.6988651e-02
  1.1447619e-02
  2.2886753e-01
  6.5836776e-04
  5.6597833e-03
 -6.6519968e-02
  4.8305145e-03
 -4.4170237e-01
  2.2600824e-03
  1.3933332e-03
 -3.8841241e-03
  3.1656916e-03
 -4.1338694e-03
 -5.5748187e-03
  5.0657650e-04
 -1.1875795e-02
 -1.3387291e-02
  9.4000489e-02
  6.1218668e-04
 -8.4554199e-03
 -7.3779887e-01
  1.1128759e-02
 -2.6251026e-03
 -2.2735499e-04
 -4.6305619e-03
  3.4029922e-03
  8.0721201e-03
 -4.1561495e-03
 -1.2263556e-03
 -6.4417650e-03
  2.1642519e-03
  9.0875942e-03
 -5.6023151e-04
 -1.7945997e-03
  1.1008857e-03
  1.0747970e-03
  1.7020956e-03
  1.9510045e-03
  3.0937509e-03
  1.7468573e-03
 -2.0866375e-03
 -2.3161715e-03
 -3.1063519e-03
 -3.2918964e-04
  5.7425594e-04
 -3.0232836e-03
 -1.4525297e-03
  9.9206539e-03
 -1.7567748e-03
  2.8189018e-03
 -1.5862691e-04
 -6.9347094e-04
  1.8965170e-03
  3.8790992e-03
  2.6715177e-03
 -1.6407240e-03
  2.8101937e-03
 -1.0363909e-03
 -2.0371042e-03
 -3.0525010e-03
 -2.4376754e-03
 -8.9793336e-03
  4.8991066e-04
 -1.3829117e-03
 -1.6728286e-03
 -1.2219804e-03
 -1.5829232e-03
 -1.2222008e-03
  7.0096389e-03
  4.3550213e-03
  3.0592470e-03
 -9.9470851e-04
 -7.3894201e-04
  4.8388243e-03
  3.8007472e-04
 -2.5169193e-03
 -7.8059901e-03
 -6.9971699e-03
 -3.0680757e-03
  3.8864762e-03
  3.7141237e-04
 -7.3820455e-03
  5.8157640e-03
  7.0043928e-03
 -2.5362624e-03
  2.9691606e-04
  7.8997416e-03
 -1.9249446e-03
  1.5394458e+00
  4.7295824e-01
  2.0642179e-01
 -1.7990893e-02
  1.4537793e-02
  1.8362391e-01
 -3.1332084e-04
 -1.4118139e-01
 -1.6658333e-01
  7.0323879e-01
 -7.3157817e-02
  7.1233362e-03
 -2.3501557e-03
  1.2208438e-03
 -3.1872004e-01
  4.0693292e-03
  1.0351581e-02
  1.8878026e-02
  5.4268457e-02
  1.0250526e-01
 -1.7514344e-03
 -7.0117973e-03
  3.1958696e-02
 -1.0557507e-02
 -3.7265457e-03
  2.8724128e-03
  3.2204101e-03
 -2.4006632e-04
  1.3455572e-03
 -1.9993715e-02
 -1.0698750e+00
  2.2095101e+00
  1.5087957e+00
  9.1069138e-01
 -2.1164204e-01
 -2.2246484e-01
 -1.1551274e-01
 -1.2917545e-01
 -1.9374919e-01
 -8.4082603e-02
 -4.9776891e-01
  4.4977162e-02
  5.0804060e-02
  7.1822020e-04
 -1.3136572e-02
  4.6850803e-01
  5.9604697e-02
 -1.0351371e-01
 -4.0116604e-02
 -2.9955456e-01
 -2.0059028e-03
 -2.4208758e-02
 -3.5226029e-01
 -8.1763846e-01
 -1.0773017e-01
  3.6473542e-02
 -2.0422633e-03
  3.6174845e-04
  7.1008848e-03
 -1.9397323e-01
 -3.1848352e-02
 -1.3377349e-03
 -1.9767681e-02
 -4.9148933e-03
 -5.2027702e-01
 -6.9100738e-01
 -8.7999636e-03
  4.0918446e-04
  9.4334790e-03
 -6.2112216e-02
  3.7745393e-03
 -2.3670599e-04
 -8.3750673e-03
  1.0381371e-04
  3.8881332e-03
 -5.4670672e-05
  1.0536119e-03
 -2.0510692e-03
  1.4821788e-03
 -5.4070312e-01
  4.8791841e-03
  1.2428068e-02
  7.5402635e-04
  1.1103285e-03
 -4.7739120e-03
 -4.6513957e-04
 -4.3320395e-03
 -2.3241166e-04
 -4.7283098e-03
 -1.1066680e-03
  3.2380384e-01
  1.5591340e+00
 -7.0568305e-01
 -1.8821068e+00
 -3.2246748e-01
  4.3964971e-02
 -1.1364371e-03
 -5.9030857e-03
 -6.6600013e-01
 -1.2911205e-01
 -6.4799982e-01
  5.8891368e-01
  1.5296936e-03
 -4.4248089e-01
 -1.0359778e-01
 -4.4705600e-01
  6.3623720e-01
 -4.5934343e-01
 -1.0913148e+00
  1.6864689e-01
 -2.0153495e-02
 -1.9745486e-02
  1.5201446e-01
 -7.9930282e-01
  1.7205261e-01
  2.2269516e-01
 -1.9519111e-03
  2.3279591e-01
  2.8954370e-02
 -8.0176979e-02
  3.5097697e-03
  3.6701120e-03
  1.8194853e-03
  3.5578880e-04
 -2.0259966e-03
 -3.9721970e-03
 -9.2259608e-05
  1.1113024e-03
  5.3281318e-03
 -1.8166559e-04
 -1.8504749e-03
 -6.8632374e-03
 -1.3586483e-04
 -1.3093947e-03
  6.5953978e-03
 -7.9687883e-04
  1.5615373e-03
 -3.0122837e-04
 -7.2109858e-03
 -4.1440566e-04
  9.0122437e-03
  1.2015876e-03
  2.3335135e-03
  1.1607246e-02
 -2.6104881e-03
  3.4808856e-03
  6.9177286e-03
  3.8069673e-02
 -1.4040503e-04
  1.1587753e-02
 -2.0156233e-03
  2.4554452e-03
 -7.5677028e-03
  8.5131405e-04
  6.4427974e-03
 -3.8137392e-04
  9.3234028e-04
 -8.9019013e-04
 -3.5738987e-03
  1.1327219e-03
  1.6569167e-03
 -4.7237040e-03
 -1.2269383e-03
  4.7205458e-03
  2.1614518e-03
 -1.8895937e-03
 -2.5316288e-03
 -5.2052811e-03
  2.0828156e-03
 -9.8840124e-04
  1.0237957e-03
  1.4320462e-03
 -6.3612912e-04
 -5.1175896e-04
 -3.3297758e-03
  4.3035788e-03
  1.6520603e-03
  3.1890948e-03
  1.0939009e-03
  7.4821762e-03
  1.2138348e-01
  3.0273588e-03
  2.1705907e-03
 -3.7224521e-03
 -2.1973187e-03
  6.1052072e-01
  6.1796134e-04
 -5.4727960e-03
  4.5192195e-05
 -6.6522503e-01
  4.5376996e-04
  7.9536525e-04
 -8.3123613e-03
  2.3067612e-03
 -2.8964535e-03
 -4.1577098e-04
 -4.9221464e-03
  6.9377647e-04
  4.4344406e-04
 -7.2243577e-03
 -5.7343254e-03
 -1.7414657e-02
  1.7641279e-03
 -7.5097766e-04
 -4.2274636e-03
  6.2588863e-03
  3.1048898e-03
 -1.4076470e-03
 -5.8190740e-04
  6.6077332e-03
 -1.0147842e+00
 -1.0247200e+00
  1.3141694e-03
 -1.9728458e-02
  5.2773523e-01
 -1.6430902e-01
 -1.8516012e-03
  7.6781046e-01
  1.7989363e-01
 -1.1883514e-03
  4.5532838e-01
  4.9386891e-03
  4.1750926e-01
  8.1083201e-02
 -3.7028635e-04
 -2.4070454e-01
  5.9099286e-04
  5.4331535e-01
  1.9004935e-02
  5.8397657e-01
  6.5481109e-03
  3.5354882e-03
 -4.1836575e-01
 -2.1667015e-03
 -2.1002741e-01
 -1.0561500e-02
  1.0992322e-02
 -3.6940275e-04
 -9.4320904e-03
 -1.2781873e-03
 -1.5677285e-01
 -1.8044204e-01
 -2.9695264e-01
 -3.0767015e-01
 -9.8184586e-01
  2.8362069e-02
 -1.5987502e-03
  2.4986812e-03
 -1.8970238e-03
  4.6478515e-03
  8.2526868e-03
 -1.0799413e-03
 -1.7642621e-03
  7.0770849e-03
  7.3759537e-03
  7.4798930e-03
  2.2558044e-03
  4.1099247e-03
 -1.2153261e-03
  3.1918070e-01
 -1.3938992e-02
 -1.8982249e-04
 -1.0228336e-03
  1.8463184e-03
 -8.5350992e-03
  3.2250674e-03
  5.9699835e-03
 -7.7580269e-03
  2.9697630e-03
 -3.9722715e-03
  3.0945558e-03
 -8.8524073e-03
 -1.7851702e-03
  1.8377637e-03
  1.2487387e-02
  3.0191306e-03
  1.5071661e-03
 -4.4977851e-03
  1.3728871e-03
 -2.1180816e-03
 -3.7592344e-03
  3.1405227e-04
 -6.7470968e-03
  1.1299729e-03
  6.2772835e-04
 -2.8043191e-03
 -4.3752077e-03
 -4.0789484e-04
 -6.7355251e-04
 -1.5024054e-03
  8.5280156e-03
  2.5713975e-03
 -8.2654208e-03
  8.0276502e-04
 -2.0265174e-03
  1.4283106e-01
  1.9992553e-03
  4.4863543e-04
 -3.4094877e-03
  4.3114778e-03
  7.5838733e-01
 -1.4872411e-01
  2.0483214e-02
  1.0972432e+00
  1.0272415e+00
 -2.7469443e-03
 -3.6201645e-03
  3.1476009e-01
 -8.8765216e-04
 -1.4126011e-02
 -4.5697698e-03
  8.7014236e-04
 -2.5849262e-01
 -5.5916969e-02
 -2.3205534e-01
 -4.5510300e-02
  1.0510867e-03
  1.8600293e-01
  1.9636372e-02
 -5.9651393e-01
 -6.4034369e-03
 -1.5653152e-04
  4.1023478e-02
 -3.5296532e-04
  1.3427007e-01
 -2.5223419e-03
 -4.0226607e-03
 -1.4635538e-03
 -1.6392812e-03
 -1.5458334e-04
 -7.4697226e-01
 -2.2311313e-01
 -1.0309235e+00
 -3.5510406e+00
  2.3129620e-01
  1.1249152e+00
 -3.3037320e-01
 -3.5311404e-01
 -4.0918201e-01
  7.0611686e-02
  3.7017968e-01
 -6.1041997e-03
  7.2288990e-01
  3.9159542e-01
  4.0867665e-01
  3.2545006e-01
 -2.4363008e-01
  1.3533074e+00
  3.3054504e-01
 -5.8397418e-01
  3.4088519e-01
  6.5007788e-04
 -1.6096415e-01
  2.6130912e+00
  1.7703764e+00
 -3.7197053e-02
  9.8847486e-03
  7.5010937e-03
 -1.2370007e-02
 -1.4192726e-02
  8.6282855e-01
  2.2589754e-02
  4.1313189e-01
  9.9399025e-03
 -7.1176815e-01
  2.8673394e-03
 -2.9335918e-03
 -3.3641546e-03
 -5.8816695e-03
 -9.0206135e-04
  2.1622551e-04
  3.7737356e-03
 -3.5479944e-03
 -4.8973626e-03
 -1.3894201e-03
  4.7162264e-03
  5.1965662e-03
 -1.1137966e-02
  3.2036284e-01
 -2.9923549e-02
 -1.7112627e-04
  7.2630192e-04
 -5.8023725e-06
 -8.9880591e-04
 -5.2170227e-03
  6.9174927e-04
  3.1223386e-03
 -3.4453606e-03
  1.1976128e-02
 -1.4618019e-04
 -1.9323002e+00
 -1.2438040e+00
 -1.0434235e+00
  2.2415484e-01
  2.5027339e+00
  6.2165093e-02
  7.5289130e-04
  1.1365486e-01
  2.7639684e-01
 -1.4275117e-01
  1.5568237e-02
 -5.9191072e-03
  1.4363362e-01
  5.5482477e-01
  7.1274489e-01
  9.7026065e-02
 -4.1123889e-02
 -6.1222547e-01
 -8.2100636e-01
  1.5439451e-01
  6.8941643e-04
  7.0990841e-03
  2.0979480e-01
  1.6398978e-01
  9.3917118e-04
  2.3147233e-03
 -7.9557963e-04
 -6.7791976e-03
 -1.6734619e-03
  5.9812507e-03
  9.7155881e-01
  6.4693975e-01
  5.1504355e-03
 -3.6504352e-03
 -6.8300352e-03
  1.0875039e-02
  1.3179833e-03
 -9.9636090e-06
 -2.1657120e-03
 -3.5281485e-01
 -6.8649049e-03
 -1.6158073e-03
 -7.4192197e-03
 -1.2908496e-02
 -1.0076816e-02
  4.3172744e-04
  4.1059819e-03
  1.2071955e-04
 -3.6716964e-03
  3.0475059e-03
  1.9010599e-03
  2.3929714e-03
  3.3550947e-03
 -1.5936234e-03
 -7.6508569e-04
  8.4576774e-03
 -2.5575054e-03
 -2.7580126e-03
  3.9176522e-03
 -4.3581445e-03
 -1.4822903e-01
  5.6652069e-01
 -4.7000381e-04
  4.1622506e-03
 -6.0725557e-03
  6.1386963e-04
 -3.4334604e-03
 -2.5543717e-03
 -5.5303555e-03
  1.2669433e-02
 -1.5547196e-04
  8.7848119e-02
  8.9277457e-03
  2.3463899e-02
  1.5246654e-03
 -9.9911941e-03
 -2.3863657e-05
  1.8676744e-03
  8.7280269e-04
  9.1746002e-03
 -1.0675291e-02
  3.0949814e-03
 -4.2769299e-03
 -5.8927585e-04
  3.3958994e-03
 -6.1882567e-04
 -2.1833652e-03
  4.6885288e-03
 -3.2027916e-04
 -1.7932052e-03
  1.3594422e-04
  1.2138099e-03
 -6.5134414e-03
  1.3334993e-02
  2.1370258e-03
 -8.3167749e-03
 -4.6363194e-03
  3.9196936e-03
 -2.8279158e-03
  4.7046918e-04
 -9.4789045e-04
  1.8492161e-03
  2.8432237e-03
  1.2968965e-03
  2.1970728e-03
 -5.3634343e-05
 -3.3131896e-03
 -2.3847233e-04
 -4.1002379e-05
 -4.4211070e-04
  3.7920028e-03
 -2.9001343e-03
  1.4743071e-04
 -1.2471837e-03
 -3.0637512e-03
 -2.9327415e-04
 -1.0523442e-04
 -2.6895048e-03
 -7.5983321e-03
  2.3945124e-04
 -4.7100186e-03
  2.3833483e-03
 -1.2222567e-03
  3.2700466e-03
  5.7178584e-04
  1.1153549e-03
 -1.1784440e-03
 -1.4691494e-03
 -7.5050653e-04
 -8.3766645e-04
 -1.1917341e-04
 -1.4163358e-03
 -1.9393717e-03
 -5.2676299e-03
 -7.9680968e-04
  7.5663747e-03
  4.2505371e-03
 -3.0197285e-04
 -1.1363928e-03
 -2.1625420e-03
  5.1267451e-04
 -5.6048422e-03
  2.2366382e-03
  4.1652974e-03
 -7.9467455e-03
  3.2011908e-04
 -7.0330850e-04
 -8.0310827e-04
  5.8348519e-03
  4.8491376e-04
 -2.2695749e-03
 -7.0604859e-03
 -1.0687014e-03
 -1.8371228e-03
  9.4085271e-03
  1.5615071e-03
 -1.4783000e-05
 -1.9658629e-03
 -1.4659336e-03
 -7.1084825e-04
 -1.4696532e-03
 -2.2162718e-04
 -1.0641105e-03
 -2.3252212e-03
  4.4390385e-05
  1.4331244e-03
 -5.4197824e-03
 -6.2194449e-05
 -6.4407396e-03
  7.7091961e-04
  1.6225165e-02
 -3.0249432e-03
 -3.3081933e-03
 -4.1015665e-03
 -4.4270302e-03
  1.1445201e-02
 -3.2329427e-03
 -5.7165269e-03
  1.5321182e-03
  8.5253344e-04
  4.4916112e-02
  4.3484531e-03
  3.0928820e-01
 -2.7065683e-02
 -2.7530250e-01
 -4.6178699e-01
  9.3187904e-04
  1.7487079e+00
 -1.1855714e+00
  2.7634823e-03
 -5.7796977e-05
  1.2085533e+00
 -1.8001587e+00
 -1.0450481e+00
 -1.2399668e+00
 -6.3918578e-03
  4.8690382e-03
  7.2249710e-03
 -4.6894005e-01
  3.2928407e-01
 -3.9125636e-04
  9.1924623e-02
  3.3518529e-01
  2.6074063e-02
  2.9225010e-01
  3.2132825e-01
 -1.0023147e-03
  2.8452491e-03
 -8.8263152e-04
 -5.2289176e-04
 -8.5167807e-01
 -1.4682740e-01
  7.1663445e-01
  1.6963196e+00
  2.8728123e+00
 -6.8154860e-01
  1.3687810e-03
  1.1694191e+00
 -1.6043305e+00
 -3.1296643e-03
 -3.6121667e-03
 -1.6270500e+00
 -1.3999604e+00
  7.8541833e-01
 -2.1800230e+00
  2.2664829e-03
  3.9028944e-03
 -4.5681313e-01
  1.1420826e+00
  9.1537678e-01
  2.2113684e-03
 -1.1135969e+00
  1.7596457e+00
 -6.4401078e-01
  1.3195164e+00
 -5.6575882e-01
  4.0627041e-01
  4.2908359e-04
  4.8342809e-02
 -8.0242520e-04
  8.8490616e-04
 -6.3576670e-03
 -1.1024519e-02
  5.2993796e-03
 -1.3948076e-03
 -5.8425106e-03
 -9.0712002e-03
  5.7629310e-04
  7.2235020e-04
  2.7112409e-03
 -6.8603328e-04
 -2.5209321e-03
  1.5073135e-03
  1.6818874e-02
  4.4319937e-03
  1.1923006e-03
  4.4556279e-03
  1.0698325e-03
  1.4891587e-03
 -1.7361317e-03
 -8.3738547e-03
 -5.3227511e-03
 -1.7835278e-03
  1.0400101e-03
  2.6422781e-03
  5.1152925e-03
  1.5385747e-03
  2.9056142e-03
 -5.2813691e-04
  4.8214989e-03
  4.1588566e-01
 -2.3472165e-03
  2.1635137e-01
  1.4923012e-03
  2.4373797e-01
  2.7299920e-01
 -5.0360125e-02
 -5.1991281e-04
  5.9515047e-01
 -2.4056244e-01
  1.1146786e-01
  6.5097417e-04
  4.7530636e-01
 -3.0205233e-04
  2.6231742e-02
 -2.3671223e-03
 -1.0989952e-01
 -1.3796620e-01
  4.1004282e-04
  6.3123666e-03
 -1.5990417e-02
  2.7618047e-03
 -9.9099893e-03
 -1.7532896e-03
  1.0458868e-03
  7.2881401e-01
  2.3846808e-03
  3.8196133e-03
  6.2635238e-03
 -1.0890886e-05
 -4.1609863e-03
 -5.5925297e-03
  1.9643749e-03
 -3.0644315e-03
 -3.5550259e-03
  5.8489940e-03
  1.8791994e-03
  5.0636246e-03
 -1.1371637e-03
  4.3491093e-03
  1.1268611e-03
 -8.9488475e-04
  1.9774642e-03
 -3.8658197e-03
  6.4933216e-03
  5.0888993e-03
  7.0436188e-05
 -3.0673151e-03
  7.0381775e-03
 -4.6545961e-03
  2.1603571e-03
  8.2420366e-04
 -6.7471876e-05
 -1.4172951e-03
  5.2592480e-03
  1.0609602e-02
 -5.3207425e-04
  9.1060146e-04
  1.9055209e-03
 -8.1106415e-04
  1.5122586e-01
 -1.1437928e-03
 -3.7673764e-02
 -3.2424970e-05
 -1.9553653e-03
 -4.9758416e-02
 -3.2460745e-03
  3.9032470e-03
 -5.0699890e-02
 -4.7129210e-02
  7.9972818e-03
 -1.2179734e-02
  1.1996859e-04
  1.3638651e-01
  9.2066508e-03
 -3.3686438e-03
 -2.8820746e-02
 -6.9468888e-04
 -1.5199687e-02
  1.4266293e-03
 -1.9686271e-03
 -1.0578589e-02
 -2.8875708e-03
 -9.8005831e-03
 -2.1155004e-04
  5.3488887e-03
  1.2195543e-03
 -2.5352663e-03
  2.4144847e-03
 -4.2626630e-03
 -2.1947493e-01
  2.1212616e+00
 -1.1290293e+00
 -3.8494401e+00
  1.2911471e+00
  7.4535966e-01
 -5.1167971e-01
 -5.4986483e-01
 -3.7060347e-01
  1.4044549e+00
 -9.0556983e-03
  8.2912259e-02
  5.9091026e-01
 -5.6578791e-01
 -9.8778401e-04
 -6.2257806e-03
  4.8701162e-03
 -2.2047058e-01
  9.5348275e-01
 -1.0011749e-01
  1.8000606e-02
  6.0695810e-03
  6.9114166e-01
  5.6004041e-01
  2.4756537e-01
  1.2195530e-01
 -2.1256984e-03
  4.9335104e-01
 -4.7750112e-02
 -2.6806663e-03
 -9.9903725e-02
 -9.7891584e-04
  5.0378252e-02
 -2.3110230e-03
  1.0950541e-01
  1.8262887e-01
  4.0398348e-02
  1.4267419e-02
  1.2998980e-02
  1.7955954e-03
  3.6449947e-03
  1.0744265e-03
 -1.2005595e-03
  7.8888917e-03
 -6.1410025e-04
  2.4106592e-04
 -7.9562404e-04
  1.3133305e-01
  5.8303964e-03
  7.6527440e-04
 -2.8899852e-03
  2.8768871e-03
  2.9809522e-03
 -9.2706043e-01
 -4.2043682e-03
 -4.3259831e-03
 -7.2656141e-05
  7.5711980e-03
  4.7187391e-01
 -1.4236172e-03
 -1.2094975e+00
  3.3781865e+00
 -1.9941318e+00
 -3.1438375e-01
  4.4223514e+00
  5.4242486e-01
 -3.5789639e-01
  7.8575480e-01
  2.6981476e-01
  8.3805054e-01
  1.5734837e+00
  2.4313994e-01
  2.0551176e+00
 -5.2065897e-01
  2.4608085e+00
  2.9356283e-01
  3.3374235e-02
 -7.9455251e-01
  7.5675118e-01
  1.9663717e+00
 -2.5638512e-01
  1.5704137e+00
 -1.6509238e+00
 -1.2937518e+00
 -7.1773243e-01
 -4.8946649e-01
  6.9647354e-01
 -6.3139843e-03
 -5.6506026e-01
 -5.9226383e-02
  1.3091726e+00
  1.4720008e+00
 -1.0895304e-01
 -4.9455407e-01
 -9.9325001e-01
 -4.8950829e-02
 -1.2292233e+00
 -3.4217888e-01
  1.9197671e-01
 -4.5664755e-01
  5.8433685e-02
 -5.5144816e-03
 -1.7301031e+00
 -5.0990772e-01
  2.0813423e-01
 -5.5511200e-01
 -3.1939447e-02
 -9.6457303e-01
 -7.6872844e-01
 -1.6836450e-01
 -4.6792151e-03
  5.6297833e-04
 -2.6122913e-01
 -6.2634087e-01
 -9.3513072e-02
 -6.8081537e-04
  4.2484840e-05
  1.2635943e-01
 -3.2789439e-02
 -1.1274712e-03
  1.8180646e-03
  6.1793728e-03
  2.0833863e-03
 -4.0782746e-03
  3.4972726e-04
  3.6989427e-03
 -1.7723597e-03
  4.3952919e-04
  9.9892821e-04
 -3.5032001e-04
  3.6780015e-03
 -6.1546210e-03
  8.5563719e-04
  6.1256038e-03
  6.9330614e-03
 -2.6079235e-03
  2.1005992e-03
  4.3854122e-03
  4.5266785e-03
 -1.8276153e-03
  2.0063035e-03
 -1.0302082e-02
 -9.7984099e-04
 -6.8267407e-03
 -2.1804282e-03
 -3.8012883e-03
  4.5274934e-03
  5.5140757e-04
 -1.7813714e-03
 -1.9167312e-03
 -1.1277736e+00
  1.0323614e+00
 -1.6349112e+00
 -1.5854828e-02
 -1.2810266e+00
 -1.0711147e-01
 -1.6973587e+00
  1.1970146e+00
  2.7657595e-02
 -1.3334748e-01
  9.3968320e-01
 -1.9340678e-01
  9.8950547e-01
 -2.3688512e+00
  3.1929824e-01
 -3.1862772e-01
  3.8293248e-01
 -4.2311418e-01
  8.7928563e-02
 -5.0625229e-01
  6.9092796e-04
 -9.1373093e-02
 -2.4876099e-02
 -3.2384655e-01
 -3.6434221e-01
  3.2396585e-01
  3.5273070e-03
  3.7902743e-01
 -7.9985863e-01
 -3.9807940e-01
  3.7187934e-03
 -1.0900416e-03
  7.4016736e-03
 -6.1048981e-05
 -1.5780432e-03
 -1.0773516e-03
 -2.7399356e-03
 -4.2914706e-03
 -5.5627100e-02
 -3.1987042e-04
 -1.7910189e-03
 -5.3848871e-03
 -1.5785056e-03
  5.0342493e-03
  4.6925601e-03
  8.1455773e-03
 -1.3622902e-02
  2.6042350e-03
  3.6237889e-04
  9.4317226e-03
 -2.5437097e-05
 -1.3689040e-03
  8.4777242e-03
 -6.4741592e-03
  3.0366371e-03
 -1.6473986e-03
 -1.0365275e+00
 -1.7637769e-03
  1.1479681e-03
 -5.8568157e-03
  6.5416116e-03
  4.2871502e-03
  1.1286027e-03
 -2.0267330e-03
  3.0877651e-04
 -2.8818415e-04
 -7.8764018e-03
 -9.8313030e-04
 -2.8741753e-01
 -2.0907251e-03
 -2.3912694e-03
 -9.0570357e-03
 -4.8539964e-03
  6.5129949e-03
  1.4110819e-03
 -1.5472333e-03
  4.2887526e-03
  1.9104796e-03
 -3.1215113e-03
  2.0654784e-03
 -7.2081769e-03
 -2.6858756e-03
 -4.1575567e-04
  2.2767845e-03
 -7.8332685e-03
  1.1133837e-03
  4.7392440e-03
  6.1216252e-04
  2.2898526e-03
 -3.4384017e-03
  1.5475802e-01
  3.7554000e-03
 -4.3481719e-03
  4.0610489e-02
  1.5013434e-03
  6.1028223e-03
  1.1673539e-01
 -9.0973888e-04
  9.2904627e-01
  3.3123053e-03
 -1.3472259e-02
  5.2309924e-01
 -4.7108856e-01
 -6.0683023e-03
 -1.6800207e-01
  8.4084228e-02
  7.1586617e-03
  1.0678946e+00
  2.3854850e-04
  1.4699675e-05
  1.1902704e-02
  9.3371775e-03
 -4.2508049e-03
  2.1811873e-01
  1.2218655e-04
 -4.9108954e-04
 -4.6036062e-03
 -1.4533099e-02
 -9.5692292e-02
  5.1358244e-03
 -1.9201670e-04
 -6.7577488e-04
  6.5288590e-03
 -1.4887939e-03
  5.9005260e-03
  4.2605400e-03
  5.8347778e-04
 -2.3283411e-02
 -6.5151538e-04
  3.6253796e-03
 -7.2280634e-03
 -1.8239188e-03
 -1.6734465e-03
 -4.5790384e-03
 -1.1059467e-03
 -1.9609185e-03
  8.9375302e-04
 -2.0009883e-04
  6.2803761e-03
 -2.8882895e-03
  7.6470040e-03
  5.1214127e-03
  2.1664021e-03
  5.3489381e-03
  2.7294420e-03
 -2.5166909e-04
 -8.2326317e-03
 -6.5933826e-05
  5.6431651e-01
 -4.4503477e-03
 -6.1279926e-03
 -2.9244819e-03
 -1.2832080e-02
 -5.0915438e-03
  3.6243210e-03
 -2.4651629e-03
  1.3475093e-03
  5.5186609e-03
  1.0493179e-04
  9.8136556e-04
  1.2819117e-04
  2.8630097e-03
  1.4065071e-03
  3.4047533e-03
 -4.5343855e-04
 -1.4748761e-03
 -3.1024010e-03
  1.9612024e-03
 -7.5902365e-04
 -9.3952185e-03
  6.0220119e-03
  1.6135364e-03
  1.7111663e-03
 -4.0290034e-03
  5.7232575e-03
  3.2798387e-03
 -1.1115123e-03
 -1.0432099e-03
 -7.8710547e-04
 -4.7157705e-04
 -8.7007336e-02
 -1.6988613e-02
  5.9705816e-02
  9.5831521e-02
 -1.2389090e-03
 -1.8084790e-01
  2.3693321e-02
  1.7373432e-01
  9.8359771e-02
  2.1859819e-02
 -9.6345833e-03
  4.7881384e-03
 -1.4999084e-01
  6.5816700e-02
 -5.3136311e-02
  5.5734158e-02
  4.6724878e-02
 -3.3329455e-03
  8.7515712e-03
 -1.4693628e-03
  5.5217082e-03
  7.7843992e-04
  9.6410662e-02
  8.0438185e-01
  2.2781512e-01
 -8.8511426e-03
 -2.7845884e-03
 -4.2827713e-04
 -1.3431703e-02
  8.2958518e-03
 -1.0716524e+00
 -7.0443541e-01
  3.9479041e-01
  1.0107324e-02
  2.5830221e-01
  1.1868547e+00
  1.2977858e-02
  2.4557039e-01
  1.2872963e-01
  1.4175967e-02
  1.6974331e+00
 -4.2624492e-04
 -1.8607768e-01
  4.3182305e-01
  7.7226651e-01
 -3.6277978e-03
  4.1424070e-04
  6.2602150e-01
  7.2796181e-02
  8.6709036e-04
  4.6512662e-03
  4.9405347e-04
  4.3641880e-01
  1.9374067e-01
  5.7902377e-02
  2.1586195e-05
  5.1008002e-04
 -4.1796120e-05
 -3.3414557e-03
  5.3583588e-03
 -1.1590031e+00
  2.0813151e-01
  6.2976748e-01
  6.1689079e-01
  9.5784003e-01
 -2.3431505e-01
  5.2387261e-01
  4.6845613e-04
 -9.9292171e-01
  7.0438039e-01
  5.7514017e-03
 -4.0148699e-01
 -9.2967314e-01
 -1.8082633e+00
 -8.5846472e-01
 -5.7915366e-01
  4.1298321e-03
 -1.0053080e-01
  6.8744184e-03
  1.0407412e+00
  2.3988110e-03
 -5.4328218e-03
 -1.3124158e+00
 -1.1063174e+00
 -4.7698599e-01
 -1.1589900e-01
  2.6743880e-02
 -3.9237350e-01
  1.8858489e-01
  1.7370308e-02
  1.7444272e-02
 -2.2113814e-03
 -3.1679173e-04
 -3.4006527e-03
  2.1077232e-03
 -9.2414238e-02
 -4.3340060e-03
 -4.1110069e-03
 -9.8070232e-03
 -5.3724879e-04
  2.5025087e-03
  2.9808683e-03
  4.7603464e-03
 -7.6213770e-04
  3.7476355e-03
 -4.3216222e-03
 -2.7325931e-03
 -6.3785620e-04
 -3.2205435e-03
 -1.8849024e-03
  9.2579640e-04
 -3.6412678e-03
 -2.5588967e-04
 -9.6265425e-04
 -1.3352453e-02
 -3.5446573e-03
 -1.9236760e-03
 -4.0013818e-03
 -8.9126930e-04
 -1.9289148e-03
 -1.5487427e+00
 -1.0342485e+00
 -1.6603895e+00
 -6.0771904e-03
 -1.6114092e+00
 -6.5850474e-02
 -2.3561305e-01
 -7.9709560e-01
 -1.5351151e+00
 -5.4709995e-01
 -1.2707953e-01
 -2.6081761e-03
  2.9602566e-01
 -9.6735620e-01
  4.4841869e-03
 -7.0260130e-02
 -1.9650297e-01
 -2.2210327e-01
 -7.3908353e-01
 -1.4632372e-03
 -2.3384711e-03
 -3.7111011e-03
  1.0191816e-03
 -8.7141521e-02
 -7.8856235e-04
 -1.2956274e-01
 -8.6826913e-05
 -3.1668651e-03
 -1.6136570e-01
  4.4406299e-03
  9.1602188e-01
 -8.8023353e-01
  3.3048447e-02
  6.7823613e-01
 -9.0606153e-01
  3.2438791e-01
  2.0517364e-02
  2.2667868e+00
 -1.0241741e+00
 -8.1747985e-01
  1.6497490e+00
 -1.6254100e-01
 -9.0112978e-01
 -7.6247561e-01
  3.5313386e-01
  2.5615113e-02
 -1.8272145e-03
  3.7468725e-01
 -5.7324064e-01
 -3.9572638e-01
 -1.1311046e+00
  2.3293032e-03
 -1.3576216e+00
 -9.4269939e-02
 -4.1354826e-01
  2.6817459e-01
  2.9214777e-03
  8.3399057e-01
  1.3000004e+00
 -4.1918526e-03
 -2.8333819e-02
  3.6464441e-03
 -6.8930476e-03
  1.4291122e-02
  1.2389112e-01
 -7.7372682e-03
  6.8585500e-02
  1.9728351e-02
 -7.2139117e-04
  1.8828374e-03
 -2.1469805e-01
  4.4921719e-05
  8.4950738e-03
 -1.7096838e-03
 -3.3223166e-03
  3.0049754e-02
  3.4671237e-03
  2.2608271e-01
 -2.6816679e-03
 -1.7437618e-03
 -3.9114696e-03
  4.2031882e-03
 -1.9850472e-03
  2.9216369e-03
  2.1644253e-02
 -8.5403246e-04
  1.6907549e-03
  2.7644113e-03
 -1.2473111e-02
  7.6972316e-03
 -4.3227448e+00
 -1.3208176e+00
  2.4169030e+00
 -5.1528420e+00
  9.0160400e-01
  7.6987860e-03
 -1.3670823e-01
  7.0381582e-01
 -7.7201240e-02
 -8.8335693e-01
 -6.2311620e-01
  1.0857683e-03
  1.8004775e-01
  8.0362922e-01
 -5.0249213e-01
 -1.8083560e-01
 -3.4964707e-01
  8.8778722e-01
 -1.5063975e+00
 -5.0549757e-01
  8.9644379e-04
  2.0213496e-02
  6.8471086e-01
  5.2702248e-01
  8.7681216e-01
 -6.7464523e-02
  1.4011365e-03
 -5.8989404e-03
 -9.0045595e-01
  1.4456299e-01
  2.9530227e-02
  1.8382525e-01
 -1.4976357e-01
 -1.4367540e-01
 -3.8651209e-02
 -1.5439381e-03
 -1.2079512e-01
 -4.2670956e-03
 -1.8543887e-01
 -2.9910266e-02
  6.6924594e-02
 -8.6441273e-03
  1.1881038e-01
 -1.1341884e-01
  4.9429748e-02
 -4.7722828e-02
 -1.1290491e-01
 -1.3654173e-03
 -6.8276742e-05
  5.9613832e-03
 -1.8035360e-03
 -5.1208498e-04
 -4.5237049e-02
 -2.8681043e-01
 -9.3672439e-02
  5.6910329e-03
 -6.6923331e-03
  8.5771447e-03
  3.1668451e-01
  3.4027130e-04
  9.2582220e-01
 -9.8804069e-01
 -3.9572024e-01
  1.4316896e-01
 -1.3143981e+00
  9.1716105e-01
 -6.5143198e-01
  7.7835810e-01
  5.5776346e-01
 -1.8629181e-01
  2.1649294e-01
 -1.4888959e-01
  9.1025573e-01
  3.7780386e-01
  1.2189431e-01
  1.0937705e-01
  2.0724913e-02
  7.6125294e-01
 -1.1530424e+00
  3.5033271e-01
 -3.6639650e-04
 -1.9288383e-02
  7.7573049e-01
  1.9349324e-02
  2.0889133e-01
 -4.0892190e-03
  2.8080579e-02
  8.1766367e-02
  1.0929434e-03
 -7.7863708e-03
  3.1827137e-02
  7.8246007e-03
 -1.3740687e-03
 -1.0381627e-01
  8.1210793e-04
  4.4956589e-03
 -1.5132029e-02
  4.6843030e-03
 -1.6059875e-02
  1.1778355e-03
  2.0016490e-02
 -9.5592835e-04
  2.6341870e-02
 -7.0010275e-03
  2.0193342e-02
  5.0822115e-03
 -1.3326765e-03
 -1.0071934e-05
 -2.5554763e-03
  1.0620548e-02
  1.3933622e-03
 -2.7800712e-04
 -2.2113673e-02
 -2.0104663e-02
 -1.3661653e-02
  7.6987119e-03
 -4.2841537e-03
  1.9083681e-03
  9.0431524e-03
  7.6246855e-05
 -2.7924170e+00
  2.3902659e+00
  1.8615703e-01
  3.7221665e+00
 -6.1620742e-01
 -2.2425044e-02
 -1.2170544e+00
  4.6301238e-02
 -1.4425768e-01
  4.9130780e-01
  9.7990084e-01
  1.9541625e-02
  2.8625157e+00
  7.0995361e-01
  2.5536448e-01
 -3.1072026e-01
  7.8788269e-01
  7.4823284e-01
  4.9940747e-01
 -7.8917094e-02
  2.0675580e-03
  3.5882577e-02
  2.2900263e-03
  7.0642322e-01
  1.7958085e-01
  3.8434961e-01
 -6.5010283e-03
  2.2573080e-02
  5.0681692e-01
  1.2648804e-02
 -2.7588472e+00
 -9.2477415e-04
  8.3147126e-01
  8.1890486e-03
  1.7939007e-01
  8.4492872e-03
 -4.2665326e-03
 -1.9058676e-03
  7.8735799e-02
  4.9114311e-03
 -1.0301359e-02
 -5.9315737e-04
 -8.9298468e-04
 -3.6619171e-03
  7.4922608e-04
 -2.0937554e-03
 -9.6120581e-04
 -1.3077166e-03
 -4.7622068e-04
  4.1051395e-04
 -4.7002682e-03
 -2.4930872e-03
  1.2494738e-01
  5.6038576e-04
  4.6266969e-03
 -4.7143577e-03
 -4.1741310e-03
  7.6654218e-03
  3.8769697e-03
  4.1228472e-03
  2.7635279e-03
 -3.7214491e-03
  8.3286874e-03
 -1.6113690e-03
  1.2173241e-03
 -4.3177749e-03
  2.7192319e-03
 -1.0254186e-02
  1.6374196e-03
  6.8091066e-04
 -3.9094011e-03
  2.5877580e-03
 -1.0911250e-03
 -7.0178513e-03
 -4.5608345e-04
 -1.3951455e-03
  3.6964794e-03
 -2.8862210e-03
 -1.9611078e-03
  8.8847929e-04
 -2.2836858e-03
 -4.5685698e-03
 -5.9355590e-03
  2.7647538e-03
  3.2080547e-03
  4.7150519e-04
  9.7551728e-03
  1.4367645e-03
 -3.3957241e-04
 -1.0903347e-02
 -4.8564032e-01
  1.3923831e+00
  9.5340532e-01
 -5.5488294e-01
  8.1890613e-02
  4.8244068e-01
  7.8265071e-01
  4.6642455e-01
  8.0494285e-01
 -8.3198822e-01
  3.5780417e-03
 -2.3127444e+00
 -1.2187927e+00
 -3.9680985e-01
 -9.0575993e-01
  1.9669586e-01
  7.9226589e-01
 -3.2094601e-01
 -2.0203683e+00
 -5.0648016e-01
 -2.0312972e-03
 -1.1304398e-01
 -1.3418324e+00
 -1.6383693e+00
 -5.4086417e-01
 -3.9693039e-02
  3.3429649e-01
  5.9395176e-03
 -1.3468933e-02
  7.0339940e-03
  8.3110528e-03
  1.6673429e+00
 -1.9459886e-03
  2.8255668e-03
  1.5275987e+00
 -2.4011679e-02
  2.3650265e-01
  6.0354177e-02
 -6.4446783e-01
 -4.4814670e-01
 -6.5825760e-02
  2.8453358e-03
  9.3595564e-01
 -5.9215957e-04
 -3.0568920e-03
 -3.7818460e-03
  7.8862451e-02
  3.4115267e-01
  2.1677506e-03
 -3.2779782e+00
 -1.1738560e+00
  9.9530560e-04
  5.5875474e-01
  4.9960148e-04
 -1.6023766e+00
  6.0443944e-01
  5.4688591e-01
 -8.4773138e-02
 -5.2565360e-03
  9.0741897e-01
  5.1880507e-03
 -5.0954050e-01
  8.1061739e-03
 -2.1529350e-01
  1.4727783e+00
  1.6766238e-01
 -2.7464275e+00
 -4.8228219e-01
 -1.2996382e-02
 -8.8582897e-01
  3.4068497e-03
 -7.1478710e-02
  4.9399170e-01
 -3.7497915e-02
  6.4841464e-02
  5.9060723e-01
  3.3889738e-01
 -6.9983774e-01
 -1.4784175e-01
 -4.0012655e-01
 -1.4762846e+00
  1.9093919e-01
  1.2229265e+00
 -4.3708304e-01
  1.7616774e+00
 -6.0697532e-01
  9.2829919e-01
  1.2934217e-01
  1.0527833e-02
 -1.5775421e+00
 -2.4304457e+00
 -6.8719155e-01
  1.1332156e-03
 -1.0071099e+00
  8.9794857e-04
 -2.4216969e-01
 -1.0426802e-01
 -4.5844361e-01
 -7.1496785e-01
  4.4231707e-01
  3.6375929e-02
  1.4040178e-03
 -1.5951556e-01
 -2.0830162e-01
  1.0116839e-02
  1.2705835e+00
 -2.1075108e-03
 -3.3085558e-01
  1.0098480e+00
 -5.6282353e-01
 -4.7294778e-01
  3.2613319e-01
  1.5228772e+00
 -2.7000359e-01
  1.5548889e-01
  9.4631487e-01
 -3.3010036e-04
  1.8483787e+00
  1.1812276e+00
 -2.5639033e-03
 -4.2018121e-01
 -7.5726122e-01
  1.6503265e+00
 -4.7514716e-01
  2.8577438e-01
 -1.4084153e+00
  7.9205620e-01
  1.5207552e-02
  1.1572280e-02
  9.2821695e-02
 -1.1409980e+00
 -2.2177577e-01
  9.1012156e-01
  1.1987191e-01
 -5.8517319e-01
  9.2670965e-01
 -3.0378625e+00
 -9.1131586e-01
 -8.3648980e-01
  1.9242572e+00
  1.4289773e-01
  3.7924750e+00
  9.6707813e-02
 -8.0650590e-02
 -6.5147644e-01
  7.0066977e-01
 -3.3577611e-03
 -3.4107037e-02
 -5.7763983e-02
  3.4501098e-02
 -6.2598544e-01
  9.2233956e-02
 -8.8730061e-01
  1.4436524e+00
  2.8869727e-01
  1.0382317e-02
 -3.9718895e+00
 -2.8084562e+00
 -4.4822984e-05
  8.9560437e-01
 -2.5978890e-01
 -1.3094360e+00
  1.6635979e+00
 -9.2149004e-02
 -3.5768490e-02
  1.6914215e+00
  7.6962179e-01
  1.3423338e+00
  1.1127077e+00
  5.2643222e-01
 -2.8235686e+00
 -3.9859837e-01
  3.0641591e-02
 -5.9783787e-01
  8.6439717e-01
 -4.4275555e-01
  2.3936803e-02
 -1.0628878e+00
  6.1551340e-02
 -1.8552165e-01
 -1.1433084e+00
 -1.6223199e-03
 -2.5815713e-01
 -9.0820289e-01
 -7.0026767e-01
 -1.8901369e-02
 -1.3077302e+00
  4.1491774e-01
 -1.0887648e-03
  1.5277303e+00
 -8.0372685e-01
 -1.6838323e+00
 -9.4259292e-01
  3.9745951e-01
  8.1553869e-02
 -7.1057963e-01
  2.0477316e+00
  9.2652375e-01
  8.6254990e-01
  6.0810649e-01
  1.0761777e+00
 -8.6433941e-01
  1.5769662e-01
 -3.0235088e-01
  9.0272285e-02
  6.7140120e-01
 -1.0841995e+00
  3.3939472e-01
 -8.8686571e-02
 -1.6403163e-02
 -3.6720476e-01
 -1.2131305e+00
  2.8689103e+00
  8.2163769e-01
  1.0618020e+00
  1.4035997e+00
 -2.2985537e+00
  6.4211065e-04
  2.5717528e-03
 -1.8499194e+00
 -2.8042551e-03
  1.9196957e-02
 -5.2973337e-02
  2.0019321e+00
  1.1250223e+00
  4.8084792e-01
 -9.7093970e-02
 -4.2697424e-03
  1.0822590e-01
  5.3201044e-01
  1.4023611e-01
 -1.2592717e+00
 -1.1032265e+00
 -7.7847856e-01
  1.5261620e+00
  1.0140290e-01
 -4.0350840e-03
 -1.1650755e+00
  1.7766318e-01
  2.0929780e+00
 -2.0926085e+00
  9.4369233e-01
 -4.6425387e-01
 -2.2853923e+00
 -7.7166017e-03
  1.4708069e-04
  5.9557438e-01
 -1.8047307e-05
 -1.0093655e-02
 -2.9941373e+00
  1.2896924e+00
  2.5554655e+00
 -2.3494098e+00
 -1.1074656e+00
 -1.4260777e-02
  5.5066168e-01
  3.3945221e-01
  6.6402477e-01
 -1.8111233e+00
 -2.6038404e+00
  1.3800628e-01
  2.9275515e+00
  1.5685621e-01
 -2.3189545e-01
 -1.0138952e-01
  1.7728372e-01
  1.1588231e+00
 -1.2240349e-01
  2.4048125e-02
  8.3818966e-01
  1.0661172e+00
 -2.8151527e-04
 -1.2552012e-03
  1.3272269e-01
 -2.8657562e-01
  4.9097887e-01
 -1.1556453e-01
  1.7434481e+00
 -2.2535680e-01
 -1.4666645e-01
 -2.7135024e-02
 -3.0115945e-04
  3.1051120e-01
 -1.5040891e+00
  9.6759267e-02
 -4.4077054e-01
  1.1532671e+00
  3.3341188e+00
 -1.7444084e+00
 -1.7514715e-01
 -1.3686293e-01
 -1.1869442e+00
  1.6845877e-01
  1.5672574e+00
 -9.5585489e-01
 -9.4833338e-01
  3.1234756e-01
  4.3812081e-01
  6.9838846e-01
 -2.0308630e-01
 -4.1363603e-01
  2.2987719e-01
  4.1216111e-01
 -1.8754957e+00
  1.3784023e-01
 -3.6742952e-01
  3.7282214e-01
 -5.4613249e-03
  2.6146051e-01
  5.9443808e-01
  2.1194583e-01
 -1.7820844e-01
 -1.3327390e+00
  3.0668399e+00
  1.0909669e+00
  1.9011921e-01
 -8.6977893e-01
 -9.8473929e-02
  5.5546039e-03
  1.8259899e-01
  1.9120704e+00
 -4.5630324e-01
  4.8059690e-01
 -2.3317145e-01
  8.2161057e-01
 -1.0503212e+00
  9.3507105e-01
 -1.5546989e+00
 -4.2860869e-01
  1.2784702e+00
 -3.4600431e-01
  1.3203098e+00
  1.1220139e-01
  6.3235772e-01
 -6.9954060e-03
  6.5321388e-04
 -6.9316421e-03
 -1.5974447e-02
 -5.8138708e-04
  5.6911176e-03
 -1.8508095e-04
 -1.0403987e-02
 -1.6904896e-01
  1.2650138e+00
  7.1495670e-01
  2.5338945e-01
  3.9467031e-01
  2.4108142e-01
  4.4703457e-01
  4.6728346e-01
  9.6313477e-01
 -1.8481849e-01
  6.2977117e-01
 -6.7437557e-03
  9.0405041e-01
 -2.9323027e-01
 -1.9508630e+00
 -3.5393476e-01
 -7.1181691e-01
 -7.3055249e-01
  1.8153453e-01
 -4.7236867e-03
  4.8628327e-01
 -5.0802892e-01
 -1.7629149e+00
  9.7314739e-01
  1.6933433e+00
 -2.3352274e-01
 -3.8642483e+00
  2.6798265e+00
 -1.0773623e-01
  8.0947876e-01
 -1.1351887e+00
  6.7298776e-01
  2.4982621e-03
 -8.5771322e-02
  9.8699397e-01
  1.5699250e+00
  9.8350704e-01
 -1.1389049e+00
 -3.5753980e-01
 -6.4329952e-01
 -1.0848021e-02
  2.8909370e-01
 -7.6864696e-01
 -2.0370507e+00
  3.6076435e-01
  4.1928789e-01
 -5.9028747e-03
  2.4566622e-04
  2.0254028e-01
 -1.1484641e+00
  6.6382944e-04
  1.1214331e+00
 -8.1189299e-01
  3.4777064e-02
  2.0895207e+00
  5.4527640e-01
  1.1685890e-03
 -8.2776791e-01
  3.1487542e-01
 -9.8210827e-02
 -1.1895790e+00
  9.5511001e-01
  2.4406319e-02
  1.7251668e+00
  5.8292311e-01
  1.3741988e+00
  1.1884711e+00
 -5.7098967e-01
  2.0643514e-02
  6.7113882e-01
  1.3384441e+00
  1.8710569e+00
 -7.4926245e-01
  7.2157465e-02
 -5.3918049e-02
 -5.5943862e-02
 -1.2983121e+00
 -5.5769020e-01
 -1.8111923e-01
  5.7509583e-01
  5.6702071e-01
  3.8452157e-01
 -1.0220081e+00
 -7.1809852e-01
 -1.9977921e-01
 -1.8538204e+00
  1.7044989e+00
  8.3983016e-01
 -3.4605500e-01
  1.0055131e+00
 -5.6372726e-01
  1.3586752e-01
  3.9413641e-03
  2.8709280e-01
 -1.8444439e-02
  2.7930847e-01
 -2.7682063e-01
  3.2405427e-01
 -8.0288219e-01
 -4.3880922e-01
  4.1297317e-01
 -6.0846214e-04
 -3.1949365e-01
  2.0040963e+00
  1.4332777e+00
  3.8171933e+00
 -1.5260546e+00
 -1.7495279e+00
  1.7349885e+00
  2.0989023e-01
  3.1640145e-01
  3.0329823e-01
  7.7342856e-01
  7.4506858e-03
 -1.9505504e+00
 -3.0807856e-01
  9.0359512e-04
 -2.8521748e-02
 -1.0352321e+00
 -1.3918915e+00
  1.7560126e-02
 -8.5647905e-01
  5.8464217e-01
  2.9822046e-02
 -2.4098656e+00
 -2.0734575e+00
  4.1338582e+00
 -2.2801843e-02
  4.2136568e-01
  7.6009536e-01
  2.4811273e+00
  1.4981360e+00
 -1.8395146e+00
 -2.9192653e+00
 -1.0699877e+00
  1.9080034e+00
  2.8475339e-02
  7.7230793e-01
  2.6481156e+00
  4.8347151e-01
  2.9409826e-03
 -3.5043654e+00
 -2.7872831e-01
 -8.9076865e-01
  4.4242211e-02
  3.1433365e-01
 -2.2675765e+00
  3.2254605e+00
 -1.4828726e+00
  6.1191177e-01
 -3.9357669e+00
 -1.5439466e+00
 -2.3114018e+00
 -3.0180244e+00
  3.1081197e-01
  2.1603693e-01
 -9.4293666e-01
 -4.2354339e-01
  6.3468709e+00
  7.1928775e-01
 -8.2952821e-01
 -4.7120017e-01
  5.7842815e-01
  3.1461933e-01
  1.4133938e-01
 -4.2573079e-01
 -6.3859299e-03
 -9.5335133e-02
  1.2224559e+00
  2.4072886e-01
 -1.5637803e+00
 -9.7440505e-01
 -3.4019485e-01
 -9.6708798e-01
 -7.6308566e-01
  1.2233988e+00
  1.5857289e+00
 -1.6426435e+00
  2.4622659e-01
 -8.6146432e-01
  2.5886228e+00
  1.1659824e+00
 -1.6964872e+00
  1.1593461e+00
  6.2436283e-01
  8.2188731e-01
 -1.2746055e+00
  6.5863663e-01
  2.4957898e-01
  6.4081311e-01
  1.6648974e+00
  2.8900661e-02
 -1.2584100e+00
  1.0682336e+00
 -1.2889104e+00
  1.2794400e+00
 -8.7521541e-01
 -1.1355020e+00
  5.6343478e-01
  4.3823582e-01
  2.4079275e+00
 -1.4684440e+00
  7.1365744e-01
  4.3389603e-01
  6.1558253e-01
 -1.4281412e+00
 -1.5524124e+00
 -1.4847642e-01
 -3.1813556e-01
  3.8146138e-01
 -8.5783339e-01
  2.1262233e-01
 -1.4386364e+00
  2.9558113e-01
 -1.1836580e+00
  1.5121911e+00
 -1.4433908e-01
  7.3583103e-03
 -1.6125410e-03
  1.5002711e+00
  2.2206716e-03
 -4.4315157e-04
  1.0469004e-01
  2.7000616e+00
  7.6451582e-01
 -4.2579699e-01
  1.8890868e-03
  1.1768669e-03
  4.7242884e-03
  2.5183263e-03
 -3.9714035e-03
  1.2410691e-03
 -8.2043952e-01
  1.0613295e+00
  3.7864465e-02
  1.6573200e-02
  1.7403906e-03
 -1.0985662e-02
 -5.1213838e-03
  5.0383923e-03
  2.0013066e-01
 -2.2780213e+00
 -7.7663153e-01
 -3.3511865e-01
  5.1907683e-04
 -1.4326593e-04
  1.8554853e+00
  1.3094683e-02
  5.2630831e-03
  1.1023679e+00
  2.2086062e+00
  2.2244263e+00
 -1.2525920e+00
 -2.0780308e-02
 -7.2558061e-04
 -2.4327107e-01
  2.7170114e-03
 -3.0561828e-04
  4.6260427e-03
  9.0872222e-01
  5.4504738e+00
 -3.5877272e-01
  3.5245177e-01
  5.6364555e-03
 -1.4464745e-02
  2.8613009e-03
 -8.8395281e-03
  3.6740300e-01
 -1.0612534e+00
  2.7144396e-01
 -1.7511502e-01
 -3.4045956e-01
  3.9710458e-03
  5.0041306e-01
  3.1478509e-02
  1.5928963e-02
  1.9901066e-01
 -2.3030276e+00
 -4.2595688e-01
 -1.7596651e+00
  9.7977519e-03
 -3.5881761e-02
 -9.7958632e-02
  6.2071430e-03
  1.1768392e-03
  8.8393056e-01
 -9.5893878e-01
  5.4544473e-01
 -1.1117381e+00
  3.0753657e-01
  2.1307607e-04
  4.6340173e-01
 -6.2971772e-04
 -1.6603306e-03
 -2.9851374e-01
  2.1703200e-01
  2.2496219e+00
  8.1516379e-01
 -9.2905813e-01
 -4.6366011e-03
  5.1261258e-04
  2.5960023e-04
  5.1631846e-02
  2.1340892e-02
  1.3478177e+00
  7.4120474e-01
  1.5444304e+00
  3.6253011e-01
 -4.2831535e-03
  2.5921148e-01
  5.9942897e-02
 -6.5580793e-02
  3.7118192e-03
  2.8290174e+00
  1.5424702e+00
  1.9232452e+00
  4.9460929e-02
 -3.7339956e-01
  6.1084461e-01
  1.8205546e-02
  9.6968547e-02
  1.3980658e+00
  5.5437475e-02
  1.1588558e+00
 -8.5065644e-03
 -7.4880910e-01
  1.6190653e-04
  7.9229558e-01
  7.8558214e-03
  4.2809275e-01
  1.2648921e+00
  1.2668245e+00
  1.3399467e+00
 -1.7868537e+00
  3.6283149e-03
  1.0949676e-02
  1.6450131e-01
  2.1157630e-01
 -3.1206422e-03
 -2.8159299e+00
  9.9356782e-01
 -1.5635000e+00
 -1.4374974e-01
  2.2700557e-03
 -2.5490178e-03
  4.5135226e-03
 -5.5958806e-03
  1.8672473e-03
 -5.2618098e-02
 -2.4332339e-03
 -8.5036360e-02
 -6.8929405e-03
  4.9396413e-03
  1.2066538e-02
  7.3912275e-01
  3.6321588e-02
  3.4644189e-03
  1.3696718e+00
  8.5023887e-02
 -1.6812757e-01
 -4.6930778e-01
  4.0121870e-03
  4.4810036e-03
  1.4575029e-03
  2.3972237e-02
 -1.5984692e-03
 -1.2815622e+00
  6.1702169e-03
 -7.6084512e-01
  1.2774326e-02
 -4.3570660e-03
 -7.0097885e-04
  1.1227409e+00
  1.9599065e-02
  2.3069559e-04
  6.4722449e-02
  2.4512371e-03
  3.4249030e-02
  5.2781921e-04
  1.8969493e-04
  1.2063929e-03
  7.1930904e-03
  1.1381297e-02
 -4.4459885e-04
  2.2600825e+00
  7.3734677e-01
 -5.8719867e-01
  1.0486326e+00
  1.1216996e-02
 -4.2590583e-03
  4.9816158e-01
 -1.5387419e-03
 -1.9825974e-03
  1.5445517e-01
 -1.1166525e-01
 -1.9617306e+00
  6.1884794e-02
 -2.1694086e-03
 -2.3720025e-03
  3.1806919e-01
  2.5335573e-02
  6.3201954e-04
  2.3336217e+00
  6.6750771e-03
  4.3524224e-02
 -2.8890781e-02
  1.8133203e-04
 -2.1953743e-03
  2.8847325e-01
 -3.1223157e-03
  5.4572825e-04
 -2.0859288e-01
  9.9113232e-01
 -1.4864646e+00
  2.5234026e-01
  1.0917139e-02
 -2.0931081e-03
  1.6961586e-01
  1.3209432e-01
 -5.5956212e-03
 -3.7857044e-01
 -4.0505922e-01
  3.4946432e+00
 -3.7397213e-02
  1.1580786e-02
 -2.4235336e-01
  5.4638755e-01
 -4.6599656e-04
  2.7994444e-03
 -5.7984895e-01
  3.5496065e-01
  1.9230144e+00
  1.0942460e-01
  5.4495316e-03
  1.2108752e-03
  4.7878060e-01
  2.3818457e-01
  2.6032357e-03
  6.8812305e-01
  9.9800467e-01
  5.2951908e-01
  9.5926501e-02
  1.8691085e-03
 -1.7061201e-03
  1.8395440e-01
 -1.0430954e-02
 -2.9180539e-04
  8.8732198e-02
  7.1519399e-01
 -1.9772609e+00
  6.1340474e-02
  5.9974529e-03
  1.6474350e-01
 -2.5681716e-01
 -4.5393226e-03
  7.2700146e-04
  5.6894505e-01
 -1.0446442e+00
  6.1920381e-01
 -3.9079109e-01
  5.5243461e-03
  5.6081481e-05
 -1.7811064e-02
 -2.1787675e-03
  1.2443790e-02
  1.0210514e-01
 -7.1562338e-04
  4.2811520e-03
  1.8315718e-03
  2.8981210e-03
  2.8996630e-02
 -2.1701784e-01
 -9.9068480e-03
  4.8685959e-03
 -1.2474333e-01
 -1.5132360e+00
  9.2324406e-02
 -4.2758819e-02
  1.1727168e-03
  6.7305136e-03
 -9.5484197e-01
  4.2412286e-03
  3.9815425e-04
 -1.7140018e+00
 -1.0753040e-01
 -2.2491891e+00
  1.2850714e-03
  3.7593424e-04
  3.2544489e+00
 -1.0403714e-01
 -1.6630853e-03
  3.2815989e-03
  1.1478753e-03
  6.1443532e-01
  2.3814550e-01
 -2.1513069e-01
  7.6594343e-03
  2.0169802e-02
 -1.9636816e+00
 -7.1535748e-03
  4.0852902e-03
  3.7207890e-01
 -3.7559336e-01
  2.8047578e+00
 -2.3640698e-04
  4.0404201e-03
  1.5846057e-02
 -2.5740853e-01
 -5.5791764e-03
  1.8791136e-03
 -6.3817555e-01
  3.7700493e-02
  2.3460214e-01
 -3.0002347e-01
  1.3995339e-02
  3.7663099e-01
 -1.2718733e-01
 -6.8589766e-03
  5.3680502e-05
  7.3672295e-02
 -1.8600954e-01
  2.2081966e+00
  2.7953127e-02
  2.9362859e-03
 -2.3488316e-03
 -8.8682538e-01
  7.0031441e-05
 -1.0665633e-03
 -1.1867271e-01
 -5.5454618e-01
  5.4764587e-01
 -3.8767609e-01
  1.7478063e-03
  3.8264191e-01
 -2.1382742e-01
  1.6508176e-04
  5.0933314e-03
  2.9127645e-01
  1.4918613e+00
  6.0678655e-01
  9.8651499e-02
  9.9222250e-03
 -1.9929861e-03
 -7.7958238e-01
  3.6595156e-03
  3.0979055e-03
 -1.4820937e+00
  1.0517550e+00
  4.6082982e-01
 -4.2062038e-01
  1.3947912e-02
  6.7298740e-02
 -1.0414815e+00
 -2.7718970e-03
  6.0306164e-04
 -2.9112273e-01
 -2.2871886e-01
  5.2980483e-03
 -1.4697840e+00
  1.6223399e-03
  1.0695755e-02
 -4.0304360e-01
 -3.0932622e-03
  3.6888833e-03
 -2.9535437e-01
 -6.8357068e-01
  1.1555878e-02
 -7.1142739e-01
 -5.3620071e-04
  9.2479181e-01
  6.3529313e-01
  1.5059707e-03
 -2.1800988e-03
 -2.1384909e+00
  4.4395795e-01
  6.5797210e-01
  1.2187968e+00
  1.4002277e-03
 -7.7995160e-03
  3.0625578e-02
 -1.2767647e-04
 -1.6162443e-03
 -4.2109191e-03
 -2.0484754e-04
 -6.7444372e-01
 -2.6906928e-01
  9.8471600e-04
  5.1284891e-01
  1.6644172e-03
 -9.8295242e-04
 -1.0675475e-02
 -1.0800906e+00
 -2.2283757e+00
 -1.0999933e+00
 -1.0840491e+00
 -5.3827013e-03
  1.2464466e-02
  1.8201844e+00
 -3.5624749e-03
  1.3739345e-04
  1.5648023e+00
 -1.3018396e-01
 -3.0249174e+00
 -1.0386801e+00
  1.9844456e-03
  1.3022779e-02
 -1.0305808e+00
 -2.0561079e-03
  9.7995682e-04
 -5.1617221e-04
 -1.5053912e-01
 -9.4532120e-01
 -3.0427498e-01
  1.2066773e-03
  5.0179613e-01
  1.7823836e-01
  1.8233834e-03
 -1.2559087e-03
 -1.5486003e+00
  1.5366768e-02
  3.0111074e-01
 -8.6997098e-01
 -2.1135951e-03
  2.6104059e-03
  1.8240038e-02
 -3.4745636e-03
 -2.7384120e-04
 -2.5342762e-01
 -1.1543519e+00
 -1.2738172e+00
  1.1417333e+00
  6.0403515e-03
  7.3577416e-01
 -1.1115102e-01
 -1.2709538e-02
 -1.8134398e-03
 -1.3204036e+00
 -2.6990283e-01
 -1.1137308e+00
  1.1148036e+00
  9.6530735e-04
  3.2491979e-04
  3.1777397e-01
 -2.8941102e-04
 -5.2457731e-03
 -3.1951672e-01
  4.4791013e-02
  1.8114421e-01
  4.5839858e-01
  4.6035321e-03
  5.2078378e-01
 -8.0857843e-01
 -1.3860492e-03
  3.5316460e-03
 -4.9283811e-01
  1.2121608e+00
 -8.0236167e-01
  5.0971860e-01
  1.1707523e-03
  3.8862840e-04
  1.5472378e-01
  2.9116278e-03
  9.2928950e-03
 -5.7736135e-01
  5.0789022e-01
 -5.7704282e-01
  1.7533025e+00
 -1.0700545e-03
  9.4899312e-02
  6.3898259e-01
 -1.4905899e-04
 -1.9357243e-03
 -7.1791351e-01
 -9.8583692e-01
 -4.6267217e-01
  1.6806072e+00
 -8.2594407e-04
  3.5232157e-01
  2.0015252e-01
 -4.8825316e-04
 -1.4357525e-03
 -4.3857631e-01
 -8.8253820e-01
  1.8544640e-01
  7.9678190e-01
  4.2256640e-04
 -6.5380766e-04
  4.0503815e-04
  1.2280798e+00
  2.1095356e-04
 -2.6097507e+00
 -7.7026248e-01
  3.8703835e-01
  7.1642691e-01
 -4.3723406e-04
 -4.2893407e-03
  3.7628860e-04
 -2.3327975e-03
 -1.0308293e-02
 -8.4879166e-03
 -1.5429075e-01
  1.5040464e+00
  2.9243981e-03
  4.9048602e-03
  4.4517871e-03
 -3.4355610e-03
  5.6256376e-02
 -1.3493937e-03
 -5.9217161e-01
  8.8185477e-01
 -6.5910995e-01
  8.5741806e-01
  2.8136559e-04
  1.6995381e-03
  4.6909582e-03
  2.5251746e-01
  9.1983721e-04
 -1.5642991e+00
 -2.4170382e+00
  5.6554741e-01
  1.3760502e+00
  6.3595516e-03
  7.3276581e-03
 -2.2541527e-03
  2.3194481e-01
 -1.8489920e-04
 -1.0456267e-03
  6.6798483e-03
  2.5911813e-03
 -5.3586936e-01
  1.4636570e-03
  1.8590356e-03
 -5.5337267e-04
  1.1546264e+00
 -2.4972816e-03
  2.0584290e+00
  2.4044404e+00
 -1.0950304e-01
  5.2240002e-01
  2.1959404e-03
 -3.6708433e-03
  7.4754041e-03
  1.0324572e-03
  2.8034565e-03
 -7.7690288e-02
 -1.7534808e+00
  1.0017082e-01
  6.3374871e-01
  9.3433289e-03
 -3.1720677e-03
 -5.7722121e-03
  1.4816120e+00
 -3.5710029e-05
 -2.0546119e+00
  2.0278604e-01
 -2.1296270e+00
  3.0919597e-01
 -2.6007084e-04
 -5.1009548e-03
  4.0370128e-03
  7.9524435e-02
 -4.0885187e-03
  4.0336612e-01
 -1.5426739e+00
  3.1774934e-02
  4.8654324e-01
 -1.0289490e-03
 -2.3442090e-03
  1.3354593e-02
  4.6818388e-01
  1.1526309e-03
 -3.6153921e-01
 -2.8232455e+00
  1.2932376e+00
  1.6387664e-01
 -1.7612269e-03
  4.3428037e-03
 -1.4020967e+00
  7.1357632e-01
 -8.3296199e-04
 -1.1207401e+00
 -2.4512727e+00
  3.0301094e-01
  3.2233244e-01
  1.1683074e-03
 -3.8201269e-03
 -2.0165225e-03
  1.4627248e-01
  1.6793010e-03
 -6.4352624e-02
 -8.0257159e-01
 -3.1434909e-01
  3.4151807e-01
  4.6047270e-03
  6.6333278e-03
  2.9300954e-03
  5.9781080e-01
 -5.6355842e-04
  5.1892728e-01
 -6.2340951e-01
  7.8273304e-03
  8.1332788e-02
 -3.2397526e-04
  2.5180797e-04
  1.8207726e-01
  2.5033536e-03
 -1.8725630e-03
 -8.0222267e-01
  4.3488407e-01
  1.2409083e+00
 -4.2452601e-01
 -2.0389829e-02
 -2.5273045e-04
 -6.2094410e-03
  7.3824115e-03
 -2.9862809e-03
  8.6570354e-03
  1.5953612e-03
  4.4532470e-02
 -4.2318361e-04
  1.9841210e-03
 -2.4557719e-03
 -6.3327434e-03
  6.2639383e-03
 -1.5408915e-02
 -2.6847360e-01
 -7.2119915e-01
  1.9580244e+00
  4.3255520e-01
  1.8555243e-03
 -1.0969646e-03
  5.1752599e-03
  9.3078916e-04
  2.9250132e-03
  2.8634815e+00
  5.3096958e-02
  1.5355704e+00
  3.0474059e-02
 -2.9426385e-03
  2.4776100e-03
 -2.2013148e-04
 -6.6557149e-03
  4.7425836e-04
 -2.4314388e-05
 -4.2417552e-04
 -1.3420966e-03
 -2.5720112e+00
  5.9965183e-04
  5.4339581e-04
  6.8502140e-04
 -4.3127723e-03
  3.1913162e-04
  8.5008499e-04
 -7.9528368e-01
 -1.2515821e+00
 -2.4420793e-01
  2.1471023e-03
 -3.6806932e-03
 -8.7463087e-04
  3.2286015e-03
  9.3082543e-03
  8.4224784e-01
 -3.5944790e-02
  9.1706030e-02
 -6.4115787e-01
  1.2774585e-03
 -7.4252672e-04
 -1.1194594e-03
  1.7671739e-03
  9.8970183e-04
  6.5571201e-01
  3.1402373e-01
  7.4454021e-01
  6.8878341e-01
  1.9677498e-03
 -9.1031579e-06
 -1.4564691e-03
 -4.8992946e-04
  1.7745622e-03
  1.5779952e+00
  8.1096865e-02
  4.2185605e-01
  4.8125878e-01
  1.3309154e-02
  8.5274410e-04
 -2.9327734e-03
 -1.1412053e+00
 -4.0791328e-03
  4.6799788e-01
 -6.7741883e-01
  5.7570506e-02
 -8.2885498e-01
 -2.0297267e-03
  3.1971000e-03
 -1.5913710e-03
 -3.9328425e-03
  7.1028294e-04
 -6.8156007e-03
 -1.1553588e-02
  2.0155199e-01
 -5.8517951e-01
  8.7690318e-04
  7.2285533e-03
 -1.2269504e-03
  6.1729818e-04
 -4.7751879e-03
 -6.9977961e-02
  1.3270544e+00
  2.8999498e-01
 -5.2573556e-01
 -3.3492926e-03
  6.4161858e-03
  8.4507801e-03
 -4.9212012e-03
 -1.7809360e-03
  1.2739626e-01
  9.1225278e-01
 -2.1055348e-02
 -1.0429250e+00
  8.7784547e-03
  8.7784547e-03
  8.7784547e-03
  8.7784547e-03
  8.7784547e-03
  3.5116920e-01
  3.5116920e-01
  3.5116920e-01
  3.5116920e-01
  3.5116920e-01
  6.5169759e-02
  6.5169759e-02
  6.5169759e-02
  6.5169759e-02
  6.5169759e-02
  5.7214946e-02
  5.7214946e-02
  5.7214946e-02
  5.7214946e-02
  5.7214946e-02
  7.2436207e-03
  7.2436207e-03
  7.2436207e-03
  7.2436207e-03
  7.2436207e-03
  5.8097579e-02
  5.8097579e-02
  5.8097579e-02
  5.8097579e-02
  5.8097579e-02
