nep4 3 Ba Zr S 
cutoff 8 4 150 20
n_max 4 4
basis_size 12 12
l_max 4 2 0
ANN 30 0
  2.2539284e+00
 -4.6920683e-02
 -4.6826709e-02
  4.6041578e-01
 -1.3250349e+00
 -2.6252713e-02
 -6.6596359e-02
  3.0517107e-01
  1.0092866e-02
  1.2323451e-02
  9.1716468e-02
 -9.7471289e-04
 -1.6482111e-02
 -3.4241296e-02
  2.3798220e-02
 -7.5394996e-02
 -2.4721374e-01
  1.5199255e-02
 -2.6448104e-01
 -1.2808414e-02
  9.4236732e-02
  3.4419775e-02
 -1.2427804e-02
  7.4466735e-02
  1.5407780e-03
 -7.5129177e-03
  6.9816969e-04
  9.5758465e-04
  5.6497104e-02
 -3.4918427e-02
 -8.9216220e-01
 -2.6862673e-02
  1.4604069e+00
  1.1968023e+00
  4.0514443e-02
  2.0315628e-01
 -8.1940103e-01
  2.4532069e-01
  7.1045667e-02
 -7.3636547e-03
  9.0327203e-02
  2.5454390e-01
  3.0697021e-01
  1.2326691e-01
 -2.4516989e-02
 -1.2184024e-01
  2.3166536e-01
 -3.4814705e-03
  4.1174371e-02
  5.0006267e-02
  7.7415727e-02
  3.2024431e-01
  1.2581595e-02
 -1.6551744e+00
  2.9189415e-02
  4.5730971e-02
 -1.0789231e-02
  1.0124426e-02
  3.5978584e-03
  1.8417727e-02
 -2.6482340e-02
  1.6949663e-02
  3.5446066e-02
 -3.9797559e-01
  5.5934243e-02
 -3.1332800e-03
  1.7494911e-01
  2.5298155e-04
 -2.9905746e-02
 -3.1678602e-02
  1.0749418e-01
  5.3118519e-02
 -1.2712628e-01
 -4.9735997e-02
  1.2474770e-03
  1.5704051e-02
 -3.1892821e-02
 -1.2498032e-03
 -1.6109830e-02
  3.3577807e-02
 -1.3376938e-02
  2.2379009e-02
 -8.7294858e-03
  5.5969231e-02
  5.3888500e-02
 -2.9713105e-02
 -1.1766496e-01
 -5.0458502e-02
  2.1125495e-02
 -2.6371550e-02
  1.5259553e-01
 -6.0107969e-03
  1.2525243e-01
 -3.4956214e-01
  1.1375415e-01
 -4.1834366e-02
  4.7579415e-02
  6.6506881e-03
  1.3789887e-02
  5.3629939e-02
  5.1502716e-03
  6.1609969e-02
 -8.8234343e-02
  3.8866878e-02
  2.7598936e-02
 -1.2500409e-02
 -2.2048749e-01
  1.6527649e-02
 -1.6790602e-02
 -2.1650270e-03
  5.9434781e-03
  6.7659020e-02
 -5.2951530e-02
 -9.7470716e-02
  1.0249440e-02
 -1.9553564e-02
 -6.2198095e-02
 -5.9769638e-02
  4.5115475e-02
 -4.3797728e-02
 -6.7666702e-02
  2.3042719e-01
  1.0481437e+00
 -8.4355876e-02
 -3.7995091e-01
  1.2275545e-02
  3.3768046e-01
 -1.3805238e-03
 -8.2643507e-03
 -1.0759878e-01
 -8.4343463e-02
  2.2551371e-02
 -2.5208080e-01
 -6.3325599e-02
  9.1092646e-02
  1.1328512e+00
 -1.2549201e-01
 -3.1256940e-02
 -3.1598818e-02
  1.9957604e-02
  4.1518182e-02
 -1.5825363e-01
 -1.3501095e-03
 -8.8488813e-03
  6.7217149e-02
 -4.1909106e-02
  1.2929355e-01
 -3.0067243e-02
 -4.6481013e-02
 -6.6311210e-02
  1.0450135e+00
  4.4904113e-01
 -1.1450194e+00
  3.4633535e-01
 -1.6231573e-01
 -1.1080029e-02
  3.5025403e-02
 -2.8537412e-03
  4.8216370e-01
 -2.6984289e-03
 -2.3882208e-02
 -9.4014779e-03
  8.0491647e-02
  4.3508120e-02
 -4.2606417e-02
  1.8209275e-03
  2.1379790e-01
  1.4238188e-02
  1.9675934e-01
 -2.1907045e-02
 -2.0443240e-02
  6.0632989e-02
 -7.2102942e-02
  8.1544913e-02
 -9.5092468e-02
 -2.5213193e-02
 -2.3634063e-02
  2.5863839e-02
 -2.1722782e-02
 -5.5291787e-02
 -4.1533355e-02
  2.2505311e-02
  2.2818787e-02
 -2.2039577e-02
  1.1545332e-01
 -5.7341950e-03
 -2.0083422e-02
 -7.8806452e-02
 -1.3403744e-02
 -8.4367376e-03
  7.5916849e-02
  6.1937597e-02
  3.8191490e-02
  9.9538714e-02
 -2.1807009e-02
  1.1117413e-01
  1.8960088e-02
 -1.3244295e-01
  4.3451943e-02
  2.3718569e-02
 -3.1360283e-02
 -3.4415472e-02
  5.3539550e-01
  1.9758008e-06
 -3.6451399e-02
  6.4040922e-02
 -1.7529473e-02
 -5.9524053e-03
  1.0006541e-02
  5.0321881e-02
 -2.2267616e+00
 -1.9489324e-01
 -5.3999513e-02
 -1.0491178e+00
  2.3046899e+00
 -4.0645082e-02
  9.8876262e-01
 -5.2802491e-01
  2.2476945e-02
  1.9386560e-01
  1.8120956e-02
 -1.8702799e-02
 -1.3274832e-02
 -9.0973787e-03
  3.5862871e-03
  4.0505793e-02
  2.7798530e-02
 -2.3811098e-02
  1.0338198e-01
  8.7029831e-03
  4.5710586e-02
 -6.6147849e-02
  3.1672835e-02
  1.3966254e-02
  7.0350273e-03
 -5.5295616e-02
 -5.4349475e-02
 -1.6281437e-02
 -2.2478517e-02
 -4.9172286e-03
  1.1063914e+00
  1.5738744e+00
 -5.1872945e-01
  5.2973914e-01
 -7.4429297e-01
 -7.0065975e-02
 -3.1108069e-01
  3.8480815e-01
 -1.1398038e-02
  1.3880663e-01
  9.9255520e-01
  5.5173613e-02
 -4.9641632e-02
 -8.6238328e-03
  4.4721410e-02
 -6.8953566e-02
 -3.7173900e-01
  3.2639883e-02
 -1.4191872e-01
  4.4005290e-03
  5.0524123e-02
  2.3858742e-01
 -4.6806678e-02
  4.2550996e-02
 -1.3141227e-03
  4.1586146e-02
  4.8573039e-02
 -4.1316852e-02
  3.3969603e-02
 -2.6986301e-03
 -5.3505158e-01
 -4.2068042e-02
  7.8456469e-02
 -4.6386953e-02
  2.1973392e-03
  1.2478694e-02
 -1.3501754e-01
 -7.3617108e-02
  7.5930968e-02
 -3.1837570e-03
 -5.7876967e-03
  2.2142665e-02
  4.1651819e-03
  2.1859270e-01
  2.3895979e-02
 -3.1647366e-03
 -1.3903727e-02
  1.6261905e-02
  2.5976134e-02
  2.4454475e-03
 -8.0193607e-03
 -4.2829275e-02
 -2.4515931e-03
  3.1019729e-03
 -4.0272366e-02
 -3.4660604e-02
  8.9491598e-02
 -5.3591281e-03
  3.7540898e-02
  5.9200607e-02
 -1.7045928e+00
 -1.0913272e+00
  3.8415797e+00
 -9.3217450e-01
 -3.9392436e-01
 -2.9592589e-01
 -4.6153235e-01
 -1.9391401e-02
 -2.2569694e-01
  8.4509971e-03
  4.4757254e-02
  2.6734627e-03
 -1.0462732e-01
 -5.5658840e-02
  4.9607586e-02
  5.8830333e-01
  3.2547748e-01
 -2.5115063e-02
 -1.0653077e-02
 -2.1062955e-02
  1.3043284e-01
 -2.8916171e-01
  1.2439350e-02
 -4.3391302e-02
 -1.9188963e-02
  5.6362197e-02
  6.8436824e-02
 -1.7895778e-01
  1.0522713e-01
  1.1029342e-02
 -6.4904630e-02
  4.5226727e-02
 -2.2161033e-02
  7.3185772e-02
 -1.3245797e-02
 -3.2496031e-02
 -1.9736530e-03
  4.0107537e-02
  3.4011591e-02
 -1.1134032e-02
  2.3303814e-02
 -1.4852712e-02
 -3.3078589e-02
  5.1255956e-02
  4.5819532e-02
  4.8368178e-02
  3.6234327e-02
 -6.5424070e-02
  2.7062267e-02
 -2.0733764e-02
  4.0819749e-02
  4.0099747e-02
 -7.5524650e-03
 -7.7786058e-02
 -5.3478792e-02
 -6.0182251e-03
  3.4851655e-02
  5.3852443e-02
  4.3982092e-02
 -4.1978557e-02
 -3.0752501e-01
  3.2452857e-01
  5.3641547e-02
 -1.2485725e-01
  6.7616895e-02
  4.8403200e-02
  1.5585928e+00
 -9.4462141e-02
 -3.4307748e-02
 -5.9026279e-02
  6.9565796e-03
  8.4640253e-03
 -4.2771393e-01
 -3.0550977e-02
 -1.3884060e-01
  1.5385972e+00
 -1.1422672e-02
 -1.4845451e-02
  9.7064078e-03
 -6.5614231e-02
  8.0509268e-02
  5.1665738e-02
  3.3449911e-02
  2.6697665e-04
 -2.6283702e-03
  1.3205993e-02
  1.0342887e-02
 -3.5961099e-02
  1.9001042e-02
 -3.1728003e-02
  2.3841769e-03
 -6.0830172e-04
  5.8406990e-02
 -2.5360134e-01
  1.0617649e-01
  4.9827851e-02
  2.9895160e-02
  2.1929439e-02
  1.6423449e-02
 -3.6731716e-02
  5.0034299e-02
 -1.5903413e-02
 -1.4900109e-01
 -3.3679605e-02
 -8.5149944e-02
 -7.5218640e-02
 -1.4355096e-01
 -8.3878160e-02
 -1.8817447e-03
 -1.9299369e-03
  3.3185527e-02
  4.6085482e-03
  4.7886204e-03
 -1.0362969e-01
 -1.0348590e-01
  1.0718407e-02
 -4.7733948e-02
  1.0461482e-01
  6.5059289e-02
 -1.0792414e-02
 -1.4962201e-01
  3.5337981e-02
 -3.5021055e-02
  8.4765516e-03
  9.4288709e-03
 -4.4652741e-02
  2.0979583e-02
  1.4618807e-02
  5.8860622e-02
  1.1256110e-02
  4.5742542e-03
  7.8612365e-02
  2.0235743e-02
  6.3138730e-03
 -5.0369024e-02
 -6.7525223e-02
  1.8664464e-02
  5.7396360e-02
  1.7909630e-03
 -4.3509591e-02
  4.6999648e-02
 -1.4183473e-02
  7.7009477e-02
 -9.1350436e-02
  1.8237900e-02
 -4.4265237e-02
 -3.6938313e-02
  5.0691720e-03
 -5.1781401e-02
 -5.7056211e-03
  1.4405876e-01
  1.9537732e-02
  2.1420237e-01
  5.6690246e-01
  5.7028282e-01
 -1.1350390e-01
  2.3617167e-02
  3.6566935e-02
 -1.0092667e-02
  2.0228570e-02
 -1.7647104e-02
  2.1847654e-02
  3.6813620e-02
 -1.4700888e-02
  3.1448770e-02
 -9.2421286e-03
  6.7627959e-02
 -8.1120744e-02
  1.4732547e-02
 -3.4205992e-02
  4.4674937e-02
 -2.3966806e-02
  2.8458586e-02
 -6.2954180e-02
  2.7220489e-02
 -8.9997694e-02
  1.4994475e-02
  6.8043157e-02
  1.0685328e-02
  5.0583061e-02
  1.3575648e-01
 -4.6269372e-02
 -6.6206592e-01
  6.2171942e-01
  1.0538675e-01
 -1.5558020e-02
 -1.5274578e-01
  6.4434037e-02
 -1.7613998e-01
  3.8239025e-02
  2.8793834e-02
 -7.0711300e-02
  1.0434631e-01
 -8.9713722e-02
  2.1799682e-02
  7.4148513e-02
  5.6396157e-02
 -3.3799153e-02
  1.9127794e-02
  1.6053155e-02
 -1.3147651e-02
  2.0570353e-01
  9.3939919e-03
  1.4649176e-02
 -1.7750567e-01
 -1.1197670e-02
 -1.3546127e-01
  7.1733445e-02
 -2.4330607e-02
  4.9282338e-02
 -9.3020029e-02
 -1.6513819e-01
  3.6952859e-01
 -6.9082493e-04
  3.9845686e-02
 -2.9205063e-02
 -8.9600611e-01
 -4.3069158e-02
  3.7357428e-03
  2.6773516e-02
  2.3867210e-02
  2.0973135e-02
 -1.4049856e-01
 -4.6110969e-02
 -5.4388907e-02
  2.3975518e-02
 -1.4564195e-02
  1.9117167e-02
  2.7012376e-02
 -2.5528733e-02
  8.2157843e-04
  4.9397789e-02
 -5.7618868e-02
  9.3612850e-02
 -2.2242263e-02
  2.0168521e-02
  1.1899003e-02
 -2.4083979e-02
 -6.6902235e-02
  9.9748392e-03
 -2.4753720e-01
  1.1197609e-01
  2.5965354e-01
 -5.3807849e-01
  6.2832519e-02
 -7.6705493e-02
 -6.6769606e-01
 -6.7327782e-03
  5.0765388e-02
  9.7217727e-03
  5.5272546e-02
  3.8564175e-02
 -4.3978114e-02
 -1.3653636e-01
  5.1038384e-02
  1.2750679e-01
 -8.9133583e-02
 -2.1872666e-02
 -1.1126146e-02
  6.4372234e-02
 -1.1913101e-02
 -2.2435193e-01
  6.5287694e-02
  6.1220787e-03
 -3.4967057e-02
  1.1511907e-01
  1.2365393e-02
  1.2717517e-03
  6.3224849e-03
  9.6142739e-03
 -1.2778786e-01
 -1.1905435e-02
  1.6790996e-01
 -2.1169230e-02
 -1.5667433e-02
 -5.5325687e-02
  1.4380365e-02
 -1.0454431e-01
 -5.6805503e-02
  2.2623076e-01
 -1.0811759e-02
  5.8893383e-02
  4.1250143e-02
 -5.6271277e-02
  5.1132761e-02
 -4.9355105e-02
  8.2262568e-02
  5.0148170e-02
 -1.4510341e-02
  1.8753456e-02
 -4.2074464e-02
 -4.8509847e-02
 -9.0082660e-03
  9.4753277e-01
  5.0395921e-02
  3.4262355e-02
 -2.8926473e-02
  1.2153838e-02
  1.5060683e-02
 -2.9921026e-03
 -3.0274603e+00
 -3.3577464e-03
  1.1892138e-01
 -4.1537210e-02
 -1.3367245e-01
  7.9027424e-03
  6.9080805e-03
  2.6850719e-02
 -2.9046763e-02
 -6.5144725e-02
 -8.3152920e-02
  1.0078999e-01
 -4.6117235e-02
 -3.6219195e-03
  1.3750201e-02
  6.4283707e-03
  1.0499023e-01
 -1.1915563e-02
  6.6135928e-02
 -2.1857657e-02
  4.4827741e-03
  7.2631985e-02
  3.0062681e-02
  9.4573155e-02
 -3.7717339e-01
  2.5140893e-02
  1.1298195e-01
 -3.4822207e-02
 -1.6288120e-02
 -3.7438460e-02
 -9.1106938e-03
 -3.1517267e-02
  8.0735413e-03
 -1.5072454e-02
 -5.1210437e-02
 -6.3562259e-02
 -5.1338546e-02
  1.7947117e-02
  3.0636538e-02
 -2.5356662e-02
 -2.7560949e-02
  2.7724521e-02
 -2.8263982e-02
  2.4910448e-03
  4.1136350e-03
  2.9821688e-02
 -2.5509167e-03
 -3.3860430e-03
  2.9058734e-02
 -4.6425723e-03
 -2.3332257e-02
  3.2294121e-02
 -2.5696203e-02
 -1.0049120e-03
  8.7155193e-02
 -1.4991704e-02
 -4.0237714e-02
 -3.6511283e-02
 -1.4278762e-01
 -8.8569913e-03
  2.6657111e-03
 -6.9151549e-03
 -7.4663609e-02
  3.5017602e-02
 -2.0185560e-03
  5.2254353e-02
 -2.0417686e-01
 -2.8804699e-03
 -1.9382462e-03
  6.6294861e-03
 -8.5708603e-02
 -3.1079594e-03
  1.4103918e-01
  1.9959327e-02
  2.1949776e-02
 -9.9955373e-02
  7.1230628e-02
 -2.7395511e-02
 -2.5687300e-02
  4.9259815e-02
  2.6817869e-02
  5.3275488e-02
 -1.0893565e-02
 -1.7701235e-02
  6.9089003e-02
 -4.4452585e-02
 -3.8573768e-02
 -3.7568621e-02
  3.2712307e-02
  8.1141703e-02
 -1.2373806e+00
  9.7480208e-01
  3.1051034e-01
 -4.3361962e-01
  6.6093844e-03
 -1.3263070e-02
 -3.2603264e-01
 -1.1137249e-01
 -4.7811256e-03
  6.9355957e-02
 -4.2169638e-02
  1.4600617e-02
 -4.7595082e-03
 -1.2745608e-02
 -2.3417346e-02
  1.4441525e-02
 -3.6755927e-02
 -2.1325070e-02
  7.5132906e-02
  5.7130821e-02
 -3.5589412e-03
 -3.7510961e-02
 -3.0896183e-02
  9.3234163e-03
 -4.7682885e-02
  1.0180213e-02
  4.4269725e-03
  8.5076513e-03
 -7.5043917e-02
  1.7001073e-01
  3.1589454e-01
  2.9642692e-02
  4.8569810e-02
 -5.5173356e-02
  2.7929628e-01
 -1.0465506e-02
 -9.5306970e-02
 -7.6175176e-02
  1.1941218e-01
  3.0665597e-02
 -7.4343637e-02
  2.1026602e-02
 -4.4019118e-01
  7.5756304e-02
 -3.4287393e-02
 -2.2793550e-03
  2.4842843e-02
  1.3445729e-02
 -5.1811147e-03
  4.8373200e-02
 -2.9599477e-02
  1.3000693e-02
  5.5455208e-02
 -6.4199775e-02
 -2.0089701e-02
 -3.0219350e-03
  4.3463327e-02
  2.4709338e-02
  3.4707882e-02
 -1.0744750e-02
  3.1704564e-02
  3.4568939e-02
  1.4372211e+00
 -8.6374767e-03
  6.9264627e-01
  6.0177948e-02
  1.5060164e+00
  2.7605109e-03
  1.7820846e-02
 -5.2081333e-03
  7.4271942e-03
  3.0070338e-02
 -1.3694813e-02
  6.4550899e-04
 -1.1723651e-02
 -6.4221047e-02
 -8.1615254e-02
 -2.2285631e-02
  3.5156127e-02
 -2.4097355e-02
  1.8309727e-02
 -2.0792793e-02
 -6.2286921e-02
 -2.9607756e-02
 -1.8922949e-02
  5.2823775e-02
  1.3792083e-02
 -2.0304974e-02
  1.8561469e-02
 -3.8298462e-02
 -6.5370381e-02
 -2.9508583e-02
  2.0110974e-02
 -4.7309544e-02
 -5.4914903e-02
  3.7562028e-03
 -2.5010811e-02
 -3.1449847e-02
 -1.4211193e-01
 -1.5777681e-02
 -6.4702161e-02
  7.8435637e-02
  7.9214498e-03
 -1.1810228e-01
  3.8357325e-02
  1.1975684e-02
 -1.3934233e-02
  3.1177695e-03
  3.7341882e-02
 -9.3330233e-04
  8.4885485e-02
 -6.0099967e-02
 -1.0007216e-01
  2.4685830e-02
 -5.4928041e-03
 -5.3839162e-03
  5.8864579e-03
  6.4822204e-02
 -8.0345552e-03
 -5.4634042e-02
 -1.1738478e+00
 -8.6637110e-02
  4.4158995e-01
 -7.0665292e-02
  5.3914255e-01
 -5.1010126e-01
 -5.7020541e-03
  1.7069248e-03
  8.8124052e-02
 -1.4552874e-02
  1.1366489e-01
  3.0019670e-03
 -5.6458521e-01
 -1.1210416e-01
 -2.5833882e-02
  5.2332599e-02
 -1.2476610e-01
  1.2071035e-03
 -2.8961547e-02
  3.4265481e-02
  3.4707800e-02
 -5.1057819e-02
 -3.1688333e-02
  2.4503361e-02
  2.6901025e-02
 -6.1192870e-02
  6.0795564e-02
 -1.4267701e-01
 -7.1329619e-03
 -1.7311132e-02
  1.8897189e-01
  3.5870248e-01
  1.5179941e-02
 -3.0001965e+00
 -2.9736087e-01
 -5.0744110e-01
  1.9807643e-01
 -9.0486370e-02
 -1.2589954e-01
 -1.5067743e-02
  7.4206218e-02
  7.9346317e-01
 -9.0660131e-01
 -3.3766997e-01
  1.4946009e-02
  2.0301482e-01
 -2.4479870e-02
  8.8584334e-02
  1.1834730e-02
 -1.0853257e-02
  4.7953920e-03
 -1.1302317e+00
 -3.7657909e-02
 -1.6529380e-01
 -1.2732181e-01
  5.6798860e-02
  1.8634493e-03
  2.8702207e-02
 -1.1206578e-02
 -5.8760207e-02
 -6.0721260e-01
 -1.3973762e+00
  5.3434116e-01
 -1.1522090e+00
 -1.3350939e+00
 -5.6858514e-02
  3.9083604e-02
 -6.1839539e-01
 -1.0489270e-01
  8.8391639e-03
 -5.2690338e-02
 -9.1382051e-01
 -2.1156272e-01
 -3.4385271e-02
  2.4635416e-02
  5.8519069e-02
 -2.6109803e-02
 -4.7920850e-01
 -1.8707203e-02
 -5.5676017e-02
 -1.5541581e-02
 -5.8575058e-01
  9.1746366e-03
 -3.4243565e-02
 -5.4386295e-02
 -5.4337047e-02
  1.4722736e-02
 -2.8419122e-04
  5.9486426e-02
 -6.2167399e-02
 -2.1693444e-01
 -7.5892788e-01
 -4.9346110e-01
 -2.4505970e-01
 -1.2648634e+00
 -9.2816138e-01
  2.0162426e-02
  1.4940217e+00
  1.9735172e-01
 -1.5293416e+00
  6.2484348e-01
  1.8218587e-01
 -8.5855342e-02
 -4.0230297e-02
  1.7267562e-01
 -1.4038832e+00
  2.8961405e-01
 -3.9073932e-01
 -4.5478467e-02
  5.3305429e-01
  2.4790256e-01
  5.9306715e-03
  4.5939100e-01
 -3.9724622e-02
  7.7164388e-01
  1.0320307e+00
 -8.1024215e-02
  1.4697295e+00
 -1.2445890e+00
 -4.9843535e-01
  1.6349061e+00
  2.4248369e+00
 -5.0081307e-01
 -4.4245601e-01
 -2.1007309e+00
  5.2758682e-01
 -1.5386493e-02
 -5.2574879e-01
  2.3234305e+00
 -3.3355691e+00
 -1.0506197e+00
 -1.2907161e-01
 -3.2343861e-01
 -2.3468213e-01
  1.2064187e-01
 -1.1333380e+00
  6.5977722e-01
 -6.3517666e-01
 -6.7310596e-01
 -5.2310693e-01
  5.7362860e-01
 -4.1009501e-02
  3.9222065e-01
 -5.0299817e-01
 -1.4200915e+00
 -4.3820357e-01
  7.1309134e-02
 -1.1447877e+00
 -3.1272104e+00
 -1.3142979e+00
  1.2499361e+00
 -6.3731068e-01
  1.7900418e-02
  3.0013604e-02
 -1.5605043e-01
  1.5717450e-01
 -1.0432404e-02
  9.2015654e-02
 -2.1758168e-03
  6.0827506e-01
 -9.6366797e-03
  4.9817611e-02
 -3.1144824e-02
 -7.1615122e-02
 -1.6828284e-02
 -3.8576409e-02
  2.9206362e-02
  1.1646115e-01
  1.0416132e-01
 -3.9750268e-03
 -1.4876169e-02
 -9.1575190e-02
  6.6280484e-02
 -5.4079615e-02
  2.8542191e-01
 -2.2594664e-02
 -1.6882796e-02
 -8.8786492e-03
  9.6127875e-02
  7.2488310e-03
  1.4149122e-01
  2.9143270e-02
  2.1313792e-02
  9.2276111e-03
  6.5734074e-02
  1.4695639e-02
  2.0557176e-04
 -6.4114071e-03
  2.5050070e-02
 -1.2771115e-02
 -3.2075871e-02
 -1.7225703e-02
 -2.7888814e-02
 -1.2089008e-02
 -2.5063585e-03
 -1.5504028e-02
 -1.1974155e+00
  1.2601943e-02
 -2.8839126e-02
  5.0654495e-03
 -4.1546345e-02
 -5.2315127e-02
  2.5098033e-02
  7.9144780e-03
 -5.5036442e-03
  3.2346614e-02
  6.5770224e-02
  3.8317334e-02
 -1.1629174e-02
  8.4467260e-03
  6.7573965e-02
  2.1620214e-01
 -1.3428688e-01
 -1.6676411e-01
  1.0247977e-01
 -4.2701319e-01
 -5.7326451e-02
  8.9445546e-02
 -3.7590959e-03
 -3.8437045e-04
 -2.3118708e-02
 -2.2852300e-03
  1.4384246e-01
  5.2627679e-02
  7.3541991e-02
  9.7624687e-03
 -1.5053681e-02
 -2.4248457e-01
 -1.1780726e-02
 -8.1947081e-02
  4.6193741e-02
 -4.4490986e-02
 -1.1641426e-02
  3.3049537e-03
  5.4398250e-02
 -7.1116537e-03
  4.9082795e-04
  2.0955345e-03
  3.9691024e-02
 -4.3871939e-02
 -1.0245210e+00
  1.5550649e+00
 -6.9690782e-01
  4.5504556e+00
 -8.2225251e-01
  2.7086028e-01
 -6.6456133e-03
  2.7775523e-01
  3.6191938e-03
 -1.2069643e+00
  5.4417104e-03
 -4.2411141e-02
 -1.0563703e-03
  1.0790852e-01
 -1.1270992e+00
 -4.4267118e-02
 -1.2894171e-02
 -1.3900156e-01
  4.1625839e-01
  1.2844558e-01
  1.5782455e-01
  5.3625017e-02
 -6.9456232e-01
 -1.6937494e-02
 -5.1202047e-01
  3.6291557e-03
  3.5587370e-02
 -8.3374828e-02
 -1.2044597e-01
  2.8319530e-02
 -1.6379002e+00
  1.7461151e+00
 -9.9461299e-01
  2.3639464e+00
  5.7744497e-01
 -1.4278343e+00
 -2.1905110e-03
 -1.3558823e-03
  1.2757877e-01
  8.0419344e-01
 -3.7647992e-01
 -1.2815298e-01
  1.0986363e+00
  7.3733926e-01
 -5.5711246e-01
 -2.3743808e-01
 -1.5625792e-02
 -9.0744978e-01
  2.0540440e-01
 -4.2741820e-01
  8.9663625e-02
  1.5649917e-02
 -1.4985818e+00
  1.2469035e+00
 -1.2613842e-01
  5.1640633e-02
  2.1830138e-02
 -3.7934414e-01
 -5.0095502e-02
 -6.8432957e-02
  3.4227964e-02
  2.8361750e-03
  1.3895059e-01
  6.9501616e-02
 -1.5572643e-02
  2.4088593e-02
 -5.0192617e-02
  3.7531964e-02
 -3.2855097e-02
  2.5254028e-02
  3.2305606e-02
  3.5171188e-02
  8.9107687e-03
 -2.3966166e-01
 -2.6348540e-01
  1.8234223e-02
 -2.9224929e-01
  4.3030933e-02
  1.9703122e-02
  1.8288937e-01
  1.4309967e-03
 -3.8964234e-02
  2.8797057e-02
 -3.3042233e-02
  5.8996473e-02
  4.9056903e-02
 -8.6715169e-02
  7.3746711e-02
 -1.6704831e-02
  2.4766868e-02
  8.6276434e-02
  1.3972723e-01
  4.4600457e-02
 -6.8132930e-02
 -1.8852152e-02
 -4.5500882e-03
 -9.7192369e-02
 -3.1939421e-02
 -1.2672278e-01
  1.9791052e-02
  2.6278701e-02
 -6.7959388e-04
 -4.2313740e-02
 -9.1704242e-03
 -7.3995262e-02
  6.0094325e-03
 -5.1098239e-02
 -6.6663399e-02
 -2.2976287e-03
  5.5936784e-02
 -7.9277325e-03
 -1.1059312e-02
 -2.4860278e-02
  4.0508505e-02
 -1.1780785e-02
  6.8937861e-03
  7.8848094e-02
  1.2950239e-01
  2.9248632e-02
  3.4553256e-02
 -7.7119963e-03
 -4.0128460e+00
  1.1119734e-01
 -5.3521252e+00
 -1.4945969e-01
 -6.8739700e-01
 -1.8657929e-01
 -1.0602263e-01
  4.6843629e-02
 -3.2174119e-01
  6.1962105e-02
 -2.2803154e-02
 -9.2626460e-02
  2.9095409e-02
  1.1331089e+00
  7.2268480e-01
 -3.8212985e-02
 -1.2479331e-02
  8.9173494e-03
  2.5024536e-01
  4.0970463e-04
  7.1177915e-02
  1.2253587e+00
 -1.7492631e-02
  1.8061715e-01
 -8.1457011e-04
  7.1702063e-02
 -5.1456350e-01
 -1.0274728e-02
 -3.9979964e-02
  3.2757905e-03
  2.0084959e-01
  6.8007439e-02
 -1.0429317e-02
  2.2756347e-01
  2.2292117e-02
  1.8928964e-02
 -9.4657093e-02
 -3.0966526e-02
 -5.0577021e-01
  1.2786241e-02
 -6.0703587e-03
  1.1935446e-02
 -7.5278111e-02
 -3.2682858e-02
 -4.3647315e-02
 -2.7944617e-02
  3.0967044e-02
  6.0699634e-02
  1.6665553e-01
 -5.0138873e-03
 -6.6227410e-03
 -7.5726807e-01
 -3.9012390e-03
 -2.4444422e-02
  2.8010840e-03
  2.0653121e-02
  3.0819643e-02
  2.4202358e-02
 -8.3106212e-02
  2.0625682e-01
  4.9880347e-01
  3.3551555e-02
 -2.6053667e-01
 -8.4082875e-03
  2.1084877e-02
  2.0428440e-02
 -1.4235048e-02
  2.1759825e-02
 -1.7103013e-01
 -3.5365209e-02
 -6.4978637e-02
 -3.1320941e-02
  2.3551267e-03
 -2.2376234e-02
  5.3726099e-03
  1.0487824e-01
  4.5392811e-02
 -5.7153157e-03
 -8.3225526e-02
 -7.5807214e-02
  1.9237570e-02
  8.0037698e-02
  6.5285333e-02
  4.2147893e-03
  3.8180638e-02
 -2.5072025e-02
 -2.4320260e-03
  4.3202728e-02
  5.5545457e-02
  2.9429775e-02
 -4.8412092e-02
  2.3755587e-03
 -4.2949721e-02
 -4.5908904e-03
 -6.1152972e-02
 -3.8583912e-02
 -1.4573998e-03
 -1.4638372e-01
  1.1654086e-01
 -2.7126959e-03
  1.1138353e-02
 -1.9699298e-02
 -2.1795738e-02
  7.5527497e-02
  5.9267834e-02
  2.3533562e-03
 -1.6427344e-01
  8.9132618e-03
  5.2504241e-05
  1.1337666e-02
 -7.1038216e-02
  8.5702427e-03
 -4.4940330e-02
 -2.9828139e-02
 -3.3602126e-02
  8.9769192e-02
 -1.7286642e-01
  3.1219726e-02
 -9.7610177e-03
  1.6281223e+00
  5.1315045e-01
  1.8214881e-01
  1.6355214e-01
 -1.3802537e-01
  5.1496011e-01
  1.1467145e-02
 -1.1374871e-01
 -5.9294216e-02
  7.0587456e-01
 -7.6856419e-02
  4.8540071e-02
 -4.1203317e-04
 -3.6931921e-02
 -3.7804171e-01
  8.8752219e-03
  1.0038972e-02
 -3.3330717e-03
 -1.8358719e-01
  2.0141510e-02
 -6.2577449e-02
 -3.2791097e-02
  1.3420027e-01
 -7.1729734e-03
 -1.3667511e-02
  7.1586952e-02
  1.4218500e-02
 -1.2991674e-02
  2.9672626e-03
  5.7873065e-03
 -1.0829962e+00
  2.1977875e+00
  1.6425898e+00
  9.6386033e-01
 -2.0508160e-01
 -2.5664726e-01
 -2.5329599e-01
  7.0715882e-02
 -1.7977360e-01
 -3.8771193e-02
 -7.1589464e-01
  2.3493066e-03
  2.9640526e-01
  1.0974446e-01
 -1.1931007e-01
  6.1047995e-01
  3.5248968e-01
 -5.7114478e-02
 -1.2752420e-01
 -3.0402169e-01
  2.6481436e-03
  7.2765306e-02
 -3.9023343e-01
 -7.3329991e-01
 -7.5833336e-02
  3.5579704e-02
 -1.5412742e-02
 -4.9682532e-02
  1.0439187e-02
 -1.0396150e-01
  4.8905000e-02
  4.6618938e-02
 -5.1736140e-01
 -2.5167307e-02
 -7.6650500e-01
 -6.9755614e-01
 -1.2726334e-01
  1.3095331e-01
 -2.1154664e-02
 -3.4762675e-01
  6.5694451e-02
 -1.1526320e-01
 -3.9356373e-02
 -1.7401034e-02
  1.9089907e-02
 -3.0541252e-03
  1.2508462e-02
 -3.6365956e-02
  9.3935624e-02
 -6.3603610e-01
  7.7024788e-02
  2.7201865e-02
  6.0000367e-02
  2.1213312e-02
  2.6585262e-02
 -1.0730606e-02
 -6.9519140e-02
  7.2523244e-03
 -2.1316456e-03
 -3.4189407e-02
  3.1654799e-01
  1.6176151e+00
 -9.1709399e-01
 -1.9285637e+00
 -3.4281790e-01
  4.9287558e-02
 -6.2296998e-02
  6.5315650e-03
 -7.4543029e-01
 -1.3071050e-01
 -8.3141869e-01
  1.1536477e+00
 -6.8723117e-03
 -9.9104923e-01
 -1.4897068e-01
 -5.5206901e-01
  1.0246475e+00
 -4.9503726e-01
 -1.0924498e+00
  1.7257796e-01
 -2.2842105e-01
  2.1327693e-02
  9.3492799e-02
 -8.7634385e-01
  2.0018172e-01
  8.5015930e-03
 -1.2987342e-02
  3.4522943e-02
  1.0780547e-01
 -4.3228846e-02
 -1.0754508e-01
  3.6659818e-02
 -4.6193652e-02
  7.4208394e-02
 -1.3187836e-01
 -6.2479466e-02
  2.8157715e-02
  1.1696480e-03
  5.6489576e-02
 -1.1288142e-02
 -1.9375280e-01
 -5.0074212e-02
 -2.5794450e-02
 -1.9383198e-02
 -1.0009235e-02
  1.4191650e-02
  7.5835906e-02
  8.9497328e-02
  4.2139418e-02
  3.4592666e-02
 -6.6463333e-03
  2.0187709e-02
 -6.3730069e-02
  3.2560911e-02
  7.0864692e-02
  3.0040149e-02
  6.2433463e-02
  6.5951854e-02
 -3.6136530e-02
 -7.0075825e-02
  2.6722439e-02
  5.4584066e-03
  1.0157342e-02
  9.1499552e-02
 -5.1293546e-01
 -4.9119405e-02
 -7.9840012e-02
 -2.9071118e-03
  9.5460881e-03
  3.9860617e-02
 -7.1441539e-02
 -4.8785359e-03
  2.3510451e-03
 -2.3291826e-01
  4.6037696e-02
  3.1728230e-02
  5.5932172e-02
 -1.7252173e-02
 -6.1728217e-02
 -4.0670694e-03
 -1.4116701e-02
 -7.8242389e-05
  4.0782653e-02
  5.7546470e-02
 -4.2440034e-02
  6.1379503e-03
 -1.6184404e-02
  4.6187937e-02
 -1.3454962e-01
  8.7178368e-03
  3.4790754e-01
 -1.5374517e-02
  5.6009322e-01
 -2.1804833e-01
 -7.3853850e-02
  7.3805124e-01
  4.7464268e-03
 -3.3032917e-03
 -2.2776697e-02
 -9.8661965e-01
  1.2736121e-02
  1.7394330e-02
 -4.6916306e-02
 -1.9480843e-02
 -7.9600811e-02
  4.4634562e-02
  8.3705001e-02
  1.4897634e-01
  1.8583041e-02
  7.2366767e-02
 -8.7750219e-02
 -3.3943310e-02
  1.5536544e-01
 -2.9014778e-01
  6.4142747e-05
 -1.9699158e-03
  9.6966237e-02
 -1.8404130e-02
 -2.5119051e-02
 -6.5591961e-02
 -1.0426121e+00
 -1.1267540e+00
  6.4872831e-01
 -8.6727232e-02
  5.3158981e-01
 -1.6650151e-01
 -6.2283698e-02
  4.6951124e-01
  2.0537722e-01
  8.8209629e-02
  5.2579314e-01
  8.6691473e-03
  3.6379051e-01
  3.0912524e-01
 -3.1373790e-04
 -4.3217748e-01
 -6.1360169e-02
  5.4763591e-01
  1.1384822e-01
  6.3694310e-01
  3.1805690e-02
 -1.2909936e-02
 -3.7803859e-01
 -9.3270257e-02
 -1.4709419e-01
 -4.8174366e-02
 -2.7321003e-02
 -4.6986766e-02
 -2.8404547e-02
 -1.0553573e-01
 -1.6089429e-01
 -2.8810230e-01
 -6.2288082e-01
 -3.5148230e-01
 -1.1709720e+00
 -1.5856871e-02
 -6.1710700e-03
 -1.3478121e-01
 -5.2222223e-03
 -1.4349788e-02
 -4.0155202e-02
 -3.7861414e-02
  4.6352938e-02
  3.4087103e-02
  2.3171989e-02
  8.3692141e-02
 -2.3750722e-02
  6.7075975e-02
  7.3884428e-02
  2.7542371e-01
 -1.7679147e-02
 -6.1349258e-02
 -4.4161286e-02
  8.2279323e-05
  7.7033737e-03
 -3.2891735e-02
 -6.5037377e-02
 -1.0789740e-03
 -5.9324864e-02
 -1.2129323e-01
  5.6751572e-02
 -4.4653518e-03
  9.6659744e-03
 -2.3203578e-02
 -1.3034009e-02
 -5.1849805e-02
  2.9844690e-02
 -5.2500270e-02
  2.6034374e-02
 -4.3502789e-02
  3.9796263e-02
  4.8819732e-02
 -3.2287892e-03
 -3.6263436e-02
 -8.5956464e-04
 -1.9873878e-02
 -5.7026472e-02
 -1.6905767e-01
 -6.1952971e-02
 -9.6830837e-03
 -1.6130812e-02
 -2.2755001e-02
  3.2649595e-02
 -1.1638987e-02
  1.3490908e-02
  1.6940346e-01
  6.5947399e-03
  1.9808788e-02
  9.0927063e-03
 -2.4943117e-02
  7.0658326e-01
 -5.5207026e-01
  2.9120969e-03
  1.3965663e+00
  1.1518688e+00
  2.1165514e-02
 -6.0138293e-04
  2.2019364e-01
  2.0576594e-04
  1.8776789e-02
 -7.4383445e-02
 -2.5623658e-01
 -3.3290878e-01
 -1.2907210e-01
 -3.7560302e-01
 -2.3756460e-03
  5.9780508e-02
  1.9021410e-01
  1.6024876e-01
 -5.9039772e-01
 -3.3698995e-02
 -3.3843268e-02
  1.5288889e-02
 -4.3553255e-02
  3.1191203e-01
 -1.9846372e-02
 -2.6592493e-02
  2.6545195e-02
  3.0515369e-02
  4.7716293e-02
 -6.6170603e-01
 -1.3724764e-01
 -1.0934232e+00
 -3.5817811e+00
  2.2503735e-01
  1.2787251e+00
 -3.8082349e-01
 -3.0824280e-01
 -6.5837115e-01
  3.9678529e-02
  3.9275196e-01
  2.9937164e-03
  6.2241846e-01
  6.6808060e-02
  3.5946202e-01
  4.4691846e-01
 -1.4894740e-01
  1.4373820e+00
  4.8799655e-01
 -5.9813017e-01
  2.0767678e-01
  1.5748806e-02
 -1.4630087e-01
  2.7385328e+00
  1.9583210e+00
 -4.0548019e-02
  1.6830680e-01
 -2.5494192e-02
  4.9187809e-02
 -6.9291845e-02
  1.3243041e+00
 -3.7761331e-01
  7.5996280e-01
 -1.5015459e-02
 -7.2906935e-01
  1.8781509e-02
 -3.6458876e-02
  3.9638937e-03
 -9.9108696e-02
  4.7040936e-02
 -3.8573980e-02
  2.0160265e-02
  1.6798351e-02
  1.7704144e-02
  1.7287683e-02
  4.4482615e-02
  9.1980480e-02
 -1.5559967e-01
  4.5535782e-01
 -1.1434951e-01
  3.9527826e-02
 -1.3018512e-02
  1.4452907e-02
  2.2403741e-02
 -3.6781706e-02
  2.1098731e-02
  5.3391673e-02
 -4.1559488e-02
 -1.7805152e-02
 -1.5620255e-02
 -1.9482102e+00
 -1.2405598e+00
 -1.6466246e+00
  2.1699883e-01
  2.5630322e+00
  1.1064661e-01
  4.0002700e-02
  2.6152048e-01
  1.7624034e-01
 -1.4486280e-01
 -2.3007132e-03
  1.8807627e-02
  1.6055647e-01
  1.3314327e+00
  7.7670747e-01
  2.1003397e-01
 -5.1191747e-02
 -5.6834114e-01
 -8.0461800e-01
  1.9658193e-01
 -5.2758053e-02
 -4.4892501e-02
  3.2866177e-01
  9.8504521e-02
  9.0559706e-02
 -1.2194758e-02
  5.2941265e-03
 -3.7582479e-02
 -3.6479149e-02
  4.3720443e-02
  1.0262127e+00
  9.2963237e-01
  5.0254531e-02
 -2.0795226e-02
  5.1940326e-05
  5.4217689e-02
  1.6343869e-01
 -2.8050840e-01
 -5.6333728e-03
 -4.9480104e-01
 -3.6303401e-02
 -6.9525316e-03
 -9.9765152e-02
 -7.0484839e-02
 -2.8107759e-02
 -2.2443864e-02
  1.1455236e-02
  1.9281246e-02
  6.3219056e-02
  8.8489836e-04
 -2.2782620e-02
 -2.5630392e-02
  4.3751914e-02
  7.9549052e-02
  3.7697513e-02
  1.0793182e-01
 -2.8878368e-02
 -1.7942155e-02
 -3.1838831e-02
 -3.3607408e-02
 -2.0287180e-01
  2.3830912e+00
 -7.7797580e-03
 -7.7578589e-02
 -8.5194878e-02
  9.3842417e-02
 -5.0393954e-02
 -3.2288771e-02
  1.2223869e-02
  7.6341882e-02
 -1.2698924e-02
  1.8621157e-01
  1.5752897e-01
  6.9999173e-02
  2.8798066e-02
 -3.4130983e-02
 -3.7961233e-02
 -1.1610128e-03
 -1.5104869e-03
 -2.9818036e-02
 -1.0398116e-02
  9.0567078e-03
 -6.9252253e-02
  9.6092029e-03
  7.0913427e-02
 -1.3669077e-02
  3.4085009e-02
 -5.0489113e-02
  7.5971343e-02
 -6.8898997e-03
 -1.5389776e-01
  1.8879503e-02
  1.5653782e-03
 -8.5938483e-02
 -2.8671712e-02
  2.0346692e-01
  5.7795197e-03
  7.1364678e-02
  7.5513870e-02
  5.4845870e-02
 -4.9323808e-02
  9.8848790e-03
  1.7929647e-02
  9.5416509e-02
  1.1379084e-02
 -3.3015229e-02
 -8.9836977e-03
  3.5752349e-02
  1.0261044e-02
  3.0424888e-03
  1.3682917e-01
  2.8661523e-02
  4.9517057e-03
  6.9357827e-03
 -1.2696624e-02
 -5.9632897e-02
  7.5532272e-03
 -8.1994347e-02
 -2.7695609e-02
  1.5797896e-02
 -4.3106563e-02
  3.0552424e-02
  3.3860411e-02
 -2.9378701e-02
 -2.7694732e-02
 -5.9751127e-02
 -6.4767852e-02
 -8.7462068e-02
  3.6789570e-02
 -2.4527745e-02
  1.1211520e-02
  1.3354702e-02
 -6.3723929e-02
 -2.8752474e-02
  1.6051354e-02
 -2.3534775e-01
 -1.6279889e-02
 -1.0558655e-03
  1.4911151e-02
 -5.7718791e-02
 -1.3791118e-03
 -3.0678205e-02
 -1.9717425e-02
 -1.0568674e-01
 -5.7894345e-02
 -1.9977307e-01
 -1.4108997e-02
  5.0272286e-02
  5.6014095e-02
  2.3225131e-02
 -7.8484258e-03
  2.4612844e-02
  2.9481750e-02
 -3.3956479e-02
 -1.3449703e-01
  3.9440524e-03
 -6.2988764e-03
 -9.3754895e-02
  2.4631612e-02
 -4.2900316e-02
 -9.3291990e-02
 -9.1086954e-02
 -3.1051287e-02
 -8.1416480e-02
  8.8667395e-03
 -1.4931795e-02
 -8.8642947e-03
  1.6036199e-02
  2.0261209e-02
  3.7037790e-02
 -2.2325138e-02
 -4.8156001e-02
 -6.0247269e-02
  4.3470398e-02
  2.9747332e-02
  1.2437260e-02
 -1.7758435e-01
  1.5566926e-02
  3.4783103e-02
 -7.1743652e-02
 -1.1570926e-01
 -2.3255236e-02
  4.1353601e-01
 -2.5950799e-02
 -2.5154772e-01
 -5.3484440e-01
  2.3533871e-02
  1.7897514e+00
 -1.3961170e+00
  2.0283437e-01
 -3.9567988e-02
  1.4246393e+00
 -1.8160887e+00
 -1.0914936e+00
 -1.2144289e+00
  2.3170298e-01
  5.1788382e-02
 -3.5993868e-01
 -5.3307104e-01
  4.7642452e-01
  8.7319184e-03
  8.2687676e-02
  3.4916607e-01
  2.0292571e-02
  3.5311905e-01
  3.4881693e-01
  4.8120558e-02
  6.3183889e-02
  3.0359866e-02
 -1.4864089e-03
 -8.4434372e-01
 -2.2437514e-01
  7.4863511e-01
  1.6367031e+00
  2.7969661e+00
 -7.2539592e-01
 -7.7193126e-02
  9.9776268e-01
 -1.7104093e+00
 -2.8483483e-01
  6.4657833e-03
 -1.5960186e+00
 -1.3759519e+00
  7.8585446e-01
 -2.1581428e+00
 -2.8058690e-01
 -2.5051907e-02
 -5.9693974e-01
  1.0928847e+00
  9.5264196e-01
 -3.0264875e-02
 -1.1163455e+00
  1.7489059e+00
 -6.2507945e-01
  1.1122704e+00
 -5.7595152e-01
  4.6066919e-01
  2.6122389e-02
  1.0188720e-01
 -2.9496321e-01
  4.2882197e-02
  1.6860198e-02
 -1.9136015e-02
 -7.5157002e-02
  2.9868711e-02
  9.2083812e-03
  4.0998802e-02
  9.7902998e-02
 -5.2626901e-03
 -1.0045277e-01
  5.0583392e-02
 -6.2689334e-03
 -1.1602016e-01
  1.2434619e-01
  1.2649292e-01
  5.5528972e-03
  2.0064196e-02
  7.7227123e-02
  2.7886052e-02
 -1.3486814e-02
 -3.9872028e-02
  8.5100055e-02
  3.4518629e-02
  5.0124850e-02
  1.1078545e-02
  6.5294251e-02
  3.1464022e-02
  7.1101889e-02
  3.2525355e-01
  2.8374884e-02
  4.0738180e-01
  6.0186960e-02
  1.9022191e-01
 -1.0242663e-01
  4.0414849e-01
  2.8341138e-01
 -6.2282681e-02
 -2.7136452e-02
  7.7746505e-01
 -1.6931885e-01
  2.0266515e-01
 -5.5781126e-02
  4.1417965e-01
 -1.2876441e-02
  1.5299745e-01
 -5.7871905e-03
 -2.7455516e-02
 -3.5460442e-01
  1.3328556e-02
 -3.3779321e-03
 -6.4116426e-02
 -1.4557526e-02
  1.6673360e-02
 -1.7147753e-01
  1.5334995e-02
  1.0074978e+00
 -8.9903645e-02
  2.5332607e-02
  4.7881298e-02
 -8.1939220e-02
  6.6655740e-02
  7.2464012e-03
 -3.9125420e-02
  2.9530169e-03
 -4.4244565e-02
  5.9185050e-02
 -2.1192577e-02
  3.7733866e-03
 -2.9110622e-02
  3.3527520e-02
  1.0295353e-02
 -1.1090952e-03
  3.9854585e-03
 -6.8248764e-02
 -5.7351418e-02
  3.6634561e-02
  1.9443883e-02
  9.7040974e-02
  1.0596213e-01
 -2.0794746e-02
 -3.2681566e-02
  5.9669301e-02
 -1.7900258e-02
 -5.5466600e-02
 -1.2127634e-02
  8.3998777e-02
 -8.3715552e-03
  6.0855716e-02
 -7.0480201e-03
 -1.1470495e-02
  1.2637205e-01
 -2.3627520e-02
 -7.2761938e-02
 -7.3580849e-03
 -1.9513240e-01
 -1.5748625e-01
 -2.7271960e-02
 -9.8279119e-02
 -8.4768571e-02
 -1.7911814e-01
  4.4744954e-02
  8.7731844e-03
  2.8057987e-02
  9.3993920e-01
  3.2071948e-02
 -7.0322827e-02
 -3.2618064e-01
  7.7360757e-02
 -9.0118609e-03
 -4.4296574e-02
 -2.7569273e-04
 -4.6055090e-02
 -2.3932857e-03
 -1.8997386e-01
 -7.8729796e-01
 -3.9454494e-02
 -2.8408330e-02
  1.3877910e-03
  1.3536908e-01
 -3.0349018e-02
 -1.4120120e-01
  1.9738554e+00
 -1.0955091e+00
 -3.7007830e+00
  1.2942156e+00
  7.9748851e-01
 -6.6374069e-01
 -6.3000554e-01
 -3.1237367e-01
  1.4996482e+00
  6.5540694e-02
  2.1904598e-01
  5.4735458e-01
 -5.7464898e-01
  1.0348072e-01
  2.2839887e-02
 -2.3768317e-02
 -1.0152771e-01
  8.8219881e-01
 -6.9942869e-02
 -4.7231562e-02
  1.9692134e-02
  4.6121410e-01
  6.3980484e-01
  2.5497773e-01
  9.0394914e-02
 -7.7374600e-02
  3.8293621e-01
  3.0440509e-01
  3.2654341e-02
 -3.1443286e-01
 -2.0692135e-01
  4.0333543e-02
  5.3975999e-02
  1.4757343e-01
  5.2627081e-01
 -1.6032230e-02
  7.3716074e-02
 -2.1415239e-02
  3.6434695e-02
  4.0455833e-02
 -6.0669303e-02
 -3.3301305e-02
  5.7486284e-01
 -8.7439373e-02
  3.9403472e-02
  6.9289291e-03
  1.8306065e-01
  5.2455444e-02
  2.4019033e-01
  4.7820196e-02
  4.1033026e-02
  6.9906361e-02
 -1.0317843e+00
 -4.6501070e-02
 -9.6968032e-02
 -5.1608942e-02
  6.1884960e-03
  4.7353941e-01
 -2.2631047e-02
 -1.2204641e+00
  3.4176536e+00
 -2.0070393e+00
 -4.1316569e-01
  4.4652805e+00
  7.0843172e-01
 -3.3341300e-01
  8.1760830e-01
  2.7389002e-01
  1.0766344e+00
  1.5977309e+00
  3.3879486e-01
  2.2047017e+00
 -4.3713677e-01
  2.9007263e+00
  2.0109800e-01
  6.9066688e-02
 -8.1011391e-01
  8.4094596e-01
  2.1569238e+00
 -7.3309737e-01
  1.1734728e+00
 -1.7615519e+00
 -1.6077132e+00
 -1.1239957e+00
 -5.8626777e-01
  7.2024548e-01
  9.1663651e-02
 -7.3675328e-01
 -2.1033241e-01
  1.3967927e+00
  1.6249799e+00
 -6.3205563e-02
 -5.3044027e-01
 -1.0484667e+00
 -5.6794737e-02
 -1.4641942e+00
 -3.2141772e-01
  1.9940810e-01
 -3.6367953e-01
  7.7523805e-02
  3.6242787e-02
 -1.7736590e+00
 -4.5736220e-01
  1.4046501e-01
 -6.1708748e-01
  8.3284736e-02
 -9.2424899e-01
 -1.1515067e+00
 -1.3519454e-01
 -7.2278045e-02
 -5.9684526e-02
 -2.7006504e-01
 -2.3657227e+00
  9.6287951e-03
  3.0359445e-02
 -1.1130176e-01
  1.5383998e-01
  3.4088737e-03
 -8.3175302e-03
  7.3033534e-02
  5.9981178e-03
 -1.5129159e-01
 -6.6957459e-02
 -2.4311583e-02
 -1.9621074e-02
  9.1754094e-02
  1.9272774e-02
  8.6087115e-02
 -3.5986312e-02
 -7.4280240e-03
 -1.2185308e-03
 -5.3592594e-03
  4.6185616e-02
  4.2356364e-02
 -6.7619525e-02
  6.6051006e-02
  9.2313558e-02
 -6.6954412e-02
  1.9754190e-03
  1.8817191e-01
  6.4231176e-03
  2.4472093e-02
 -8.4398665e-02
  4.8603721e-02
  1.0074827e-01
  4.1615013e-02
  2.8990703e-02
 -1.0554731e-02
 -2.7084429e-02
 -1.0994291e+00
  1.0497442e+00
 -1.5595518e+00
  1.7236115e-01
 -1.2549629e+00
 -8.3560653e-02
 -1.7946699e+00
  1.2022769e+00
 -2.9082874e-02
 -1.9178766e-01
  9.9854845e-01
 -4.8016825e-01
  1.0791174e+00
 -3.1662254e+00
  1.6663730e-01
 -2.9835531e-01
  8.6206484e-01
 -4.5103297e-01
  2.6571894e-01
 -7.7091992e-01
  5.8293575e-03
 -1.1569489e-02
 -2.1105370e-02
 -5.9868258e-01
 -3.6231127e-01
  5.1817065e-01
 -2.6562382e-03
  1.6636790e-01
 -4.2169636e-01
 -2.3343873e-01
  2.5874250e-02
 -3.7555996e-02
 -2.2409014e-02
 -1.6635662e-03
 -7.6852381e-02
 -1.4564294e-01
 -4.6358202e-02
  4.4026025e-02
  1.5027478e-02
 -4.9203694e-02
  4.8216496e-02
 -8.6820334e-02
  1.8106764e-02
 -4.6473149e-02
 -3.7137926e-02
 -8.2759120e-02
 -4.7670837e-02
 -3.3044419e-03
 -6.5025806e-02
  3.9874934e-02
 -2.0426044e-02
 -3.0761689e-02
 -7.7249883e-03
 -3.4733299e-02
 -5.3404965e-02
 -3.3902593e-02
 -1.2429085e+00
 -2.0501984e-02
 -5.8959786e-02
 -2.3953224e-02
 -6.4928129e-02
  1.0913417e-01
 -6.9140261e-03
  2.2401009e-02
 -9.8503560e-02
  1.9009933e-02
 -5.2535605e-02
  4.3705836e-02
 -4.6814477e-01
 -6.2456095e-01
  2.1949343e-02
  3.0377448e-02
  7.6581505e-03
 -2.7156861e-02
 -1.9491900e-02
  1.3133483e-01
 -8.2798295e-02
 -2.7835194e-02
 -1.8418658e-01
  9.7561153e-03
 -1.6935881e-02
  1.0136812e-02
 -1.0031338e-01
 -6.7572370e-02
 -4.8700632e-03
 -5.7812870e-02
 -3.7103109e-02
  3.5054382e-02
 -5.1351916e-02
 -2.0711031e-04
  2.8780073e-01
 -1.2238516e-01
  5.7147011e-02
  1.3326336e-02
 -8.7010808e-02
 -1.5446171e-01
  9.4730340e-02
 -2.3325771e-02
  8.4962112e-01
  7.9001822e-03
 -2.9135268e-02
  2.5915441e-01
 -6.7640252e-02
  2.0103085e-01
 -2.1751824e-01
  1.9947255e-02
 -9.4586983e-04
  9.4758314e-01
  2.1075558e-02
  6.5974682e-03
 -2.8072359e-02
  8.1925867e-03
  2.8348351e-01
  2.0091970e-01
  3.7901923e-02
 -1.9947219e-01
  1.4361432e-02
 -1.1402133e-02
  7.6686934e-02
 -2.3828581e-02
  1.1430771e-01
  1.1581369e-01
  8.0860248e-03
  6.1329465e-02
 -5.3265527e-02
 -4.0694736e-02
  8.7669030e-02
 -6.1301589e-03
  2.2609128e-02
  1.0052357e-01
 -2.6113973e-03
  5.0376199e-02
 -1.2891113e-02
 -5.0977860e-02
  5.2660978e-03
  1.5083365e-02
  4.0321816e-02
 -1.1285681e-02
 -1.1418303e-03
  1.1078473e-03
  1.5243888e-04
 -3.5794340e-03
  2.2377865e-02
  5.1687220e-03
 -3.5634462e-02
  2.4991259e-02
 -3.2047160e-02
  7.9134509e-02
  5.6689036e-01
  6.1982706e-02
  5.5592448e-02
 -4.3851987e-02
  2.3019427e-02
  5.0080389e-02
 -1.2054706e-01
  5.3095031e-03
 -1.5697924e-02
  2.3043812e-03
  5.1956072e-02
  2.9344629e-02
 -2.6559719e-01
  7.7730408e-03
  4.0257532e-02
 -1.6375054e-02
  2.2135517e-02
 -4.6242531e-02
 -2.0738481e-02
 -3.4090251e-02
  1.0337049e-01
 -2.8138112e-02
  9.3469709e-02
 -8.9068338e-03
  2.8768502e-02
  9.6941739e-02
 -3.9798748e-03
  1.3607438e-01
  9.5197350e-02
 -4.4474844e-02
 -1.3548374e-02
  4.2619794e-03
 -4.0672909e-02
 -6.1906815e-02
  9.2117265e-02
 -2.4168568e-02
  3.3688787e-02
 -2.6765442e-01
  2.7555224e-02
  1.2399942e-01
  1.2813078e-01
  1.5144748e-02
  4.4474196e-02
  2.5886497e-02
 -5.8289506e-02
 -2.8822850e-02
 -6.4512692e-02
  8.8580057e-02
  7.4726984e-02
  1.8536080e-02
  8.1523739e-02
 -5.1867858e-02
  1.2737661e-02
  4.7880746e-02
  7.1486525e-02
  2.1528953e-01
  1.1410652e-01
 -7.6091764e-03
  9.9270381e-02
  1.1990971e-02
 -1.3861810e-01
  7.6288447e-02
 -1.0776880e+00
 -7.8914589e-01
  5.2088356e-01
 -1.6612262e-03
  2.8381121e-01
  1.2926655e+00
 -1.8836528e-02
  2.1970902e-01
  2.3980986e-01
  7.9494782e-02
  1.7924159e+00
 -5.4763732e-03
 -2.8490263e-01
  6.0968512e-01
  7.7378535e-01
 -6.4668864e-02
 -3.9632104e-02
  7.2748464e-01
  2.7321595e-01
  4.0861276e-01
  6.5621965e-02
  2.9364684e-01
  5.2292973e-01
  4.7549784e-02
  2.0044903e-01
  9.8229513e-02
 -1.9212617e-02
 -2.0557602e-01
 -3.6001764e-04
  2.1331610e-01
 -1.1249895e+00
  2.2185601e-01
  6.3326132e-01
  6.6712511e-01
  9.8026526e-01
 -2.0808209e-01
  5.9843534e-01
  7.1251601e-02
 -9.7084415e-01
  7.8730363e-01
  1.7285973e-02
 -3.4959993e-01
 -1.0348827e+00
 -1.8807191e+00
 -8.1646889e-01
 -8.2330245e-01
  6.8188153e-02
 -9.5940679e-02
  3.9200198e-02
  1.4931364e+00
  8.0869131e-02
 -1.1334111e-01
 -1.4241720e+00
 -1.3200301e+00
 -2.2996026e-01
 -7.3172919e-02
  8.6044274e-02
 -3.6933231e-01
  3.8771492e-01
 -3.7249014e-02
  1.4030595e-01
  4.3882810e-02
 -2.1976002e-02
 -3.6544602e-02
 -1.2665886e-01
  6.8904325e-02
  3.4650087e-03
 -2.6962442e-02
 -3.3647646e-03
  3.2175925e-02
 -3.8571555e-02
  8.8430820e-03
  4.4686615e-02
 -4.2592298e-02
  2.8354898e-03
 -4.6495814e-02
 -2.4964292e-02
 -6.6856630e-02
  3.6134552e-02
  4.1377552e-02
 -6.7825690e-02
  1.9387346e-02
 -4.8843257e-02
 -2.1325627e-02
  5.5049829e-02
  2.4560912e-02
  7.9519570e-02
 -7.0283096e-03
  4.6158265e-02
 -1.6824065e-02
 -1.5148150e+00
 -1.1913122e+00
 -1.6605645e+00
  1.1796316e-01
 -1.6893810e+00
 -3.0121115e-01
 -4.7327325e-01
 -1.0986468e+00
 -1.5854453e+00
 -7.7264601e-01
 -8.8355906e-02
  7.4853808e-02
  3.8881937e-01
 -1.1035849e+00
 -3.4566589e-02
 -1.3313435e-01
 -4.5306399e-02
 -2.0355046e-01
 -1.0281689e+00
 -4.2970445e-02
 -1.4965226e-01
 -6.7931963e-03
 -2.3539844e-03
 -5.4182239e-02
 -1.0954672e-01
 -3.2333161e-03
  2.6566166e-02
 -4.4899967e-02
 -2.8380272e-01
  3.6323234e-02
  9.1870737e-01
 -8.8521683e-01
  3.7841448e-03
  5.3578502e-01
 -8.9485949e-01
  3.1767768e-01
  4.2456288e-02
  2.4443970e+00
 -1.0531634e+00
 -1.2739151e+00
  1.6621455e+00
 -8.6269237e-02
 -1.1793778e+00
 -7.8696281e-01
  4.5734772e-01
 -1.1314029e-01
  1.4888234e-02
  3.8166082e-01
 -5.8693963e-01
 -4.3468627e-01
 -1.4520421e+00
 -3.1992784e-01
 -1.7055706e+00
 -1.9383207e-02
 -2.8250095e-01
  3.3954743e-01
  1.9268498e-01
  1.0041596e+00
  1.5706434e+00
  4.6815172e-02
 -1.2879528e-01
 -2.3978944e-01
 -7.6883480e-02
  4.2469531e-02
  1.6834521e-01
  1.6642433e-02
  1.5866001e-01
  3.8342930e-02
 -1.8908586e-02
  3.6800227e-01
 -3.8894632e-01
 -1.4490167e-02
 -2.4866715e-01
  2.1483591e-03
  3.4820954e-03
  2.5054890e-01
  1.3465135e-02
  1.1089988e+00
  1.2404211e-03
 -1.4908138e-01
 -4.2232379e-02
 -4.6853736e-02
 -1.5597093e-02
  1.5465060e-01
  2.8373200e-02
 -2.7856769e-02
 -5.7150129e-02
 -4.9046315e-02
  6.1147260e-03
  2.3449253e-02
 -4.3284745e+00
 -1.3341626e+00
  2.4191854e+00
 -5.7000947e+00
  8.9354360e-01
 -1.9544694e-03
  2.2865560e-02
  8.0161345e-01
 -1.0871420e-01
 -8.1412876e-01
 -5.4721278e-01
  1.5056704e-02
  2.1729037e-01
  8.2257062e-01
 -6.4494401e-01
 -1.7564999e-01
 -3.1096092e-01
  8.8315374e-01
 -1.4904078e+00
 -6.6848987e-01
  8.9308903e-02
 -4.0388532e-02
  6.4074516e-01
  7.5805950e-01
  1.0237712e+00
 -8.9487337e-02
  1.9063557e-02
  8.8098265e-02
 -1.0845506e+00
  5.2169405e-02
  3.0676618e-02
  3.1473601e-01
 -1.8656820e-01
 -2.3760865e-02
 -1.0478438e-01
 -1.4138327e-02
 -7.3226452e-02
 -5.0051551e-02
 -1.8866137e-01
 -3.7201535e-02
  1.2132859e-01
  4.3989673e-02
  3.7995327e-02
 -4.0733594e-02
  2.4125367e-02
 -5.2025512e-02
 -1.1069501e-01
  5.3826016e-03
  1.7784193e-02
  7.1235955e-02
  1.2682381e-02
  3.6488017e-03
 -1.3700040e-02
 -3.2045144e-01
 -6.1076637e-02
 -2.4122054e-02
 -1.3032637e-02
  4.6881240e-02
  5.9675878e-01
  2.8352201e-01
  9.9434119e-01
 -9.8080879e-01
 -3.6906400e-01
  1.7096281e-01
 -1.3778490e+00
  7.8401095e-01
 -6.6464192e-01
  8.5227817e-01
  6.0002816e-01
 -4.3263298e-01
  3.8082603e-01
 -2.1704282e-01
  9.0585917e-01
  3.3681598e-01
  9.4486251e-03
  2.0366453e-01
 -6.9320491e-03
  7.9070127e-01
 -1.2288383e+00
  3.2128116e-01
 -9.9727362e-03
  4.5613550e-02
  2.0843384e-01
  8.2793534e-03
  4.9445835e-01
  1.4961326e-02
  1.3112624e-03
  1.4853981e-01
 -3.5869656e-03
  6.6515412e-03
 -1.1757837e-01
  3.0869488e-02
  1.3361640e-02
  4.5484830e-02
  2.5877042e-02
 -2.8037537e-02
  2.5865568e-02
 -6.6268444e-04
  2.2414768e-02
 -2.0301709e-02
  3.2024302e-02
  8.6837560e-02
  1.3634768e-01
 -1.3132330e-02
  6.2469527e-02
  1.2309101e-01
 -7.9270199e-02
  3.6647156e-02
 -4.6330221e-02
 -5.9739570e-03
  1.7957183e-02
  5.7768870e-02
  7.6669347e-03
 -8.8392626e-03
  2.7313473e-02
 -1.0168213e-02
 -3.1523589e-02
  6.8818912e-02
  1.2958774e-01
  5.2882157e-02
 -2.8472230e+00
  2.7168596e+00
  1.9839592e-01
  3.9258416e+00
 -6.6459686e-01
  8.8392340e-02
 -1.3717642e+00
  1.7945513e-02
 -1.7832151e-01
  6.9568789e-01
  8.8035524e-01
 -1.6249308e-01
  3.0416768e+00
  8.2887411e-01
  2.8007215e-01
 -7.3446476e-01
  1.0426279e+00
  7.9297948e-01
  6.1302209e-01
 -5.3502675e-02
  1.4994252e-01
 -1.6173793e-02
 -3.8694151e-02
  5.3743321e-01
  1.7015882e-01
  3.9889336e-01
  1.5470227e-02
  7.5620219e-02
  6.1349899e-01
  1.3335001e-01
 -3.1637611e+00
  7.5230412e-03
  1.2014171e+00
 -1.5749900e-02
  3.0271012e-01
  3.2007755e-03
 -1.8144559e-02
  1.8646726e-02
  2.2444417e-01
 -8.7432656e-04
  9.6954226e-02
 -5.8068827e-02
  2.6238900e-02
  9.5001638e-02
  3.2366806e-01
  2.1014474e-01
  1.6041854e-02
 -2.3954224e-02
  8.4251352e-02
  1.1577878e-02
 -2.4980536e-02
  7.4570188e-03
  2.6156798e-01
 -3.8999445e-03
 -4.0669866e-02
  5.3544339e-02
  3.6570724e-02
  3.4095640e-03
  2.6348865e-01
 -4.3844458e-02
  1.7080010e-01
 -2.2657346e-02
 -3.9959416e-02
 -1.1606725e-01
 -9.8849088e-04
  1.0476631e-02
  9.8570874e-03
 -4.9292453e-02
 -1.2274480e-01
 -3.5513218e-02
 -8.1018265e-03
 -8.5747652e-03
  5.8077179e-02
 -1.3114687e-03
  2.1418981e-02
  4.0186845e-02
 -1.8259607e-02
  1.2562249e-03
  1.8174411e-03
  9.2156604e-02
 -2.6927269e-01
 -1.3322019e-02
  1.1596556e-03
  1.2141367e-02
  5.3014625e-02
  1.3683762e-01
  6.6238277e-02
  3.5088886e-02
 -1.4584837e-03
 -3.1588923e-02
 -5.4559475e-01
  1.2065442e+00
  9.6500742e-01
 -5.2328879e-01
 -5.0675176e-02
  4.9314871e-01
  7.9225248e-01
  5.4232788e-01
  8.6786997e-01
 -7.7086234e-01
  1.7232839e-02
 -2.6090255e+00
 -1.4331752e+00
 -3.9384273e-01
 -7.5668854e-01
  2.1949568e-01
  7.1726471e-01
 -3.2527536e-01
 -2.1807170e+00
 -6.9394118e-01
 -6.1173378e-03
 -5.9945953e-01
 -1.2225317e+00
 -1.6267998e+00
 -4.8878980e-01
  1.4670493e-02
  6.4614870e-02
  5.4269726e-03
  1.8079355e-01
 -1.1686100e-02
 -4.8885327e-03
  1.7062711e+00
  1.2776342e-01
 -2.6004534e-02
  1.6416390e+00
 -6.9214964e-01
  2.0318194e-01
  9.7697437e-02
 -1.0855180e+00
 -4.3581986e-01
 -8.7726450e-01
 -7.7091560e-02
  1.0755529e+00
 -9.2326933e-01
 -8.7865796e-03
  1.1655893e-02
 -9.8750414e-03
  3.0038401e-01
 -7.3636538e-01
 -3.3437085e+00
 -1.2265075e+00
 -1.3995686e-01
  5.5445129e-01
 -1.2978599e-02
 -1.6426684e+00
  2.1167233e+00
  5.2924335e-01
 -6.1076194e-02
  3.1702477e-02
  9.2681235e-01
  3.1074043e-02
 -4.3164393e-01
  6.2122118e-02
 -1.8565850e-01
  1.3834072e+00
  1.8861307e-01
 -2.6495929e+00
 -4.3961823e-01
 -1.4894556e-02
 -8.8345432e-01
 -4.5256067e-02
 -8.6866897e-03
  4.5288417e-01
 -4.8420757e-02
  8.0126800e-02
  3.6655617e-01
  3.3814648e-01
 -6.8590969e-01
 -1.6337036e-01
 -4.0487003e-01
 -1.4636692e+00
  1.6101125e-01
  1.0085596e+00
 -3.3077854e-01
  1.7349699e+00
 -5.9902483e-01
  8.8743246e-01
  1.2581766e-01
 -1.1630712e-01
 -1.5357888e+00
 -2.5346472e+00
 -8.5388726e-01
 -1.5818341e-01
 -1.0353936e+00
  4.9279146e-02
 -4.9630347e-01
 -1.3448292e-01
 -5.3099608e-01
 -7.0218170e-01
  4.1747582e-01
  9.8510951e-02
  1.2350808e-01
 -1.2065791e-01
 -2.0390207e-01
  1.4713459e-02
  1.6567171e+00
 -7.2370559e-01
 -2.7761158e-01
  1.0235100e+00
 -7.6294947e-01
 -5.9659517e-01
  4.8473549e-01
  1.9251528e+00
 -3.5278305e-01
  1.9406010e-01
  1.3929721e+00
  2.2003289e-02
  1.9035987e+00
  1.2598792e+00
 -1.8169305e+00
 -2.6258767e-01
 -8.2299650e-01
  1.7078500e+00
 -4.8468089e-01
  3.7348738e-01
 -1.4427680e+00
  7.9004532e-01
  1.0398027e-02
  1.4263998e-01
  2.5862640e-01
 -1.1413419e+00
 -4.6840131e-01
  6.4675945e-01
  9.5757097e-04
 -7.7495992e-01
  9.8494446e-01
 -3.3621716e+00
 -1.0111946e+00
 -9.7898167e-01
  1.7895730e+00
  2.4477583e-01
  3.8090098e+00
  3.2494721e-01
 -9.9784695e-02
 -7.7448028e-01
  7.4201673e-01
 -1.9727841e-02
  1.7390876e-01
 -6.0039345e-02
  2.2359863e-02
 -6.6151798e-01
  8.6037588e-01
 -9.9920201e-01
  1.5465158e+00
  3.0477327e-01
  8.8207819e-02
 -4.1477275e+00
 -2.8674047e+00
  2.1150213e-01
  9.9135429e-01
 -4.0685740e-01
 -1.5049959e+00
  1.6200684e+00
 -4.0922601e-02
 -6.8046659e-02
  1.7871388e+00
  7.5790876e-01
  1.8398982e+00
  1.0745153e+00
  5.8297253e-01
 -2.8230383e+00
 -4.2258152e-01
 -3.5532024e-02
 -7.7034664e-01
  1.1238031e+00
 -4.7290218e-01
 -2.2199688e-02
 -1.2073809e+00
  5.6178097e-02
 -2.2128321e-01
 -1.2651676e+00
  2.7824150e-02
 -6.4331961e-01
 -1.0987066e+00
 -6.5449625e-01
 -2.0595841e-02
 -1.3716743e+00
  5.0977111e-01
 -9.6670333e-03
  1.5295446e+00
 -1.0592481e+00
 -1.7951580e+00
 -9.4839031e-01
  4.1411942e-01
  5.5790987e-02
 -7.5707787e-01
  2.1925311e+00
  1.1575087e+00
  8.3046150e-01
  6.4572400e-01
  1.1270419e+00
 -9.5235926e-01
  1.7188558e-01
 -1.9425777e-01
  1.4379975e-01
  7.3480350e-01
 -1.0742460e+00
  3.4735405e-01
 -8.0341119e-03
 -2.6452103e-01
 -3.9115700e-01
 -1.2072091e+00
  3.0686822e+00
  8.9261800e-01
  1.1477120e+00
  1.4074794e+00
 -2.3116612e+00
  8.4049068e-03
 -3.0220598e-02
 -2.3978090e+00
 -3.5610396e-01
 -4.3818753e-02
 -1.5428177e-01
  2.7163558e+00
  1.3183370e+00
  8.6881900e-01
  1.0981381e-02
 -5.8231987e-02
  3.0511811e-01
  7.0178139e-01
  3.3649483e-01
 -1.2528586e+00
 -9.2587262e-01
 -7.0405245e-01
  1.6752313e+00
  1.0698599e-01
  7.6650800e-03
 -1.4531466e+00
  3.2278994e-01
  1.9956579e+00
 -2.1698506e+00
  9.4927722e-01
 -8.7863189e-01
 -2.3263142e+00
  8.4284216e-02
 -4.0819962e-02
  1.5206267e+00
  3.3102524e-02
  5.4178324e-02
 -3.0334227e+00
  1.2440208e+00
  2.6318641e+00
 -2.2939689e+00
 -1.1142792e+00
 -7.5394481e-02
  6.1712247e-01
  3.5075024e-01
  6.6898841e-01
 -1.8269111e+00
 -2.8536792e+00
  3.0090243e-01
  3.0777619e+00
  6.0204256e-01
 -4.2150235e-01
 -2.6247101e-02
  1.7142461e-01
  1.6790085e+00
 -2.0766672e-01
 -2.1075785e-02
  8.5478085e-01
  1.0524091e+00
  3.2496110e-02
 -1.2067457e-02
  2.2782704e-01
 -3.3213353e-01
  7.1139449e-01
 -1.4333759e-01
  1.7511994e+00
 -3.1970757e-01
 -1.7783152e-01
 -5.5963401e-02
  1.4912076e-02
  3.7568119e-01
 -2.0709908e+00
  8.5415073e-02
 -3.8078979e-01
  1.2423917e+00
  3.3827212e+00
 -1.7618029e+00
 -3.8553748e-01
 -7.0363176e-01
 -1.7629524e+00
  2.1045920e-01
  1.6246414e+00
 -1.0207022e+00
 -1.0816246e+00
  4.0929702e-01
  4.3320879e-01
  1.0446105e+00
 -6.7172313e-01
 -6.6632664e-01
  1.9667360e-01
  2.2794379e-01
 -1.8978212e+00
  1.2431719e-01
 -3.7404144e-01
  3.6042365e-01
 -7.3424257e-02
  1.3420600e-01
  6.3461989e-01
  3.4124714e-01
 -2.1774955e-01
 -1.3297937e+00
  3.2685483e+00
  1.1146526e+00
  1.3935827e-01
 -1.5091301e+00
 -1.4937490e-01
  1.3938367e-01
  2.5569543e-01
  1.9245814e+00
 -4.1602376e-01
  6.2360477e-01
 -2.4110641e-01
  7.5142026e-01
 -1.1909533e+00
  1.0775623e+00
 -1.6148828e+00
 -1.7963302e+00
  1.3634286e+00
 -3.9330074e-01
  1.3250285e+00
 -4.2149629e-03
  6.2963867e-01
 -6.1195061e-02
 -2.1970901e-01
 -3.2129526e-02
 -1.2400950e-01
  5.8186192e-02
 -1.3552106e-02
  7.0178397e-02
 -3.9118803e-01
 -3.5116449e-01
  1.6303480e+00
  7.6527715e-01
  5.6425446e-01
  6.2734234e-01
  3.0856624e-01
  5.4672647e-01
  3.2396388e-01
  1.0951241e+00
 -4.3176258e-01
  8.9481163e-01
 -6.2876761e-01
  9.2648375e-01
 -4.5233026e-02
 -2.0383148e+00
 -4.2228165e-01
 -7.3022068e-01
 -1.2047935e+00
  2.7081665e-01
  5.0684929e-02
  6.2547261e-01
 -4.9608570e-01
 -2.2441370e+00
  1.2973984e+00
  1.9940147e+00
 -5.3010511e-01
 -4.2703180e+00
  2.7774613e+00
 -2.5664660e-01
  1.3788961e+00
 -1.3264818e+00
  5.3832442e-01
  6.5424472e-02
 -5.5629835e-02
  1.6393512e+00
  1.7102648e+00
  1.0981665e+00
 -1.2691218e+00
 -1.1003097e+00
 -9.7699159e-01
  3.9379609e-01
  6.3928115e-01
 -1.0283517e+00
 -2.2016702e+00
  2.7790582e-01
  4.2727596e-01
 -1.9185032e-01
  8.4313415e-02
  2.0076668e-01
 -1.5801121e+00
  3.6278833e-02
  1.2878581e+00
 -8.1337535e-01
  6.6456728e-02
  2.1860242e+00
  9.3530655e-01
 -1.1961939e-01
 -7.9436666e-01
  6.1101365e-01
 -8.1743591e-02
 -1.2126199e+00
  9.5455736e-01
 -6.9587909e-02
  1.7858593e+00
  6.7275941e-01
  1.6100969e+00
  1.2544357e+00
 -6.3710195e-01
  5.2055191e-02
  6.7146987e-01
  1.5075861e+00
  2.4433215e+00
 -8.1351119e-01
  1.1802686e-01
 -7.9177275e-02
 -6.5293148e-02
 -1.3557913e+00
 -7.1466953e-01
 -2.1418335e-01
  6.9152808e-01
  1.0151079e+00
  3.4298888e-01
 -1.0910684e+00
 -7.7289641e-01
 -1.8866102e-01
 -1.9727592e+00
  2.1921296e+00
  8.5333800e-01
 -3.4605095e-01
  1.0428332e+00
 -5.3514940e-01
  1.0797510e-01
 -7.0906408e-02
  2.5049829e-01
 -3.5085104e-02
  4.0207613e-01
 -2.8023669e-01
  2.2009711e-01
 -1.1215430e+00
 -4.0605348e-01
  4.1695526e-01
  9.5846064e-02
 -3.1993985e-01
  1.9695554e+00
  1.1944962e+00
  3.8355384e+00
 -1.5518017e+00
 -1.7547899e+00
  1.7316178e+00
  5.3004706e-01
  7.2130024e-02
  1.8607537e-01
  8.5229099e-01
  1.7063542e-01
 -2.0091023e+00
 -6.0455292e-01
  2.4369920e-02
 -5.3517055e-02
 -1.0948019e+00
 -1.1880171e+00
 -2.5974014e-01
 -1.1126448e+00
  3.5261369e-01
  6.2543705e-02
 -2.3258259e+00
 -2.1240580e+00
  4.2600374e+00
 -1.1182227e-01
  2.9699647e-01
  7.8057623e-01
  2.4554980e+00
  1.4598837e+00
 -1.8422450e+00
 -3.1839447e+00
 -1.0963348e+00
  1.9155513e+00
 -3.8810574e-02
  7.5421023e-01
  2.6275687e+00
  2.6785555e-01
 -2.4219800e-02
 -3.4558280e+00
 -3.1479332e-01
 -1.1124467e+00
  5.3572811e-02
  3.6140367e-01
 -2.4038033e+00
  3.3404791e+00
 -1.5851829e+00
  4.5515198e-01
 -4.0130301e+00
 -1.5254639e+00
 -2.3275857e+00
 -3.3046153e+00
  3.0700186e-01
  1.9170061e-01
 -1.1674032e+00
 -5.2818429e-01
  6.7556491e+00
  7.5476354e-01
 -8.4223902e-01
 -4.3527943e-01
  6.0519874e-01
  2.9209641e-01
  7.6650247e-02
 -4.4969633e-01
  6.1970223e-02
 -4.5878325e-02
  1.3210812e+00
  3.1272948e-01
 -1.5126255e+00
 -9.7561389e-01
 -4.1693062e-01
 -9.8930955e-01
 -7.8773773e-01
  1.2742091e+00
  1.1809094e+00
 -1.6177074e+00
  4.8943010e-01
 -9.3092704e-01
  2.6415439e+00
  1.3005087e+00
 -1.8299191e+00
  1.1519916e+00
  6.2703472e-01
  8.3280265e-01
 -1.2694674e+00
  6.8921423e-01
  2.7946582e-01
  6.4837140e-01
  1.6987866e+00
  5.5624723e-02
 -1.2777847e+00
  1.1519485e+00
 -1.3082519e+00
  1.3302249e+00
 -8.5716033e-01
 -1.1226627e+00
  5.6379437e-01
  4.3171486e-01
  2.5088258e+00
 -1.4895418e+00
  7.0703506e-01
  3.4906378e-01
  6.3232005e-01
 -1.3596388e+00
 -1.5542628e+00
 -1.7575604e-01
 -3.7831137e-01
  4.7009262e-01
 -8.3157176e-01
  1.1641663e-01
 -2.1397676e+00
  3.0073747e-01
 -1.1922076e+00
  1.6665357e+00
 -1.2312957e-01
  5.3697042e-02
 -1.4624581e-01
  1.8140152e+00
 -1.1304818e-02
 -2.5418496e-01
 -1.1128807e-01
  2.9231458e+00
  7.4641079e-01
 -4.1968608e-01
  5.1823124e-02
 -8.0441810e-02
  6.5142848e-02
  2.9607161e-03
 -3.3461213e-02
  1.4110294e-01
 -2.6581576e+00
  1.2980446e+00
  5.6923047e-02
  5.9014566e-02
  7.5455517e-01
 -1.2448352e-02
 -8.4467605e-02
  3.4771052e-01
  1.9474770e-01
 -3.0724716e+00
 -9.5642573e-01
 -3.1158495e-01
 -1.5006694e-03
 -8.0536461e-01
  1.8866553e+00
  2.2733650e-01
 -1.1459640e-01
  1.4908562e+00
  2.2193077e+00
  2.2305887e+00
 -1.2958530e+00
 -1.5619008e-01
 -2.4650203e-01
 -9.6068281e-01
  2.4170747e-02
  1.4154602e-02
 -3.5601172e-01
  9.8508888e-01
  5.9136214e+00
 -3.4609711e-01
  4.0680629e-01
  4.9309134e-01
 -6.8562046e-02
 -1.8886290e-01
  1.3156167e-01
  3.4660074e-01
 -1.1356884e+00
  3.0224809e-01
 -2.0995468e-01
 -6.4999944e-01
  7.7147330e-03
  3.7730026e-01
  1.7538503e-02
  9.9745385e-02
  1.6891743e-01
 -2.5265529e+00
 -8.3927196e-01
 -1.7679958e+00
 -3.4616636e-03
 -1.6135252e-01
 -1.9370383e-01
  8.2367443e-02
 -1.5107566e-01
  1.3404686e+00
 -1.0503702e+00
  4.4899052e-01
 -1.2271367e+00
  3.7008786e-01
  1.1496669e-01
  7.0166212e-01
  1.6148761e-02
 -1.5866498e-02
 -5.0702196e-01
  4.0727472e-01
  2.6324251e+00
  8.7541753e-01
 -9.4534802e-01
 -1.9611953e-02
 -1.8213780e-01
  5.0097454e-02
  2.4327053e-01
  1.3285953e-02
  1.5163889e+00
  7.6254290e-01
  1.5830125e+00
  8.1413001e-01
  2.9672118e-02
  1.7850408e-01
  1.0251128e-01
  2.4935555e-02
  1.6829772e-02
  3.1701558e+00
  1.3517067e+00
  1.9084811e+00
  1.3331947e-01
 -5.2375388e-01
  6.3318968e-01
 -7.8804091e-02
  1.3918996e-01
  1.4127215e+00
  7.7633604e-02
  1.1568402e+00
 -9.8028697e-02
 -9.1424447e-01
 -4.4936687e-02
  9.7038704e-01
 -8.3267577e-02
  4.5890981e-01
  1.2367734e+00
  1.3671330e+00
  1.3368729e+00
 -1.8646197e+00
  8.5889578e-02
  5.0246637e-02
  1.1432412e-01
  1.5493557e-02
  1.0611042e-01
 -2.8153460e+00
  1.0396112e+00
 -1.5042573e+00
 -2.0156209e-01
  2.4454409e-02
 -2.1382719e-02
 -6.2201009e-03
  1.3256818e-02
 -4.7380589e-02
  6.2089187e-01
 -9.3135156e-02
  4.1757539e-02
 -4.3995496e-02
  1.9668926e-02
 -3.1131035e-02
  2.5279841e-01
  1.5724222e-01
  4.0295742e-02
  1.4003855e+00
 -9.4961688e-02
 -1.4195539e-01
 -8.9430422e-01
 -3.1974219e-02
  2.7440533e-02
 -2.0640340e-01
  1.9058906e-01
 -2.8334394e-02
 -1.1914550e+00
  3.2327563e-02
 -7.0729500e-01
 -1.5357532e-01
 -1.0868545e-01
  7.3628664e-02
  8.0265206e-01
  1.0146411e-02
 -6.2357064e-02
  9.4314758e-03
 -2.1485719e-01
  1.5492018e-01
  9.1428764e-02
  5.6308974e-02
 -7.2473399e-02
  3.6200650e-02
 -4.2094346e-03
  4.2304479e-02
  2.2971072e+00
  6.7038363e-01
 -5.3418607e-01
  1.3185351e+00
 -6.6486797e-03
 -6.9079017e-03
  5.7643843e-01
  6.2913045e-02
 -1.6226202e-02
  1.9434772e-01
 -4.6026033e-01
 -1.9732808e+00
  8.7387055e-01
  6.6971570e-02
  1.6964474e-01
  3.5602871e-01
  2.1223837e-01
  6.4014360e-02
  2.4134612e+00
 -6.7417204e-02
  1.2368572e-01
  1.1649897e-01
  4.0103802e-03
  1.7560136e-02
  1.9231525e-01
 -5.7951923e-02
  4.0123574e-02
 -9.5681265e-02
  1.0903068e+00
 -1.4282312e+00
  1.3043405e-01
 -4.4586621e-02
  3.7623441e-03
  1.8437344e-01
 -2.7064869e-02
  1.8094722e-02
 -3.6085147e-01
 -3.8166600e-01
  3.5159094e+00
 -2.5803007e-02
  2.9380381e-02
 -2.7045611e-01
  5.9989876e-01
 -3.6769520e-02
 -1.3197868e-02
 -5.7740152e-01
  3.0923504e-01
  2.1984882e+00
  3.4967276e-01
  2.4662243e-02
  9.0162314e-02
  7.8693104e-01
  1.2236388e-01
 -7.1368679e-02
  7.1161211e-01
  1.0317206e+00
  5.6451380e-01
  2.0269339e-01
  7.6211713e-02
 -1.7369643e-03
  1.8262622e-01
  2.5821876e-02
  3.7067283e-02
  8.4252909e-02
  8.2576913e-01
 -1.9888103e+00
  1.7033355e-01
  6.2645942e-02
  2.9639548e-01
 -2.1606265e-01
  9.2614003e-02
 -4.1381281e-02
  7.4858660e-01
 -1.1988568e+00
  5.7337952e-01
 -3.9207825e-01
  3.6161095e-02
  8.6202405e-02
 -9.3692213e-02
 -1.1491033e-01
  1.5462287e-02
  1.8703735e-01
 -3.8961573e-03
 -5.4625506e-03
  7.9870246e-02
  1.4062758e-01
  5.3620569e-02
 -8.2291976e-02
 -1.0596606e-01
  4.9956281e-02
 -1.1856085e-01
 -1.7351769e+00
  3.0905453e-02
 -1.1477404e-01
 -6.2191050e-02
 -2.7074611e-02
 -8.4900713e-01
  2.2018295e-02
 -4.5537271e-02
 -1.9366250e+00
 -1.5143564e-01
 -2.3456976e+00
 -1.2826043e-02
  5.6693427e-02
  3.3579781e+00
 -9.8422036e-02
 -5.9042029e-02
 -5.9789296e-02
  1.4409749e-03
  1.2516692e+00
  1.3311551e-02
 -4.4827762e-01
  5.4461315e-02
 -8.8630784e-03
 -1.9434799e+00
 -6.1154395e-02
  3.4632944e-02
  1.3101039e+00
 -2.7516913e-01
  2.5837758e+00
  1.4307782e-01
  7.8214444e-02
  5.3958204e-02
 -1.2211811e-01
  2.7602462e-02
 -2.5607377e-02
 -6.7948449e-01
 -1.5155145e-03
  4.6270934e-01
 -2.8193614e-01
  3.3349637e-02
  4.0842697e-01
 -9.1078117e-02
 -3.7314883e-03
 -4.0450608e-03
  9.7163036e-02
 -2.5546810e-01
  2.1156280e+00
  8.7804571e-03
 -6.0877190e-03
 -4.2418219e-02
 -9.1272664e-01
  2.1154197e-02
  6.5034173e-02
 -1.1021568e-01
 -5.9201556e-01
  5.2797765e-01
 -3.8949731e-01
  2.8248131e-01
  2.4852476e-01
 -2.1101421e-01
  1.7843049e-02
 -1.1274482e-02
  3.2061109e-01
  1.9707209e+00
  5.8235115e-01
  2.3004887e-01
  5.4564770e-02
 -2.1741485e-02
 -7.7783191e-01
  2.4235670e-02
 -1.7004563e-02
 -1.5000288e+00
  1.4234155e+00
  2.7110437e-01
 -6.4262283e-01
  3.8601331e-02
  3.9721394e-01
 -1.3024403e+00
 -1.0534582e-01
  1.5566185e-01
 -2.8900895e-01
 -4.2917758e-01
 -4.6104550e-02
 -1.4851789e+00
  8.0502629e-03
  6.2818021e-02
 -5.0990528e-01
 -8.5423347e-03
  1.2132363e-01
 -4.0353072e-01
 -1.0253737e+00
 -8.0942112e-04
 -7.2057742e-01
 -2.2515021e-02
  9.9431926e-01
  5.7385659e-01
 -2.4840867e-02
  1.0030378e-01
 -2.1092415e+00
  4.4730714e-01
  7.1673399e-01
  1.2629055e+00
  6.8398066e-02
 -1.2364991e-02
 -2.3530617e-02
  9.0463430e-02
  1.9203424e-02
  3.4490600e-04
  8.0672028e-03
 -5.4214376e-01
 -9.2753339e-01
 -1.3755535e-02
  6.2055910e-01
  2.9078387e-02
 -1.1197326e-01
 -1.5749731e+00
 -8.6531669e-01
 -2.2503965e+00
 -1.1391779e+00
 -1.2691370e+00
 -3.8599495e-02
  9.0153508e-02
  1.8527195e+00
  5.3454679e-03
 -3.1004222e-02
  1.6368442e+00
 -1.3125405e-01
 -3.0193605e+00
 -1.1660396e+00
  1.9459795e-02
 -1.2151838e-02
 -8.8636410e-01
 -2.8226640e-02
  9.1489136e-02
 -5.9652209e-01
 -4.7966763e-02
 -8.7735605e-01
 -5.0335240e-01
 -3.0243695e-03
  7.8818738e-01
  4.6386987e-02
 -8.9153729e-02
 -3.8770646e-02
 -1.3854834e+00
 -2.1650065e-02
  3.0885783e-01
 -8.8689595e-01
 -3.7977204e-02
 -2.4775660e-04
  1.2931117e-01
  6.6627730e-03
  6.5338463e-02
 -4.2027524e-01
 -1.1534534e+00
 -1.2376055e+00
  1.1761672e+00
 -5.6418516e-03
  4.9942324e-01
 -1.3523786e-01
  2.2020567e-02
  5.3865481e-02
 -9.1894031e-01
 -3.0286872e-01
 -1.2098954e+00
  1.1544981e+00
 -1.1456528e-01
  3.5442397e-02
  6.1159290e-02
 -2.1606641e-02
 -1.2000713e-01
 -2.4879307e-01
  3.9394956e-02
  1.8735979e-01
  3.4275040e-01
 -2.4057791e-02
  3.8544706e-01
 -9.3790644e-01
 -3.6774474e-01
 -3.3133295e-01
 -2.4448580e-01
  1.2817242e+00
 -7.4617475e-01
  4.8258656e-01
 -1.9347336e-02
  1.5004587e-01
  1.0975549e-01
 -6.6325642e-02
  3.0603535e-02
 -5.7547909e-01
  5.0050312e-01
 -5.7201469e-01
  1.9198363e+00
 -9.9025168e-02
  3.8081683e-02
  7.0980895e-01
 -2.0085470e-01
 -6.0793679e-02
 -6.9605756e-01
 -1.0397837e+00
 -4.5658553e-01
  1.7783684e+00
  1.1717293e-01
  3.8495459e-02
  8.6259179e-02
  9.9946111e-03
  8.4205344e-02
 -4.3699792e-01
 -8.9409113e-01
  2.2683544e-01
  7.7643818e-01
  2.2540381e-02
  7.0972189e-02
  2.9491443e-02
  1.1059792e+00
  1.7900748e-02
 -2.6036599e+00
 -7.4031579e-01
  3.8863584e-01
  6.6266114e-01
 -1.2723364e-02
  3.6925268e-03
 -2.0052463e-02
  1.2475396e-02
  1.9872926e-02
  1.8980982e-02
 -5.5877805e-01
  1.5434611e+00
  1.0044661e-01
 -6.2005978e-02
  7.0560267e-03
  4.8811687e-04
 -1.9163667e-01
  3.9154600e-02
 -5.8317947e-01
  1.1282004e+00
 -6.7972249e-01
  8.0242252e-01
  2.7079629e-02
 -1.7438425e-01
  3.5671771e-02
  2.2421925e-01
  2.1964844e-02
 -1.5627828e+00
 -2.3943698e+00
  5.4426420e-01
  1.4347783e+00
  1.6303906e-02
 -5.9557129e-03
 -5.3679582e-02
  2.5301930e-01
  7.6100528e-02
  1.4960854e-01
  6.7173935e-02
 -1.7103022e-01
 -5.8909434e-01
  1.2226281e-02
 -6.2766559e-02
 -2.6457086e-01
  1.0466719e+00
  6.1438731e-03
  2.1805274e+00
  2.4851120e+00
 -1.2028797e-01
  5.5832857e-01
 -9.5553234e-02
 -1.4252063e-02
  1.0986456e-02
  1.3052450e-01
 -4.1307621e-02
 -8.2614690e-02
 -1.7623552e+00
  8.5651025e-02
  4.2945746e-01
  1.3683525e-02
  5.0133284e-02
  7.2951429e-02
  2.0526879e+00
 -1.1282043e-02
 -2.0254292e+00
  2.2819233e-01
 -2.1200428e+00
  3.2209718e-01
  1.0059722e-02
  1.0552116e-01
  4.4347167e-02
  2.0151955e-01
  9.2357453e-03
  4.4396427e-01
 -1.5311056e+00
  8.4746825e-03
  4.1826719e-01
 -2.0709045e-02
 -1.4191247e-02
  5.5448707e-02
  1.8297587e-01
 -3.0079367e-02
 -3.5034224e-01
 -2.8126748e+00
  1.3317621e+00
  1.4963347e-01
  5.2176708e-01
 -3.9722938e-03
 -1.4608097e+00
  9.5170766e-01
  7.1534097e-02
 -1.0908734e+00
 -2.4659986e+00
  2.8840506e-01
  3.3105063e-01
  4.7157429e-02
  2.6535856e-02
  5.9721377e-02
  4.0962905e-01
  2.4199679e-02
 -7.8422584e-02
 -7.4383307e-01
 -3.2019493e-01
  3.2658154e-01
  4.3714225e-02
 -7.0587531e-02
 -2.8739773e-02
  5.1500404e-01
 -1.2518417e-03
  5.3802973e-01
 -6.0630822e-01
 -1.4854916e-02
  4.3550294e-02
 -3.3986378e-02
 -2.7288418e-02
  4.0970302e-01
  7.9402596e-02
 -7.5743115e-03
 -8.9680117e-01
  6.0468376e-01
  1.1269697e+00
 -3.1992394e-01
 -2.4463236e-02
  3.3987075e-02
 -1.7187387e-02
  9.1183744e-03
 -1.7243148e-01
  6.1782002e-01
 -1.1239772e-01
 -4.7047202e-02
  1.6819984e-03
  1.8014003e-02
 -9.5895477e-02
 -1.9513370e-02
 -2.2348218e-02
 -2.5307316e-02
 -7.9577523e-01
 -1.1601983e+00
  1.9135065e+00
  7.1910292e-01
 -8.2903504e-02
  3.8251374e-02
 -5.6991829e-03
 -1.2091387e-01
 -8.2160793e-03
  2.9284377e+00
  9.2491701e-02
  1.5012764e+00
  5.3016100e-02
 -1.2770617e-02
  9.9103898e-03
  2.5586702e-02
 -6.4075685e-01
 -1.3139144e-01
  9.7885206e-03
  2.1666868e-02
 -6.3013509e-02
 -2.8909132e+00
  7.9728283e-02
  6.6155799e-02
 -2.8790189e-03
 -1.0221272e-02
 -8.3274283e-02
 -1.7738561e-01
 -8.4628999e-01
 -1.4034965e+00
 -3.4835628e-01
  9.4422875e-03
  1.7429702e-05
  8.8756636e-02
 -2.4227172e-02
  1.3865065e-02
  7.8841221e-01
 -3.9248019e-01
 -3.1067315e-02
 -4.3867946e-01
 -7.0864870e-03
 -1.7686270e-02
 -3.6494393e-02
  1.6068359e-01
 -4.2488832e-02
  1.9987382e+00
  3.6003950e-01
  7.2292793e-01
  1.0614495e+00
 -3.9581269e-02
 -2.8697226e-02
 -8.8481084e-02
  1.1090581e-02
  2.2791799e-02
  1.5481585e+00
  2.4596302e-01
  3.9199489e-01
  6.6720545e-01
 -2.4197577e-03
  5.2290127e-02
 -4.2784382e-03
 -1.6663427e+00
  3.1718314e-02
  4.5588002e-01
 -7.0771664e-01
  4.2238634e-02
 -1.1031971e+00
 -2.8068977e-03
 -2.8292306e-02
 -2.8067902e-02
 -2.0260811e-02
 -6.3033663e-02
 -3.8293672e-01
  2.0726956e-02
  1.3323870e-01
 -8.7400764e-01
 -7.0474017e-03
 -1.2030039e-02
 -4.9655490e-02
 -8.7446859e-04
  1.4613351e-02
 -1.3084126e-01
  1.4499714e+00
  2.8160834e-01
 -5.9253544e-01
  3.4977246e-02
  3.6238912e-03
  8.2643256e-03
 -8.3400324e-02
 -2.6016425e-02
 -2.5873584e-01
  9.8883212e-01
 -7.2094679e-02
 -1.0718441e+00
  8.7784547e-03
  8.7784547e-03
  8.7784547e-03
  8.7784547e-03
  8.7784547e-03
  3.5116920e-01
  3.5116920e-01
  3.5116920e-01
  3.5116920e-01
  3.5116920e-01
  6.5169759e-02
  6.5169759e-02
  6.5169759e-02
  6.5169759e-02
  6.5169759e-02
  5.7214946e-02
  5.7214946e-02
  5.7214946e-02
  5.7214946e-02
  5.7214946e-02
  7.2436207e-03
  7.2436207e-03
  7.2436207e-03
  7.2436207e-03
  7.2436207e-03
  5.8097579e-02
  5.8097579e-02
  5.8097579e-02
  5.8097579e-02
  5.8097579e-02
